{"model_type": "MarioMLP", "state_dict": {"net.0.weight": [[-0.36255091428756714, 0.008895136415958405, 0.05491688847541809, -0.08301284164190292, -0.0506366528570652, 0.019159438088536263, 0.045590758323669434, -0.1322990357875824, -0.11775871366262436, 0.04515219107270241, 0.03874002769589424, -0.10244636982679367, -0.04050334542989731, -0.009963059797883034, 0.01693054474890232, 0.018963603302836418, 0.028446359559893608, -0.1040782481431961, -0.08137578517198563, 0.022953838109970093, -0.10780289024114609, -0.07688827812671661, -0.06303900480270386, 0.4044221341609955, 0.02713959477841854, 0.43787842988967896, 0.15138202905654907, -0.07667569816112518, -0.15397217869758606, -0.11025385558605194, -0.023889930918812752, 0.10542596131563187, -0.05849084258079529, -0.03490297868847847, 0.018026078119874, 0.058502208441495895, -0.06919095665216446, -0.14598523080348969, 0.0030227210372686386, 0.020737821236252785, -0.07630785554647446, -0.0018728375434875488, 0.09887576103210449, 0.05112341046333313, -0.12664414942264557, -0.03976361081004143, 0.014412974007427692, -0.23662875592708588, -0.16681329905986786, 0.02993016131222248, 0.04635203629732132, -0.04697625711560249, -0.3772459626197815, -0.30757778882980347, -0.04274928569793701, 0.2655293941497803, -0.03573867678642273, -0.19642241299152374, -0.03759681060910225, 0.011293473653495312, 0.02144709601998329, -0.09036361426115036, 0.09913847595453262, -0.2928648591041565, -0.10801590979099274, -0.030314967036247253, -0.12436065077781677, 0.055086053907871246, 0.07597463577985764, -0.17108149826526642, 0.06952913850545883, -0.07088737934827805, 0.0321774035692215, -0.1410762071609497, 0.07661356776952744, -0.18608880043029785, -0.1245642825961113, -0.3068872094154358, 0.5382785201072693, -0.06996811926364899, 0.35556042194366455, -0.023963358253240585, 0.30678072571754456, -0.015679707750678062, 0.15554694831371307, -0.7277143597602844, 0.3889259696006775, -0.6585193276405334, 0.08229313045740128, -0.24183844029903412, 0.0757651999592781, -0.1337652951478958, -0.2500067949295044, -0.027192551642656326, 0.23931659758090973], [-0.5727517008781433, 0.5288766026496887, 0.08287499845027924, -0.008075296878814697, -0.06787380576133728, -0.030292334035038948, -0.13258245587348938, 0.343567430973053, 0.0461202897131443, 0.06490809470415115, -0.06442340463399887, 0.08019411563873291, -0.055644407868385315, 0.029605843126773834, 0.12690147757530212, 0.010813242755830288, 0.08962971717119217, -0.00039315008325502276, -0.03382762521505356, 0.004931886214762926, 0.05341988801956177, 0.1199728399515152, 0.18792824447155, -0.13939157128334045, 0.4535670876502991, 0.09710019826889038, -0.019179468974471092, 0.3229616582393646, 0.07799094915390015, 0.035752907395362854, 0.007508289534598589, -0.128718763589859, 0.1743750125169754, 0.13989074528217316, 0.06437445431947708, -0.0396556630730629, -0.10769569128751755, -0.05337589606642723, -0.10332338511943817, 0.11437106877565384, 0.008926399983465672, 0.0008690459653735161, 0.05289313942193985, -0.056058160960674286, -0.025436239317059517, -0.04080842435359955, -0.09855044633150101, -0.16544939577579498, -0.054865866899490356, 0.05292825400829315, 0.012950739823281765, 0.22843797504901886, 0.15583489835262299, 0.17875215411186218, 0.08771772682666779, 0.41716307401657104, -0.18933464586734772, -0.007839873433113098, 0.20504359900951385, -0.004116307944059372, -0.010556420311331749, -0.0348031148314476, -0.01597750373184681, 0.17859666049480438, 0.11038529127836227, -0.03934810310602188, -0.03918226808309555, -0.18394193053245544, -0.05205985903739929, -0.1264788806438446, 0.14436528086662292, 0.06877759099006653, 0.021006613969802856, -0.2033042311668396, -0.19378848373889923, 0.06071367487311363, -0.2714994549751282, 0.0014666577335447073, -0.025569478049874306, -0.11745354533195496, 0.026775890961289406, 0.24429547786712646, 0.1346718668937683, 0.0020171296782791615, 0.13214147090911865, -0.6204479336738586, 0.41178280115127563, -0.8294863700866699, 0.3900107741355896, -0.4471338093280792, 0.30524930357933044, -0.20971693098545074, -0.09797642379999161, -0.2287493795156479, 0.12839387357234955], [-0.3102758526802063, 0.3549618721008301, 0.02499966323375702, 0.07253758609294891, -0.052506089210510254, 0.4951196014881134, 0.06467635929584503, -0.5179756879806519, 0.07403532415628433, -0.1021730974316597, -0.1073467880487442, -0.04163343086838722, 0.12169893085956573, -0.04328618198633194, -0.09244044125080109, -0.0032457057386636734, -0.0787183865904808, 0.04305079206824303, -0.01711590401828289, -0.00035930436570197344, 0.04278901219367981, 0.018688814714550972, 0.1900937557220459, -0.06718731671571732, -0.09600774198770523, -0.09253785759210587, -0.08940506726503372, 0.017353227362036705, -0.25985586643218994, -0.17997416853904724, -0.18711377680301666, -0.05899198353290558, 0.04896156117320061, 0.11138927191495895, 0.05971287563443184, -0.08002660423517227, -0.03696773946285248, -0.11569946259260178, -0.027262993156909943, -0.02777016907930374, -0.03699642792344093, -0.07992000877857208, 0.08656436949968338, -0.16902099549770355, -0.08193723857402802, -0.06596782058477402, 0.018685759976506233, -0.18779179453849792, -0.19149333238601685, 0.08554872125387192, -0.0604250393807888, -0.16595585644245148, 0.09206601977348328, 0.2706019878387451, -0.22511805593967438, -0.07051175832748413, 0.02916083298623562, 0.02333466336131096, 0.13123074173927307, -0.17998197674751282, 0.02793104015290737, 0.04130623862147331, -0.038883913308382034, 0.001366467447951436, 0.1085604801774025, 0.0891900509595871, 0.03889453411102295, -0.36000487208366394, -0.08390841633081436, 0.10775142163038254, -0.1594063639640808, 0.15786373615264893, 0.03581816703081131, -0.0262311939150095, -0.1484885811805725, 0.04340699687600136, 0.03150232136249542, -0.015326997265219688, 0.0034068836830556393, -0.21906879544258118, 0.038000378757715225, -0.11973312497138977, -0.09828655421733856, 0.12362464517354965, -0.04921790957450867, -0.03753472864627838, 0.24667565524578094, -0.06539423018693924, -0.08677835017442703, -0.03529932349920273, 0.005361143033951521, -0.21821153163909912, 0.23414725065231323, -0.0786605030298233, -0.22416912019252777], [0.33714133501052856, 0.08168879896402359, -0.013534113764762878, 0.10128109157085419, -0.011177971959114075, 0.0608646459877491, -0.06505933403968811, -0.28454992175102234, -0.04468632489442825, 0.12030454725027084, 0.023374022915959358, 0.1550634652376175, -0.05433891713619232, 0.07639047503471375, 0.16637004911899567, -0.002392533700913191, 0.16722728312015533, 0.013993708416819572, 0.13787811994552612, 0.04894258826971054, 0.08656482398509979, 0.12240047007799149, -0.1260465383529663, 0.01046527549624443, -0.46546459197998047, 0.3422029912471771, 0.04397604614496231, 0.21928757429122925, -0.23563706874847412, 0.11316785961389542, -0.005348962265998125, 0.001839506789110601, 0.06009792909026146, -0.06781592965126038, 0.017807630822062492, 0.07495822012424469, 0.10665617883205414, -0.009608542546629906, -0.13514186441898346, -0.07215340435504913, -0.09267055243253708, 0.08424524962902069, 0.0023122692946344614, 0.03801837936043739, -0.07778557389974594, -0.10111832618713379, 0.0010186326690018177, -0.0741441398859024, -0.09776072949171066, -0.05321095138788223, -0.3308923542499542, -0.2436785250902176, -0.06714553385972977, -0.24873432517051697, 0.10667522251605988, 0.0854969471693039, -0.3302777409553528, 0.06260272860527039, 0.07508397847414017, 0.1433965414762497, 0.04803073778748512, 0.05869569256901741, -0.05289863049983978, 0.16843624413013458, -0.038899362087249756, 0.16813504695892334, -0.12531687319278717, 0.09154365956783295, -0.0803593248128891, 0.04117743670940399, 0.05164121463894844, 0.10261495411396027, 0.1152353435754776, -0.028085799887776375, 0.00010011304402723908, 0.10132373124361038, 0.141587495803833, 0.019193757325410843, -0.04629388079047203, 0.061277635395526886, -0.1262776255607605, -0.11571232229471207, 0.06446652114391327, -0.19465386867523193, 0.15306740999221802, 0.2300630807876587, 0.2053312212228775, 0.3853621482849121, 0.052585240453481674, -0.18791784346103668, -0.08051927387714386, -0.14743565022945404, 0.33382943272590637, 0.027914833277463913, -0.33074304461479187], [-0.0334242582321167, 0.08060215413570404, 0.04131680727005005, 0.0710652619600296, -0.07840787619352341, -0.20923298597335815, 0.5418846011161804, 0.14364093542099, -0.015932569280266762, 0.007233074400573969, -0.09342784434556961, -0.09251035749912262, -0.04243147745728493, -0.12234552949666977, -0.06659959256649017, -0.06689628213644028, 0.05351048707962036, -0.10182300955057144, 0.08462102711200714, -0.11158538609743118, 0.0069957696832716465, -0.08016099035739899, -0.0032184538431465626, -0.045471835881471634, -0.11308018118143082, 0.03114471025764942, -0.1825343519449234, 0.03542270511388779, -0.012954880483448505, 0.04198937863111496, -0.05085397884249687, 0.07940014451742172, -0.051238663494586945, 0.18527692556381226, -0.03842457756400108, 0.0027731305453926325, -0.0654616430401802, -0.05121033266186714, 0.08918944746255875, -0.0011179534485563636, -0.07116754353046417, -0.04173639789223671, -0.1001562848687172, -0.022904783487319946, -0.16496334969997406, -0.036692168563604355, -0.07064016163349152, 0.0008313144790008664, 0.002045196481049061, -0.013718613423407078, -0.04106081277132034, -0.035000886768102646, 0.29839640855789185, -0.004217942710965872, 0.4683499336242676, -0.023367369547486305, 0.26727917790412903, -0.15087929368019104, 0.012079867534339428, -0.035611625760793686, -0.19949871301651, -0.3325168490409851, 0.01056600734591484, -0.13387088477611542, -0.11292720586061478, -0.2271682173013687, -0.08527478575706482, 0.1629997044801712, -0.2557690739631653, -0.09806351363658905, 0.06502611190080643, 0.040941767394542694, -0.11859825253486633, -0.2606538236141205, 0.0966368019580841, -0.10767381638288498, -0.09593044221401215, 0.06982038915157318, -0.16277574002742767, 0.11660879105329514, 0.04811999201774597, 0.20689599215984344, -0.2440050095319748, 0.1015564426779747, -0.03232100233435631, -0.47081097960472107, 0.45070430636405945, -0.17431344091892242, 0.476025253534317, -0.3950689136981964, 0.4253532290458679, -0.1660529375076294, -0.08900099247694016, -0.02830910123884678, -0.0498388297855854], [-0.5220282077789307, 0.4632563889026642, 0.08716551959514618, 0.05472862720489502, -0.10179996490478516, 0.18676507472991943, 0.32770416140556335, 0.8494840860366821, -0.015355917625129223, 0.18414542078971863, 0.08479447662830353, -0.09579356014728546, -0.05381299555301666, 0.05802077427506447, -0.15434329211711884, -0.06630577892065048, 0.03054201975464821, -0.022833917289972305, 0.0001514028263045475, 0.059797003865242004, -0.053440745919942856, -0.11025886982679367, -0.27008286118507385, -0.013441449031233788, -0.1719367951154709, -0.11204755306243896, 0.035243161022663116, 0.3644593060016632, -0.035750649869441986, -0.1407673954963684, 0.14902593195438385, 0.03481174632906914, -0.028956538066267967, -0.0851345881819725, 0.04348517954349518, -0.11201367527246475, -0.14242690801620483, 0.1077074259519577, 0.0010946705006062984, -0.08836612105369568, -0.18130914866924286, -0.06393347680568695, 0.20653243362903595, -0.11984297633171082, 0.10623130947351456, -0.17051610350608826, -0.0778002142906189, -0.13295403122901917, 0.08942429721355438, -0.015527786687016487, -0.1908191293478012, 0.06380429118871689, 0.0013195445062592626, 0.21533915400505066, -0.09196420013904572, -0.03886726498603821, 0.16155344247817993, 0.022187722846865654, 0.2849881947040558, 0.15306150913238525, 0.12317502498626709, 0.07131658494472504, 0.027983903884887695, 0.0027815576177090406, -0.04232550412416458, 0.06458824127912521, -0.08109113574028015, -0.24081872403621674, -0.25700026750564575, 0.0495288223028183, 0.08389057219028473, -0.047816112637519836, 0.10948261618614197, -0.3181624114513397, -0.3009428381919861, 0.13708677887916565, -0.07373791933059692, 0.08965834230184555, 0.010157810524106026, -0.2424667477607727, 0.03672804683446884, 0.24322298169136047, 0.2166321724653244, 0.2294103354215622, 0.24221187829971313, 0.06925392895936966, -0.08404573798179626, -0.20638856291770935, 0.0466509684920311, 0.012738889083266258, -0.036454807966947556, -0.032305069267749786, 0.1951936036348343, 0.0985824465751648, -0.17177070677280426], [0.4195542633533478, 0.38918355107307434, 0.03057880699634552, 0.022610947489738464, 0.008229553699493408, 0.25839510560035706, 0.2870886027812958, 0.004047482740134001, -0.1885610967874527, -0.24603649973869324, 0.039443712681531906, -0.22305238246917725, 0.021310869604349136, 0.1789863109588623, -0.2115546613931656, -0.10332706570625305, -0.22537285089492798, 0.035681117326021194, -0.14111149311065674, 0.1167648583650589, 0.12504591047763824, -0.1526903659105301, 0.2577216923236847, 0.04118720442056656, -0.23174084722995758, 0.14062725007534027, 0.1258138120174408, -0.0783621296286583, 0.10274571925401688, -0.0313619039952755, -0.031689438968896866, 0.1463729292154312, -0.05221397429704666, 0.009228364564478397, 0.09682518243789673, 0.05773308128118515, 0.032253894954919815, -0.1638123095035553, 0.017956703901290894, -0.05265473946928978, -0.12471991777420044, -0.03845103457570076, -0.0239410363137722, -0.09580586105585098, -0.03352087363600731, 0.011253456585109234, 0.00976993702352047, 0.03965252265334129, -0.042388178408145905, -0.03837613761425018, 0.4328509271144867, 0.2369377464056015, -0.0625278428196907, 0.21065090596675873, 0.27453964948654175, -0.1342548429965973, 0.15412390232086182, -0.02384570613503456, 0.16912207007408142, -0.004906264133751392, 0.24453186988830566, -0.016025284305214882, 0.15146131813526154, 0.2601112127304077, -0.17153407633304596, -0.01979879103600979, 0.00267634354531765, -0.2811654806137085, 0.013132631778717041, -0.062221694737672806, -0.11752688884735107, 0.020581228658556938, 0.053990721702575684, -0.08114927262067795, -0.1427387148141861, -0.013266229070723057, -0.08945970982313156, -0.19434204697608948, 0.2737841010093689, 0.32373932003974915, 0.1288025975227356, 0.19780781865119934, 0.1031051054596901, -0.02486925944685936, 0.02375561185181141, -0.44370102882385254, 0.16996411979198456, -0.21789111196994781, -0.2213849127292633, -0.0005412532482296228, -0.20765578746795654, -0.20213952660560608, -0.27903565764427185, -0.13871055841445923, -0.02589423395693302], [-0.14103911817073822, 0.23673762381076813, 0.019082657992839813, -0.023665495216846466, -0.037959881126880646, -0.014932080172002316, -0.0916706919670105, 0.4538766145706177, -0.027113083750009537, 0.1098732277750969, 0.01882389560341835, 0.016327928751707077, 0.01887424662709236, 0.06237175315618515, 0.00733267143368721, -0.06475067883729935, -0.009650181047618389, -0.03235897794365883, 0.019159210845828056, 0.01393857691437006, 0.07734035700559616, -0.08090569078922272, -0.1340930163860321, -0.2005399912595749, 0.16925553977489471, -0.16813981533050537, 0.11709292232990265, -0.00354110193438828, 0.1675887256860733, 0.01887585036456585, 0.030662013217806816, -0.03424675762653351, 0.03610318899154663, -0.10661746561527252, 0.026376282796263695, -0.11139393597841263, 0.10231040418148041, 0.04146752506494522, -0.14895018935203552, 0.04463839903473854, -0.0474192313849926, -0.03846685588359833, -0.018409501761198044, 0.024967243894934654, 0.04678840935230255, -0.036048442125320435, -0.14800573885440826, -0.3244148790836334, -0.12563352286815643, -0.1520269513130188, -0.28151223063468933, -0.0721137747168541, 0.0472618006169796, -0.13430148363113403, -0.25598934292793274, 0.21282845735549927, -0.39048734307289124, -0.0627228170633316, 0.0686565637588501, 0.07810825109481812, -0.029081150889396667, -0.016559027135372162, -0.16891512274742126, 0.19332902133464813, -0.08970369398593903, -0.040915101766586304, -0.11913397908210754, -0.155567467212677, -0.1489967405796051, -0.08957363665103912, -0.0022780168801546097, -0.03654218837618828, 0.06118384748697281, -0.010464826598763466, -0.11954201757907867, -0.029949024319648743, -0.14586086571216583, -0.04378194734454155, 0.050268515944480896, 0.3370321989059448, 0.19291439652442932, 0.106204554438591, 0.0828724056482315, 0.20790685713291168, -0.05470612645149231, -0.5921141505241394, 0.26875054836273193, 0.013689294457435608, -0.07099691778421402, -0.05219641327857971, 0.09767059236764908, -0.04265252500772476, -0.3951348662376404, 0.000669835542794317, 0.00900155771523714], [0.13301147520542145, 0.32536035776138306, -0.09272372722625732, -0.09747852385044098, 0.09121087193489075, -0.25230738520622253, -0.15703916549682617, 0.5866792798042297, 0.024733996018767357, 0.008990900591015816, -0.06097029522061348, 0.0836489200592041, 0.09409067779779434, 0.10330191999673843, 0.017209580168128014, 0.04339020326733589, 0.08488557487726212, -0.04520973563194275, 0.04873853921890259, 0.07722728699445724, -0.030846742913126945, 0.025717349722981453, 0.010116217657923698, -0.019686130806803703, 0.02656228467822075, -0.1509288251399994, -0.20810559391975403, -0.1889781355857849, -0.27451005578041077, 0.05205010622739792, 0.21176280081272125, -0.20897258818149567, -0.005173905286937952, 0.09711457788944244, -0.009037861600518227, -0.04718911275267601, 0.029797084629535675, 0.2534227669239044, -0.08236048370599747, 0.04265002906322479, 0.07191232591867447, -0.020076805725693703, -0.2250511646270752, 0.07205428183078766, 0.12573611736297607, 0.11029862612485886, -0.06860283762216568, 0.02342921867966652, 0.2403564155101776, -0.005131668411195278, 0.3581172525882721, -0.09903716295957565, 0.09220248460769653, 0.08791922777891159, 0.1848982274532318, 0.19612686336040497, -0.05435986444354057, -0.0032736253924667835, 0.13666017353534698, 0.02235373854637146, -0.012671048752963543, -0.18499469757080078, -0.07628295570611954, 0.1175517588853836, 0.092127226293087, 0.0765005424618721, 0.03915707767009735, 0.02249310538172722, -0.03246937692165375, 0.07728167623281479, 0.03741011768579483, 0.05652736872434616, 0.03650137782096863, 0.24969491362571716, -0.09150654822587967, 0.12349577248096466, 0.11515476554632187, 0.2253589779138565, -0.18838170170783997, -0.128790482878685, 0.0939636304974556, -0.10050635039806366, -0.0025124866515398026, -0.21831361949443817, -0.07453199476003647, 0.15597094595432281, -0.08009514957666397, -0.8311847448348999, -0.15032730996608734, 0.2704034447669983, -0.0011399589711800218, -0.04852026328444481, 0.20663227140903473, 0.2081461250782013, 0.2756875455379486], [0.2293463796377182, 0.3387662172317505, 0.09158825874328613, -0.019912973046302795, -0.07946813851594925, 0.137069433927536, -0.23869173228740692, -0.1217014268040657, 0.08230526000261307, 0.009879261255264282, -0.011986786499619484, 0.07313171029090881, 0.020688259974122047, -0.032792653888463974, -0.009283128194510937, 0.11316434293985367, 0.04313674941658974, -0.014684116467833519, 0.007162156049162149, 0.05504543334245682, 0.031476981937885284, 0.040903910994529724, -0.1983860284090042, -0.3366783857345581, -0.07315073907375336, -0.2867942154407501, -0.0982024222612381, -0.24382275342941284, -0.23545418679714203, 0.10155271738767624, 0.0749056339263916, 0.1748822033405304, -0.12606410682201385, 0.015535509213805199, -0.05810210481286049, 0.0730246901512146, -0.004124297760426998, 0.09741099178791046, 0.07036776840686798, -0.11469289660453796, 0.08474400639533997, -0.05540855973958969, -0.19521526992321014, 0.02741163969039917, 0.1200273260474205, 0.19206473231315613, 0.18678303062915802, -0.04612673819065094, 0.2953408658504486, 0.06774526089429855, 0.13266119360923767, -0.3111693859100342, -0.16597740352153778, -0.22701941430568695, -0.13016057014465332, 0.1463344395160675, 0.1156841367483139, -0.3038756251335144, 0.0046485853381454945, -0.10515891015529633, 0.07002805918455124, -0.03830772265791893, 0.04058341681957245, 0.09367218613624573, -0.09181512147188187, 0.16747397184371948, -0.039616700261831284, 0.0630633756518364, 0.04473153129220009, -0.09923983365297318, -0.09517169743776321, 0.024443844333291054, 0.043525733053684235, -0.0739094689488411, 0.08130179345607758, 0.10412625968456268, -0.2459804117679596, -0.07556896656751633, 0.020310070365667343, -0.16527946293354034, 0.1336653232574463, -0.20506183803081512, -0.27362602949142456, -0.17279011011123657, -0.12893950939178467, 0.40289217233657837, 0.289183646440506, 0.16181643307209015, -0.25735485553741455, 0.4073483645915985, 0.11519666016101837, 0.26200079917907715, 0.1603911966085434, 0.003458678023889661, 0.09637707471847534], [-0.6491817831993103, 0.20332546532154083, -0.05659054219722748, -0.09360406547784805, 0.09144510328769684, 0.014486177824437618, 0.5181588530540466, -0.7579998970031738, -0.01573513261973858, -0.18591149151325226, -0.12509001791477203, -0.03242798149585724, 0.060722533613443375, 0.18805916607379913, -0.01731887273490429, 0.08622881770133972, -0.1323135644197464, -0.1123257428407669, 0.012421266175806522, -0.03992611542344093, 0.09580434113740921, 0.04665161669254303, 0.21326014399528503, 0.01836576499044895, 0.0822526142001152, -0.2607974708080292, -0.11686120927333832, -0.25245338678359985, -0.18234525620937347, -0.16897645592689514, 0.048685040324926376, -0.07078545540571213, -0.04838164150714874, -0.02593194507062435, -0.07616110891103745, 0.149546816945076, -0.17725351452827454, 0.04277787357568741, -0.20096080005168915, 0.023860562592744827, 0.05229870229959488, -0.0784493088722229, -0.20486141741275787, 0.0490340031683445, 0.03525125980377197, 0.060843776911497116, 0.05139113962650299, -0.06437236815690994, 0.006099515128880739, -0.1372150182723999, -0.1512880176305771, -0.09845159947872162, -0.0013032474089413881, 0.04247323423624039, 0.2973783612251282, 0.08959955722093582, 0.5047541856765747, -0.032275356352329254, -0.003456713631749153, 0.10940330475568771, 0.0805392637848854, -0.08376521617174149, -0.05612943693995476, -0.0016904753865674138, -0.20837852358818054, -0.026100067421793938, 0.17229263484477997, 0.053971219807863235, 0.02387840859591961, 0.1232168972492218, -0.2732720375061035, 0.11765030771493912, -0.20324046909809113, 0.14676134288311005, 0.08663228899240494, 0.028835847973823547, 0.2618219554424286, -0.19816243648529053, 0.01079479232430458, 0.06996940076351166, -0.037940047681331635, -0.09199298918247223, 0.020941322669386864, 0.16195261478424072, -0.11152559518814087, -0.3542158305644989, 0.11359429359436035, -0.26718854904174805, -0.1848805844783783, -0.02755621261894703, 0.2742641568183899, -0.1356334239244461, -0.1594332605600357, -0.3593074679374695, -0.10962195694446564], [-0.22524364292621613, 0.09322045743465424, -0.09878835082054138, 0.051993951201438904, -0.040044233202934265, 0.12977442145347595, 0.43294358253479004, 0.15719391405582428, -0.06767990440130234, -0.19679181277751923, 0.027358464896678925, -0.0184169989079237, -0.1281205415725708, 0.09342767298221588, 0.03704310953617096, -0.12347947806119919, -0.1709606796503067, -0.03892084211111069, -0.07720504701137543, -0.05525713041424751, -0.08217261731624603, -0.051858026534318924, 0.0653604120016098, 0.28401046991348267, -0.3324972093105316, -0.14038686454296112, 0.21267646551132202, 0.01653345301747322, -0.08555483818054199, -0.08154570311307907, -0.04005170986056328, 0.022981463000178337, -0.06803219765424728, -0.09117793291807175, -0.17134006321430206, -0.1424415558576584, -0.02500939927995205, 0.08060538023710251, -0.003373954212293029, -0.059347737580537796, 0.0788683220744133, -0.1850956678390503, -0.09411652386188507, -0.11955803632736206, -0.06906849145889282, -0.09167317301034927, -0.021757464855909348, 0.06197579577565193, 0.06910492479801178, -0.05071303993463516, 0.40788233280181885, 0.12198464572429657, -0.10905122756958008, 0.06898218393325806, -0.08028271794319153, 0.2167673259973526, 0.1868153065443039, 0.18033702671527863, -0.20873019099235535, 0.07422845810651779, 0.06647801399230957, 0.045548249036073685, 0.07943803817033768, -0.23466822504997253, 0.11198092997074127, -0.11747920513153076, -0.10364295542240143, 0.025177663192152977, 0.09032721817493439, 0.05367286503314972, 0.07402987778186798, -0.09191564470529556, -0.1324225217103958, -0.11025133728981018, 0.09674879163503647, -0.2877579629421234, -0.052979785948991776, -0.2348548024892807, 0.05811476707458496, -0.021775774657726288, -0.0004106211999896914, -0.039439309388399124, -0.09301909059286118, -0.013103020377457142, 0.01711789146065712, -0.4526628255844116, 0.22980883717536926, -0.7981607913970947, 0.2580587565898895, -0.3675656318664551, -0.10037708282470703, -0.09910684823989868, 0.22805896401405334, -0.21998851001262665, 0.047285452485084534], [0.308243066072464, -0.4137471914291382, -0.09488476812839508, 0.09612271189689636, -0.04914737865328789, -0.19412700831890106, -0.3439730703830719, 0.3506309390068054, -0.05718766525387764, 0.1251092404127121, -0.043932873755693436, -0.1294381469488144, 0.03117484599351883, 0.0022201917599886656, -0.021109694615006447, -0.08134552091360092, 0.0458347350358963, -0.0917600691318512, -0.014356638304889202, -0.027153853327035904, 0.02405085414648056, -0.13178688287734985, -0.027212079614400864, -0.15658003091812134, -0.0922594666481018, 0.17422248423099518, -0.21606877446174622, -0.06495729833841324, 0.05472274497151375, 0.08452123403549194, -0.009283607825636864, -0.07227066159248352, -0.008121922612190247, -0.05884973332285881, -0.06466890126466751, 0.04452713951468468, -0.10612699389457703, -0.11242133378982544, 0.12536479532718658, 0.07571589201688766, 0.11625639349222183, -0.04369726404547691, 0.09069816768169403, 0.11694882810115814, -0.06952778995037079, -0.006358377635478973, 0.014421986415982246, -0.07786818593740463, -0.021975038573145866, 0.07513833045959473, 0.11692162603139877, -0.009908207692205906, 0.28441259264945984, -0.021895986050367355, -0.2538353204727173, -0.06930185854434967, 0.07229060679674149, -0.1333831399679184, -0.20175698399543762, -0.14107558131217957, 0.009715734981000423, -0.16142165660858154, 0.08609134703874588, -0.04215722903609276, 0.10159245133399963, 0.0936945453286171, 0.000822694506496191, 0.0006424898747354746, 0.12569676339626312, -0.3291298747062683, 0.07643008232116699, -0.03317151963710785, -0.05087331682443619, 0.08789294958114624, -0.041875649243593216, -0.025409599766135216, -0.06611981242895126, 0.14101240038871765, -0.017741205170750618, -0.03525589779019356, 0.15406329929828644, -0.08978664875030518, -0.09050288796424866, 0.11061654984951019, -0.0342087596654892, 0.037311915308237076, -0.013034793548285961, -0.03671316057443619, 0.10355665534734726, -0.31010743975639343, 0.22859445214271545, 0.16888146102428436, 0.13250732421875, 0.13098616898059845, 0.08296246081590652], [-0.015194829553365707, 0.2823534309864044, -0.027968138456344604, -0.04215831682085991, 0.002559669315814972, 0.19344665110111237, -0.2023533135652542, -0.4628736972808838, -0.02686406299471855, -0.1169770285487175, -0.11848984658718109, -0.05092669650912285, -0.15755033493041992, -0.013661947101354599, 0.03538234159350395, -0.03552471473813057, 0.009773834608495235, -0.092583566904068, 0.03897244483232498, -0.15112420916557312, -0.04638152942061424, 0.06669352948665619, 0.05250708758831024, -0.17079101502895355, 0.1112942323088646, -0.08572928607463837, 0.21805675327777863, -0.30696162581443787, 0.036281440407037735, 0.047524016350507736, 0.11168324202299118, -0.10630934685468674, -0.05641110986471176, 0.18729928135871887, -0.016428790986537933, -0.01671414263546467, -0.048836421221494675, 0.1683829426765442, -0.05585634708404541, -0.06637664884328842, 0.15842130780220032, -0.00654038367792964, 0.015923814848065376, -0.06262926757335663, 0.004949257243424654, 0.08032583445310593, 0.023972518742084503, 0.017279909923672676, 0.08574735373258591, -0.0400298647582531, 0.012681675143539906, -0.30684351921081543, 0.15695729851722717, -0.08285350352525711, -0.11464617401361465, -0.4091348350048065, 0.0037569354753941298, 0.05244189128279686, -0.24819189310073853, -0.13889583945274353, -0.253654420375824, -0.08870427310466766, 0.024745406582951546, -0.14869865775108337, -0.2093421071767807, -0.054289866238832474, -0.09055981785058975, 0.038331225514411926, 0.014261181466281414, -0.08611612021923065, -0.23052512109279633, 0.010978029109537601, 0.1139703169465065, -0.00842057354748249, -0.28804489970207214, 0.13418608903884888, -0.30848461389541626, -0.12811757624149323, 0.04676688089966774, -0.07949715107679367, -0.02229432947933674, 0.11343280971050262, 0.03095669485628605, 0.12695783376693726, -0.07705099880695343, 0.15731005370616913, -0.0025693578645586967, 0.15922431647777557, 0.2921505868434906, -0.06405825167894363, 0.12369326502084732, -0.349280446767807, 0.47683027386665344, -0.2741146683692932, 0.36744874715805054], [0.48981598019599915, -0.057839587330818176, -0.10240433365106583, 0.010173477232456207, -0.02475856989622116, -0.2883513271808624, -0.2424929440021515, -0.6410586833953857, 0.017968134954571724, 0.10567101091146469, -0.009105757810175419, 0.027330821380019188, 0.019639967009425163, -0.0021409126929938793, -0.0019325356697663665, 0.10180129110813141, 0.1379234343767166, -0.06643444299697876, 0.06841596961021423, 0.02809651382267475, 0.05890597030520439, 0.03057350032031536, 0.10250793397426605, -0.13152354955673218, -0.009655775502324104, 0.22363072633743286, 0.027517175301909447, 0.19055922329425812, -0.039501696825027466, -0.1280478984117508, 0.023151665925979614, 0.08112521469593048, 0.024954136461019516, -0.06508377939462662, -0.16797277331352234, -0.15521176159381866, -0.06633686274290085, -0.010863042436540127, -0.026233015581965446, -0.0975610539317131, -0.018667031079530716, -0.21705003082752228, 0.09676125645637512, 0.05780329555273056, 0.06727689504623413, -0.08056837320327759, 0.07063896209001541, 0.0029326798394322395, 0.07133720070123672, 0.2375236302614212, 0.03300411254167557, -0.1849287450313568, 0.0026105062570422888, -0.05091232433915138, 0.2567148506641388, 0.14890050888061523, 0.19811156392097473, -0.03765077143907547, 0.014485359191894531, 0.12381516396999359, 0.11724807322025299, -0.05968758091330528, -0.2087813913822174, -0.31545907258987427, -0.11086024343967438, -0.17265932261943817, -0.07688509672880173, -0.0653877928853035, 0.019950881600379944, 0.1914028376340866, 0.04689335078001022, -0.2685197591781616, 0.14348441362380981, 0.07516590505838394, -0.13486681878566742, 0.10881650447845459, -0.008423699997365475, -0.20540475845336914, -0.15409576892852783, 0.1169457957148552, 0.23134399950504303, -0.21389925479888916, -0.015338382683694363, 0.0945250391960144, 0.12282953411340714, -0.03917810693383217, 0.04844653978943825, -0.03465443104505539, -0.21113614737987518, 0.017774973064661026, -0.14171341061592102, 0.025032617151737213, 0.21592795848846436, -0.16280174255371094, -0.05628599599003792], [-0.23088987171649933, 0.005207478534430265, -0.03046596050262451, -0.06706102192401886, 0.010187223553657532, 0.01739610731601715, 0.11340416222810745, -0.7790020108222961, -0.0004985411069355905, -0.2993066608905792, -0.14013664424419403, 0.12644897401332855, 0.015220490284264088, -0.002717939205467701, -0.0666859820485115, 0.06903502345085144, -0.11307380348443985, -0.1304774135351181, 0.16243964433670044, 0.03238439932465553, -0.01024120207875967, -0.08113697171211243, 0.25823289155960083, 0.04945698007941246, -0.3887895941734314, -0.13516268134117126, -0.10191339254379272, 0.003127594944089651, 0.19339026510715485, -0.2034205049276352, -0.05021556466817856, 0.29890698194503784, -0.012797021307051182, -0.058730944991111755, 0.10256139189004898, -0.019611535593867302, -0.1838371753692627, -0.107909195125103, 0.0002454096684232354, -0.05165955796837807, -0.07635290175676346, 0.0427398756146431, 0.08927886188030243, -0.19227375090122223, -0.0736033245921135, -0.11542829871177673, 0.007247548084706068, -0.2386237531900406, 0.03278413042426109, 0.053476329892873764, -0.06916972249746323, 0.31498685479164124, -0.12989549338817596, -0.11370308697223663, -0.09801427274942398, -0.29669585824012756, 0.03752840310335159, 0.0700727105140686, 0.03223004564642906, -0.08557455241680145, 0.14372502267360687, 0.12323496490716934, 0.1921204775571823, 0.0818202868103981, -0.07867950201034546, -0.011101760901510715, 0.08913752436637878, -0.12445370107889175, -0.0033473335206508636, -0.05102973058819771, 0.14957000315189362, -0.0727868303656578, -0.086415134370327, 0.17232710123062134, 0.10470163822174072, -0.12163916975259781, -0.05074194446206093, -0.009234240278601646, 0.38979634642601013, 0.08973024040460587, -0.08438218384981155, 0.13587307929992676, 0.13805733621120453, -0.03826391324400902, -0.06685668975114822, -0.6776680946350098, 0.060013290494680405, -0.18076056241989136, 0.37003031373023987, -0.7639927864074707, 0.11209769546985626, -0.09476862847805023, 0.019503209739923477, -0.11421798169612885, 0.049303364008665085], [0.13912463188171387, -0.14032839238643646, 0.008714035153388977, 0.007873065769672394, 0.044043123722076416, 0.3552107810974121, -0.4191046357154846, -0.15825116634368896, -0.013140678405761719, -0.03035769611597061, -0.011493331752717495, 0.05369368940591812, 0.021363308653235435, 0.08632183820009232, 0.025310898199677467, -0.0019547361880540848, -0.0353645421564579, -0.03271852433681488, -0.01708577200770378, 0.03374296799302101, 0.10663381963968277, 0.03248869255185127, 0.17683324217796326, 0.17278648912906647, -0.08929145336151123, 0.14201140403747559, 0.03624130040407181, 0.04044831544160843, 0.02907915972173214, -0.06648492068052292, -0.039803583174943924, 0.12613579630851746, 0.009977370500564575, -0.09573676437139511, -0.06208233907818794, -0.008486166596412659, -0.009916366077959538, 0.05473928898572922, -0.01913907192647457, -0.123955637216568, 0.005558960139751434, 0.05272258073091507, -0.017239777371287346, -0.05758306384086609, -0.05321211740374565, 0.09891709685325623, -0.1359587162733078, 0.17538845539093018, 0.06701481342315674, 0.14463704824447632, 0.20705068111419678, 0.14069396257400513, -0.28389373421669006, -0.10261185467243195, -0.3194009065628052, 0.05571529269218445, 0.06032351031899452, -0.04243546351790428, -0.07588844746351242, 0.09793783724308014, 0.02638072520494461, -0.13135913014411926, -0.2719152569770813, 0.0026183738373219967, -0.11987579613924026, -0.032346658408641815, 0.20530207455158234, 0.05787912383675575, -0.2285618782043457, 0.0036394859198480844, 0.026387184858322144, 0.16102305054664612, -0.07785186916589737, 0.14817693829536438, 0.2138110101222992, -0.05554506182670593, 0.23216363787651062, 0.16687265038490295, 0.1599404662847519, -0.15266500413417816, 0.3034672439098358, -0.025430653244256973, -0.014809323474764824, 0.060019973665475845, -0.11295470595359802, 0.5605099201202393, -0.43878665566444397, 0.6504098773002625, -0.4411693811416626, -0.2995540499687195, 0.017100118100643158, 0.26107674837112427, -0.34835919737815857, -0.23444390296936035, 0.23840782046318054], [0.4430362284183502, -0.041071802377700806, 0.0016314685344696045, -0.09882247447967529, -0.0876159816980362, -0.22098951041698456, -0.10480894893407822, -0.5576596856117249, 0.18008928000926971, -0.20563030242919922, -0.017487097531557083, 0.08702123910188675, 0.02202305570244789, 0.05228796601295471, 0.04928942769765854, 0.18738149106502533, -0.14506793022155762, -0.07306484133005142, 0.00032737135188654065, 0.05638546496629715, 0.10948126018047333, 0.028451327234506607, -0.04781682789325714, -0.2356368452310562, -0.3006642460823059, 0.3047645688056946, -0.1491527259349823, -0.05450643599033356, 0.08833087235689163, -0.16618900001049042, -0.03202549368143082, 0.01915672793984413, 0.011483702808618546, -0.006800222676247358, 0.08640104532241821, -0.05997667461633682, -0.10110711306333542, -0.024752233177423477, 0.02303924597799778, -0.03741869702935219, 0.01867360807955265, -0.11337007582187653, -0.012699296697974205, 0.003273977432399988, 0.07090912759304047, 0.05148502066731453, -0.1627112179994583, -0.042890071868896484, -0.10126954317092896, 0.19034342467784882, -0.2732768654823303, 0.09707999229431152, -0.12150377780199051, 0.0042923809960484505, -0.016012536361813545, 0.13757482171058655, -0.010483833029866219, -0.2433968335390091, 0.1296333223581314, -0.10617918521165848, -0.12120792269706726, 0.22547857463359833, 0.1852962225675583, 0.018347380682826042, 0.011949230916798115, 0.006575160194188356, -0.10636889934539795, -0.11739858239889145, -0.09081431478261948, 0.22461780905723572, 0.08144057542085648, 0.006737890187650919, 0.12999197840690613, 0.1294507086277008, 0.16728655993938446, 0.021452462300658226, -0.04759100824594498, 0.12544755637645721, 0.048044897615909576, -0.14325261116027832, 0.15999683737754822, 0.14847075939178467, -0.0326651893556118, 0.03287384286522865, -0.04987507686018944, -0.2869882583618164, 0.06779453903436661, 0.1614401489496231, -0.3441407084465027, 0.20099547505378723, 0.08662590384483337, 0.19839826226234436, 0.16988404095172882, 0.1753794550895691, 0.06448361277580261], [-0.1396406590938568, 0.40320754051208496, 0.06811605393886566, -0.0972282886505127, -0.06129280850291252, -0.20697002112865448, -0.08603168278932571, 0.2797240912914276, 0.012689221650362015, 0.0852869302034378, -0.08306238055229187, -0.007989870384335518, -0.02487359754741192, 0.01730210892856121, 0.06005503982305527, 0.055240653455257416, -0.006288934499025345, 0.03773197531700134, 0.015481422655284405, 0.021449586376547813, -0.02651253156363964, -0.0594322569668293, -0.09884607046842575, -0.0555887408554554, -0.1019626185297966, 0.13969938457012177, -0.20724672079086304, -0.18397973477840424, -0.0536908395588398, 0.05987923592329025, -0.01891937479376793, -0.07413827627897263, -0.01722097396850586, 0.013874545693397522, 0.07197678834199905, -0.07184318453073502, -0.016634156927466393, 0.05271027237176895, -0.07894642651081085, -0.07851113379001617, -0.04618850350379944, -0.047340553253889084, 0.004304494708776474, -0.0029741288162767887, 0.04677659273147583, 0.17318955063819885, 0.19524981081485748, -0.01877431385219097, 0.049564868211746216, -0.0304490327835083, 0.24418862164020538, -0.07408824563026428, -0.16945604979991913, -0.1751808524131775, 0.22628706693649292, -0.03669515624642372, -0.012246950529515743, -0.12886691093444824, 0.17940159142017365, 0.0008261352777481079, -0.08240318298339844, 0.00862068496644497, 0.010151364840567112, -0.12048576772212982, -0.08669235557317734, -0.0504453219473362, -0.05042080953717232, 0.04644491523504257, -0.12643416225910187, -0.27146947383880615, 0.1561947464942932, -0.18012772500514984, 0.17356976866722107, 0.06196553632616997, 0.1646263152360916, 0.10491331666707993, -0.09933214634656906, 0.16569189727306366, -0.1791098713874817, -0.10439050197601318, -0.1627064198255539, -0.13787809014320374, 0.0791604220867157, 0.07256796211004257, 0.057140618562698364, 0.09886918216943741, 0.01545359380543232, 0.009612396359443665, -0.25231269001960754, 0.11635679006576538, -0.03898930177092552, 0.07631105929613113, 0.10241606831550598, 0.10471577942371368, 0.10487009584903717], [-0.14956416189670563, -0.3312585651874542, -0.09809121489524841, 0.024152368307113647, -0.09183813631534576, 0.4732806384563446, 0.13213971257209778, -0.3980061411857605, -0.013830535113811493, -0.1610945165157318, -0.039000339806079865, 0.020321151241660118, 0.03500805422663689, -0.026943400502204895, -0.01679578423500061, -0.06932191550731659, -0.015781214460730553, -0.05829765647649765, -0.04517490416765213, 0.11483123153448105, 0.11911161988973618, 0.08262434601783752, 0.015153417363762856, 0.0342375673353672, 0.0005819638026878238, 0.07764033228158951, 0.12563033401966095, 0.015451074577867985, -0.20208193361759186, 0.047336675226688385, 0.0019844388589262962, -0.09878639131784439, 0.05834203213453293, -0.01645050384104252, 0.003253412200137973, -0.010313303209841251, 0.04426882043480873, -0.03232486546039581, 0.005148141644895077, 0.04795188456773758, 0.07687337696552277, 0.014752935618162155, 0.1808425635099411, -0.12227990478277206, -0.09721061587333679, -0.14079061150550842, -0.036048825830221176, -0.147906094789505, -0.09161318093538284, 0.381362646818161, 0.015596549957990646, -0.09731373935937881, 0.2020685225725174, -0.20624147355556488, 0.09745656698942184, -0.3008349537849426, -0.4109300374984741, -0.11484361439943314, -0.04000794515013695, -0.10444925725460052, 0.058820683509111404, -0.07397635281085968, -0.019318778067827225, -0.2935810387134552, 0.043152257800102234, 0.06463605165481567, 0.029974371194839478, -0.2864006757736206, 0.272968590259552, -0.13041557371616364, 0.170839324593544, -0.0032489097211509943, -0.05434997379779816, 0.019908176735043526, -0.1009766161441803, -0.04275694116950035, 0.1657831370830536, -0.18248730897903442, 0.05032436177134514, -0.16756415367126465, 0.012492630630731583, 0.06175077334046364, 0.07924076169729233, 0.0563194565474987, 0.17148807644844055, -0.07482429593801498, -0.08164574950933456, 0.5361223220825195, -0.2685021758079529, 0.09378931671380997, 0.09933890402317047, -0.21192699670791626, 0.15797282755374908, -0.26863986253738403, -0.19761402904987335], [-0.8222563862800598, 0.10112931579351425, -0.04505669325590134, 0.04953812062740326, -0.10136071592569351, -0.10728809982538223, 0.34598028659820557, -0.7246727347373962, 0.06492866575717926, -0.15941324830055237, 0.010504446923732758, -0.038173262029886246, -0.05861927568912506, -0.09141744673252106, -0.1583719551563263, 0.0016453046118840575, -0.050016872584819794, -0.14812198281288147, -0.032941222190856934, -0.03196769952774048, -0.04670597240328789, -0.009163779206573963, -0.1033547893166542, -0.20519009232521057, -0.21746563911437988, 0.1750541627407074, -0.0800442099571228, -0.0021511956583708525, -0.17904452979564667, -0.10259953886270523, 0.1292751282453537, -0.0423002652823925, 0.08596844226121902, -0.06336673349142075, 0.06282880902290344, -0.17259861528873444, -0.00021504473988898098, 0.0070641133934259415, -0.0939413532614708, -0.015334541909396648, -0.002010011812672019, -0.09002610296010971, 0.1237620934844017, -0.07133413106203079, 0.010120165534317493, 0.02298189140856266, 0.019576113671064377, 0.0842590406537056, 0.09837838262319565, 0.11447542160749435, 0.028859952464699745, 0.23108914494514465, -0.011392982676625252, -0.2527196705341339, 0.033152025192976, 0.020622428506612778, 0.08472379297018051, -0.21203982830047607, -0.1340225487947464, 0.05054256692528725, 0.002709403168410063, -0.23971357941627502, -0.03903118148446083, 0.13670362532138824, -0.17307600378990173, -0.0859338790178299, -0.07760503888130188, 0.16219475865364075, -0.34130921959877014, 0.07651284337043762, -0.013396155089139938, -0.16446442902088165, 0.13507893681526184, -0.021680714562535286, -0.2644599974155426, 0.16984978318214417, 0.10162533819675446, -0.09273216128349304, -0.23701050877571106, -0.06243209168314934, -0.020365694537758827, 0.03252026438713074, -0.20489323139190674, -0.018661413341760635, -0.1038595661520958, -0.21418920159339905, 0.38153526186943054, -0.2921387851238251, -0.36693570017814636, 0.2213631272315979, 0.11834178119897842, 0.12528952956199646, -0.38958293199539185, -0.10067685693502426, 0.00961268786340952], [0.07419727742671967, 0.37989717721939087, -0.005180090665817261, 0.036144524812698364, 0.09738834202289581, -0.10665073245763779, 0.07322882115840912, -0.07002595067024231, 0.11105573922395706, 0.025268826633691788, -0.098039411008358, -0.03165093809366226, 0.004865248221904039, -0.07358047366142273, -0.01994866505265236, 0.010998832061886787, 0.017897095531225204, -0.037952881306409836, -0.011561723425984383, -0.03730304166674614, 0.05611487478017807, -0.01856808550655842, 0.04771687835454941, -0.41425883769989014, -0.04094109684228897, 0.012825043871998787, 0.13916361331939697, 0.24002109467983246, 0.25496160984039307, 0.07318193465471268, -0.1366746872663498, 0.07389602065086365, 0.11425226926803589, -0.061873145401477814, -0.014119531959295273, -0.006850580684840679, -0.16564889252185822, 0.0620264858007431, 0.10673172771930695, -0.09080743044614792, 0.11070901900529861, -0.13552528619766235, -0.085908442735672, -0.01951052062213421, 0.0376959890127182, -0.039438314735889435, 0.03893967717885971, 0.11183740943670273, -0.1447990983724594, -0.22730906307697296, -0.30023500323295593, -0.03956149145960808, 0.08315194398164749, -0.029235245659947395, -0.14200571179389954, -0.16147607564926147, 0.04755237698554993, -0.10894213616847992, 0.05157178267836571, -0.11486145853996277, -0.001187167945317924, 0.1838761270046234, -0.0277547724545002, 0.0351988822221756, 0.029328148812055588, -0.08757280558347702, -0.16706238687038422, -0.03625769913196564, -0.10565737634897232, 0.11563138663768768, 0.024545973166823387, 0.17313329875469208, 0.1169348657131195, 0.0651392862200737, -0.11544571816921234, 0.022229917347431183, 0.08664169162511826, -0.14705169200897217, 0.3004242777824402, 0.1078798770904541, -0.136158749461174, -0.03644775599241257, -0.09872342646121979, 0.11637116968631744, -0.003093176521360874, -0.18153101205825806, 0.4354987144470215, -0.34498894214630127, 0.34624138474464417, -0.6341100335121155, 0.0809149518609047, -0.08073154836893082, -0.0005805484252050519, -0.29005709290504456, 0.11122003197669983], [0.33940643072128296, 0.016992416232824326, 3.835558891296387e-05, 0.059366390109062195, -0.04460397735238075, -0.12154275923967361, 0.08900832384824753, -0.28680717945098877, -0.03836698830127716, 0.0590357631444931, -0.0712934210896492, -0.12196601927280426, -0.14451435208320618, -0.04999265819787979, -0.09702816605567932, -0.01395503617823124, -0.09755698591470718, 0.0634576678276062, -0.045877229422330856, -0.028342898935079575, -0.0656641274690628, -0.1430988311767578, -0.169368714094162, 0.18730919063091278, -0.0590585358440876, 0.10357776284217834, -0.12541463971138, 0.0525243803858757, 0.17730562388896942, -0.08923983573913574, -0.00010985169501509517, -0.20999810099601746, 0.061627645045518875, 0.00898737832903862, 0.05014565587043762, -0.04969314858317375, 0.05794425308704376, 0.060821935534477234, -0.18362775444984436, 0.021857021376490593, 0.10174301266670227, 0.00654973927885294, 0.15198664367198944, 0.0069991592317819595, 0.12373766303062439, -0.1966964304447174, -0.1504736840724945, -0.1838192641735077, -0.21774305403232574, -0.21254420280456543, -0.27153465151786804, 0.28959283232688904, 0.2187473624944687, 0.02957560308277607, -0.20729303359985352, -0.14557014405727386, 0.05803673714399338, 0.06658614426851273, -0.22598479688167572, -0.04053838178515434, 0.019133729860186577, -0.004862296395003796, -0.016514519229531288, 0.15110889077186584, 0.1845840960741043, -0.3892458975315094, -0.16642308235168457, 0.03753926232457161, -0.057958345860242844, -0.09970948100090027, -0.22791504859924316, 0.05315573886036873, -0.2665976285934448, -0.05883214250206947, 0.10523146390914917, 0.1983703225851059, -0.1795618087053299, 0.002307205693796277, 0.16410984098911285, -0.05521063506603241, 0.07316683232784271, 0.08938027918338776, 0.04891958460211754, -0.021059278398752213, 0.16210904717445374, -0.4506392776966095, 0.3687766492366791, -0.3510726988315582, -0.22764462232589722, -0.326477587223053, 0.19197164475917816, -0.5843597054481506, -0.05949816480278969, -0.15925243496894836, 0.24679623544216156], [-0.24334706366062164, -0.08963332325220108, -0.017095573246479034, -0.008611917495727539, 0.022004157304763794, -0.06417570263147354, 0.13138461112976074, -0.039877623319625854, -0.04865851625800133, 0.0035540862008929253, 0.08249618113040924, 0.1690986156463623, 0.020415475592017174, -0.05066635087132454, 0.03818755969405174, -0.030628323554992676, 0.07986452430486679, 0.02156968042254448, -0.006474021356552839, 0.0033500848803669214, 0.0742938369512558, 0.029706725850701332, -0.036468278616666794, -0.13151977956295013, 0.06870860606431961, -0.14610973000526428, 0.16666880249977112, 0.1359868049621582, 0.15254604816436768, 0.0946124941110611, 0.04731712117791176, -0.0929834172129631, -0.028331775218248367, 0.06416214257478714, -0.09294639527797699, 0.04087511822581291, 0.08472933620214462, 0.0665326789021492, -0.1235899031162262, 0.06727956235408783, -0.07319390028715134, -0.03231842443346977, -0.10068139433860779, -0.06178535148501396, -0.04867235943675041, 0.006785096600651741, 0.03834448382258415, -0.05487535893917084, -0.1519404947757721, -0.0010387372458353639, -0.02810736931860447, 0.07882627844810486, -0.24433788657188416, 0.0034465640783309937, -0.18301773071289062, 0.13829883933067322, 0.017558660358190536, 0.023520827293395996, 0.015073742717504501, 0.029059097170829773, -0.1439167559146881, 0.19944843649864197, -0.1294875293970108, 0.03879925236105919, -0.022560089826583862, 0.04240141436457634, -0.13460710644721985, 0.03821748122572899, 0.25842946767807007, 0.011501714587211609, 0.10568608343601227, 0.021463429555296898, 0.20445425808429718, 0.04970814287662506, 0.08957737684249878, 0.2372795194387436, 0.02328016795217991, 0.14581158757209778, -0.1524667888879776, -0.045122746378183365, 0.1496795415878296, 0.004124234430491924, -0.04556528478860855, 0.010117401368916035, -0.15021690726280212, 0.5081484317779541, -0.816832959651947, 0.08716469258069992, 0.3127802312374115, 0.5623618960380554, -0.17479519546031952, -0.41627854108810425, -0.20857299864292145, -0.046904295682907104, 0.1797100007534027], [-0.25683683156967163, 0.048709478229284286, 0.028861209750175476, -0.05399255082011223, 0.09754706919193268, -0.05299324169754982, -0.11737477034330368, -0.16178882122039795, 0.0048849815502762794, -0.06096502020955086, 0.05615680292248726, -0.06491176038980484, 0.025751736015081406, -0.011319857090711594, -0.06632111221551895, 0.047091804444789886, -0.0514100044965744, 0.002563658868893981, -0.07012774795293808, 0.09302160143852234, 0.10192196071147919, 0.005778179503977299, -0.04054560139775276, -0.195295050740242, -0.5900148153305054, -0.01602494902908802, -0.19803953170776367, -0.21803751587867737, -0.3629751205444336, -0.09886375069618225, 0.0757066085934639, 0.08145520836114883, 0.0919496938586235, -0.0497107207775116, -0.007724884897470474, 0.023314429447054863, -0.06351044774055481, 0.03088657185435295, 0.06679372489452362, 0.10033886879682541, -0.05892563983798027, -0.05642758682370186, 0.24233241379261017, -0.11163292080163956, -0.04187832772731781, -0.08345523476600647, 0.0015483987517654896, 0.020758550614118576, -0.16310545802116394, 0.1306104212999344, 0.12864398956298828, -0.06717898696660995, -0.11276070773601532, -0.008774016052484512, -0.07263494282960892, 0.23607325553894043, 0.32020702958106995, 0.028507553040981293, -0.0168092530220747, 0.1742289513349533, 0.19307245314121246, -0.2950403392314911, -0.13946762681007385, -0.27874651551246643, -0.06920146942138672, -0.12393439561128616, -0.17008797824382782, -0.006174895446747541, -0.21109536290168762, -0.15936656296253204, -0.16624638438224792, 0.035650238394737244, 0.07049138098955154, -0.06754925847053528, 0.023697394877672195, 0.1303008496761322, -0.00029059420921839774, 0.05516389012336731, 0.16849884390830994, 0.030928444117307663, -0.017474954947829247, -0.07545657455921173, 0.1233103796839714, 0.018350014463067055, 0.0895383283495903, 0.04927900806069374, -0.3884229063987732, 0.4329937696456909, -0.29528725147247314, 0.3973236680030823, -0.04558374360203743, -0.16594210267066956, 0.20852962136268616, 0.20860004425048828, -0.010243749246001244], [-0.2238406091928482, -0.17449595034122467, -0.08419761806726456, -0.08525368571281433, 0.009410649538040161, 0.17929011583328247, -0.4100111722946167, -0.4601704478263855, -0.1626053899526596, 0.025470638647675514, 0.008060360327363014, 0.07446080446243286, -0.17473800480365753, 0.05344381928443909, -0.15425418317317963, -0.025281094014644623, -0.11707082390785217, 0.02801559492945671, 0.06544331461191177, 0.007779994513839483, -0.03154176101088524, 0.029811041429638863, 0.07808774709701538, 0.015604864805936813, 0.07292191684246063, -0.20499064028263092, 0.2679974436759949, -0.24514037370681763, 0.08922092616558075, -0.007430374622344971, 0.0715104341506958, -0.11751554906368256, -0.1338272988796234, 0.15143094956874847, -0.032209187746047974, -0.015026703476905823, -0.01891361176967621, -0.04708569496870041, 0.03983823582530022, -0.06351263076066971, -0.02178332582116127, 0.16573336720466614, -0.07758752256631851, -0.0125330351293087, 0.13809511065483093, 0.07043355703353882, 0.014557194896042347, 0.03143538162112236, -0.03519074246287346, 0.18656030297279358, 0.410911500453949, -0.3309791684150696, 0.10883007198572159, 0.13017748296260834, 0.011683987453579903, -0.040735598653554916, -0.09313376247882843, -0.3295479118824005, -0.33616167306900024, -0.1447645127773285, -0.05358921363949776, -0.08763982355594635, -0.0923619493842125, 0.22528956830501556, 0.274288147687912, -0.030613429844379425, -0.01066477783024311, -0.15198567509651184, -0.032636284828186035, 0.06595878303050995, -0.21219708025455475, 0.05587005615234375, 0.15329274535179138, -0.016398407518863678, -0.057834506034851074, 0.01025728415697813, 0.11196757853031158, -0.03093537501990795, 0.09723508358001709, 0.15819291770458221, 0.12667129933834076, 0.17633424699306488, -0.19188322126865387, -0.03037724271416664, 0.05198068171739578, -0.0008618991705588996, -0.19549714028835297, 0.1772313117980957, -0.5308027863502502, 0.10541553795337677, -0.24616417288780212, 0.2089499980211258, 0.24341736733913422, -0.2455398142337799, 0.1935652792453766], [-0.41469502449035645, 0.057444751262664795, 0.04878266155719757, -0.09297245740890503, -0.040296927094459534, -0.21305318176746368, 0.19734938442707062, -0.2779536545276642, -0.08732463419437408, -0.07705036550760269, 0.013046294450759888, 0.07321814447641373, -0.07396302372217178, 0.0569990910589695, -0.16834762692451477, -0.0818558782339096, 0.05804835259914398, -0.08381906896829605, 0.05185861140489578, -0.04283878579735756, 0.034405965358018875, 0.02776579186320305, -0.16270792484283447, -0.12115143239498138, -0.08772961050271988, -0.08470196276903152, 0.0015269846189767122, -0.05013439804315567, 0.03696250915527344, 0.14384876191616058, -0.0674591213464737, -0.08215902745723724, -0.0824979618191719, 0.018158238381147385, -0.16826695203781128, 0.1084112748503685, 0.07048818469047546, 0.08618639409542084, -0.08276791870594025, 0.10064173489809036, 0.1279749870300293, 0.02673066221177578, 0.11243007332086563, 0.04783761128783226, -0.0028436605352908373, 0.12379402667284012, -0.08642186969518661, 0.004427158273756504, -0.10429126024246216, -0.19391334056854248, 0.146018385887146, -0.11536246538162231, -0.22654752433300018, -0.05668562650680542, -0.2123311161994934, 0.40844646096229553, 0.0970037505030632, -0.2755064368247986, -0.09230060130357742, -0.07437913864850998, -0.24431520700454712, 0.015713395550847054, 0.27295002341270447, -0.16642101109027863, 0.0967482253909111, 0.017670949921011925, 0.05297461524605751, 0.03152095153927803, 0.15644332766532898, -0.16937948763370514, -0.22255557775497437, -0.1375609040260315, 0.028884291648864746, 0.2849350571632385, -0.031313713639974594, -0.13963167369365692, -0.12785369157791138, 0.020991552621126175, 0.11297516524791718, -0.1192605122923851, -0.07982917129993439, 0.010530240833759308, -0.3354007601737976, 0.15122506022453308, -0.2484065145254135, 0.6323308348655701, -0.19168806076049805, 0.38493698835372925, -0.5423993468284607, 0.3468517065048218, -0.28103360533714294, 0.3227081298828125, -0.11051475256681442, -0.119348905980587, 0.2938482165336609], [0.10829900205135345, 0.17457401752471924, 0.08549050986766815, -0.051535725593566895, 0.05616419017314911, 0.24914108216762543, 0.06460725516080856, 0.17295897006988525, 0.019040511921048164, 0.02874245122075081, 0.006765338126569986, -0.03655564785003662, -0.04204317554831505, -0.11450836062431335, 0.026691410690546036, 0.0067625343799591064, -0.016112027689814568, 0.10554295778274536, -0.00729426508769393, 0.04434990510344505, -0.04100419953465462, -0.0572059229016304, 0.26114422082901, 0.1942979395389557, -0.28248390555381775, 0.03234385699033737, -0.15904460847377777, -0.016687054187059402, 0.07726463675498962, -0.13845185935497284, -0.15747074782848358, 0.09475962817668915, -0.0407809242606163, 0.0851907804608345, 0.06149435043334961, -0.020386215299367905, -0.11046326905488968, -0.07638227194547653, 0.04527217522263527, 0.025327783077955246, 0.1111137792468071, 0.024016695097088814, -0.05509348213672638, -0.09640579670667648, -0.06620216369628906, -0.05952245369553566, 0.03993189334869385, -0.16702806949615479, -0.02972881682217121, -0.00224145851098001, 0.29164230823516846, 0.03889733925461769, -0.25013378262519836, -0.09268553555011749, 0.002947583794593811, -0.14862921833992004, -0.07516355067491531, -0.3253817856311798, -0.3336085379123688, 0.12545187771320343, 0.091493159532547, -0.21565461158752441, -0.05564471706748009, 0.01046884898096323, -0.30345651507377625, 0.10460595041513443, 0.08208217471837997, -0.04385233297944069, -0.16012732684612274, 0.22394786775112152, -0.26441726088523865, 0.0454411506652832, 0.09789533168077469, 0.02096601016819477, 0.16634207963943481, 0.1697143167257309, 0.10444793105125427, -0.034994177520275116, 0.043013256043195724, -0.009232508018612862, 0.022681836038827896, 0.12991248071193695, 0.10265563428401947, -0.03882886469364166, -0.004694825038313866, 0.03235897049307823, -0.2209189087152481, 0.46964120864868164, 0.14954334497451782, -0.17161016166210175, -0.05379331856966019, -0.6362513899803162, -0.1387542337179184, 0.09496594220399857, -0.2549999952316284], [0.26737356185913086, 0.0990411713719368, -0.034878022968769073, 0.00747767835855484, 0.04743966460227966, -0.018282799050211906, 0.3152224123477936, 1.48749840259552, -0.07045645266771317, -0.13002745807170868, -0.07443109154701233, 0.07361509650945663, 0.014985122717916965, -0.008908106945455074, -0.11475497484207153, 0.0706295296549797, -0.05547468364238739, -0.11641284823417664, -0.01731455698609352, -0.0433766171336174, -0.07267819344997406, -0.04225407540798187, -0.008054454810917377, -0.08892001956701279, -0.07968125492334366, -0.1353016495704651, -0.1394459754228592, -0.06941245496273041, 0.006691901478916407, -0.43654951453208923, 0.14110492169857025, 0.03333102539181709, 0.10300949215888977, -0.11490360647439957, 0.08569934964179993, -0.020805539563298225, 0.09657920151948929, 0.03119857981801033, 0.1248604953289032, 0.19176414608955383, -0.06259545683860779, 0.09765841066837311, -0.009317278861999512, -0.10790267586708069, -0.03142823278903961, -0.1329374760389328, -0.16972604393959045, -0.01325046643614769, -0.05771486088633537, -0.2509722113609314, 0.294750452041626, 0.2215077430009842, -0.23161478340625763, -0.05076422542333603, -0.25139114260673523, 0.1790323108434677, -0.0905659943819046, 0.32054707407951355, -0.09912685304880142, 0.22263039648532867, 0.26669108867645264, 0.17411267757415771, -0.10197881609201431, -0.10640226304531097, 0.10407250374555588, 0.17082828283309937, -0.0840771272778511, 0.16096197068691254, 0.053427454084157944, -0.14374206960201263, 0.2037705034017563, 0.3744274079799652, -0.056506309658288956, 0.09021473675966263, -0.0351627841591835, 0.05873902142047882, -0.05219287425279617, -0.19233983755111694, 0.01893751323223114, -0.08143847435712814, 0.05738328397274017, 0.03375508263707161, -0.03933871537446976, -0.06668615341186523, 0.11090969294309616, -0.3080986738204956, 0.10226947069168091, -0.23994837701320648, 0.07457002997398376, -0.16186125576496124, 0.06271890550851822, -0.04990303888916969, -0.09053012728691101, 0.10432690382003784, -0.07508239150047302], [-0.06328662484884262, 0.4765119254589081, -0.024654261767864227, -0.04959114268422127, -0.09753642231225967, -0.22108672559261322, -0.3049057424068451, -0.2074035257101059, -0.007696389686316252, 0.002566684503108263, -0.201057568192482, -0.05093250051140785, -0.049145862460136414, 0.04707183688879013, -0.011950798332691193, 0.14132140576839447, -0.06639593839645386, -0.047120533883571625, -0.06927923113107681, 0.0006019723950885236, 0.06489671766757965, -0.022449776530265808, -0.05410686507821083, 0.17793652415275574, -0.03802203759551048, 0.2378697395324707, 0.14663319289684296, -0.37729567289352417, 0.34493744373321533, 0.030131451785564423, 0.07180889695882797, -0.03664723411202431, -0.0516936257481575, -0.0391029492020607, 0.1432909220457077, -0.11094474047422409, -0.0501553975045681, -0.10956674814224243, 0.09220979362726212, -0.16431176662445068, 0.07148879021406174, -0.009302460588514805, -0.08720295876264572, -0.0983320102095604, -0.04007478058338165, -0.010866926982998848, 0.09351871907711029, 0.13195456564426422, 0.08014095574617386, -0.05685828626155853, 0.10169640928506851, 0.16420015692710876, 0.14305056631565094, 0.12550503015518188, 0.02958335354924202, -0.1079227551817894, -0.047205161303281784, -0.14096316695213318, -0.34187862277030945, 0.10512428730726242, 0.21268534660339355, -0.3100622594356537, -0.13388964533805847, -0.026278357952833176, -0.20133532583713531, -0.2566720247268677, 0.04281371086835861, -0.09090061485767365, -0.009365096688270569, -0.2749205529689789, 0.13245248794555664, 0.11125582456588745, 0.04712233319878578, -0.1274288296699524, -0.029379429295659065, 0.04083535820245743, 0.09032232314348221, 0.0878710150718689, -0.04270969703793526, 0.0011426684213802218, -0.04335691034793854, 0.18059684336185455, 0.26351258158683777, -0.14206227660179138, 0.046145301312208176, -0.23522549867630005, 0.14590106904506683, -0.3235565721988678, 0.43852946162223816, -0.03654983639717102, -0.1692272275686264, -0.1550113707780838, 0.3408421277999878, -0.21742598712444305, -0.10279016941785812], [0.21965041756629944, -0.35278764367103577, 0.07209928333759308, -0.03299521654844284, 0.1016349047422409, 0.039536818861961365, 0.48911166191101074, 0.06347274780273438, 0.025093605741858482, -0.02601327933371067, -0.011882402002811432, -0.04225471243262291, -0.047130927443504333, -0.06545238941907883, 0.027567123994231224, 0.1445981115102768, -0.057252347469329834, -0.06573428958654404, -0.041075464338064194, 0.0422929972410202, -0.05546443909406662, 0.04258718341588974, -0.17946869134902954, -0.05813419073820114, 0.07266820967197418, -0.07103940099477768, 0.02107607014477253, -0.16238830983638763, -0.1258479356765747, -0.03914083167910576, 0.06385185569524765, -0.05258747190237045, -0.02688404731452465, 0.09678570926189423, 0.06971615552902222, -0.01969119720160961, -0.027581140398979187, -0.09335818886756897, -0.07147300988435745, 0.06665114313364029, -0.0291309617459774, 0.025720808655023575, -0.057949841022491455, -0.0464637354016304, -0.045497409999370575, 0.07186228781938553, -0.00364201283082366, -0.036337222903966904, -0.1509280651807785, 0.06685681641101837, 0.14910314977169037, -0.32018786668777466, -0.12445445358753204, 0.1485256850719452, 0.12350614368915558, 0.20532847940921783, 0.23400092124938965, -0.12736190855503082, 0.14723774790763855, -0.09187094867229462, -0.33285635709762573, -0.19290988147258759, -0.11177749931812286, -0.1915128529071808, 0.05758652463555336, 0.0876220315694809, 0.02387407049536705, -0.10364990681409836, -0.0895858183503151, -0.02351418137550354, 0.17011046409606934, 0.02973410114645958, 0.013254236429929733, -0.23827636241912842, -0.08629452437162399, -0.15015970170497894, -0.010769892483949661, -0.06146269664168358, 0.18843701481819153, 0.049789439886808395, 0.031046004965901375, -0.11670432239770889, 0.0689777359366417, -0.026816658675670624, 0.03357436880469322, -0.11372514814138412, -0.19549451768398285, 0.17122721672058105, -0.19513270258903503, 0.4626976549625397, -0.25505122542381287, -0.16022734344005585, -0.03493262454867363, 0.03882206976413727, 0.009589343331754208], [0.22610752284526825, 0.13491001725196838, 0.08373552560806274, 0.08662554621696472, -0.010875292122364044, 0.16542668640613556, 0.11960414052009583, -0.6238094568252563, 0.1309715211391449, -0.05175067484378815, -0.08762025833129883, 0.0547265000641346, -0.038763005286455154, -0.006579361855983734, -0.07335731387138367, 0.20648953318595886, -0.05110593140125275, 0.01807001419365406, 0.19133611023426056, -0.01887264847755432, 0.06009315326809883, -0.08041122555732727, -0.08218574523925781, -0.1215268149971962, 0.19076652824878693, -0.5330380201339722, 0.031694114208221436, 0.10440512001514435, -0.10643739253282547, -0.22068655490875244, 0.02571142092347145, 0.06278441101312637, -0.0038319213781505823, 0.004219623748213053, -0.0051727681420743465, -0.05698928236961365, -0.10341733694076538, -0.10888619720935822, -0.08004581928253174, 0.10251515358686447, 0.020729580894112587, -0.1679256111383438, 0.16406714916229248, -0.12443695217370987, -0.04591583088040352, -0.07685860991477966, -0.11834277957677841, -0.09641675651073456, 0.10155105590820312, -0.013757618144154549, -0.031431645154953, 0.09888662397861481, -0.11000195145606995, -0.022656641900539398, -0.43390583992004395, -0.012392623350024223, 0.25101137161254883, -0.08513138443231583, 0.07561669498682022, -0.27225106954574585, -0.021187128499150276, -0.10139336436986923, -0.19537977874279022, -0.34747442603111267, -0.07514428347349167, 0.05769658088684082, 0.05978372320532799, 0.09491521865129471, -0.03842441365122795, -0.03628659248352051, -0.15172594785690308, -0.17253372073173523, -0.18369805812835693, -0.0644376277923584, 0.13570961356163025, 0.05576137453317642, -0.04844885692000389, -0.02293398417532444, -0.15113835036754608, -0.062393058091402054, 0.24477756023406982, 0.19778087735176086, -0.10651624202728271, -0.15852081775665283, 0.11801405251026154, -0.20355939865112305, 0.1611398160457611, 0.2216387242078781, 0.12789081037044525, 0.16497457027435303, 0.07140649110078812, -0.0978865697979927, 0.29950687289237976, -0.6235857605934143, -0.038427259773015976], [0.0035602094139903784, 0.20612478256225586, -0.003279849886894226, -0.07302037626504898, -0.00715801864862442, 0.1524350345134735, -0.26380056142807007, -0.46326395869255066, 0.09650272130966187, -0.11520378291606903, -0.057108256965875626, -0.038956210017204285, 0.0022033401764929295, -0.07434522360563278, -0.1937408298254013, 0.10511161386966705, -0.024102823808789253, -0.12363038212060928, -0.12615929543972015, 0.05763819068670273, 0.017926553264260292, -0.0007297252304852009, -0.12170713394880295, 0.19249777495861053, -0.08093634992837906, 0.08660305291414261, 0.03218187019228935, -0.23300842940807343, 0.1247275173664093, -0.16666796803474426, -0.02087871916592121, 0.014693730510771275, 0.02921552024781704, -0.16804423928260803, 0.0595797635614872, 0.08037857711315155, 0.04845304787158966, 0.005307578481733799, 0.05203484371304512, 0.10649161785840988, -0.1429007351398468, -0.020874740555882454, -0.07293272763490677, -0.043642062693834305, -0.008153666742146015, 0.1382594257593155, 0.08163665235042572, 0.05329006537795067, -0.199201300740242, 0.03672999143600464, -0.5054362416267395, -0.07781005650758743, 0.24962936341762543, 0.09043355286121368, -0.0064637064933776855, 0.014176671393215656, -0.045339785516262054, 0.09646596014499664, -0.14351581037044525, -0.14764299988746643, 0.02705211192369461, -0.25445544719696045, 0.040476661175489426, 0.12776780128479004, -0.19833223521709442, 0.03660067170858383, -0.0564003624022007, -0.09850694984197617, -0.2140362411737442, 0.1200690045952797, -0.23985254764556885, -0.049550846219062805, -0.012600245885550976, 0.019059984013438225, -0.209454745054245, 0.11378675699234009, -0.14172877371311188, 0.1089654415845871, 0.20953986048698425, -0.13726314902305603, 0.04349074140191078, 0.2465149313211441, -0.14492268860340118, -0.2818849980831146, -0.048631493002176285, 0.39071980118751526, -0.41687947511672974, 0.1942790448665619, -0.3158870339393616, 0.35020601749420166, -0.11412924528121948, 0.0715387612581253, -0.018255380913615227, -0.25072917342185974, 0.27717629075050354], [-0.18672487139701843, 0.15799258649349213, -0.09518367052078247, -0.014859363436698914, -0.07460390031337738, 0.23183776438236237, -0.14271670579910278, -0.3348618149757385, 0.14589348435401917, 0.07322292774915695, 0.06383667141199112, 0.038046374917030334, 0.01954824849963188, -0.07189156115055084, 0.043292123824357986, 0.07771856337785721, 0.1887400597333908, -0.03596922755241394, 0.06081535667181015, -0.015752717852592468, 0.018854349851608276, 0.17653828859329224, -0.31905245780944824, 0.056970663368701935, 0.15761815011501312, 0.023824283853173256, 0.11072845011949539, 0.00895328912883997, -0.5118328332901001, -0.035263560712337494, -0.002189292572438717, -0.05576028674840927, -0.053958162665367126, -0.0806187093257904, 0.03729966655373573, 0.09526091068983078, -0.07010812312364578, 0.07579366117715836, -0.12103476375341415, -0.10937133431434631, 0.08796379715204239, -0.05764158442616463, 0.10266011208295822, -0.12826909124851227, 0.04985787346959114, -0.14662164449691772, 0.15764309465885162, 0.04617626219987869, 0.11239010095596313, 0.02639528177678585, 0.37229183316230774, 0.10980835556983948, -0.01152364443987608, 0.12545296549797058, 0.19850464165210724, 0.12154573202133179, -0.2640356123447418, -0.31627675890922546, 0.16426865756511688, -0.0789606124162674, -0.4474301040172577, -0.28134962916374207, -0.19458447396755219, 0.07799792289733887, -0.019616665318608284, -0.09270624071359634, -0.02025652304291725, 0.1080748662352562, -0.20705293118953705, -0.06740926206111908, -0.07953924685716629, 0.13851411640644073, 0.1161162257194519, 0.08312451839447021, 0.07308603823184967, -0.07033053040504456, 0.09613799303770065, 0.13102048635482788, -0.1356283724308014, 0.024021921679377556, -0.08345039188861847, -0.10632443428039551, 0.021518375724554062, -0.2528137266635895, 0.06945141404867172, 0.7284705638885498, -0.39646828174591064, 0.36061638593673706, -0.010014447383582592, 0.20460902154445648, 0.17403581738471985, -0.10901571810245514, 0.24821078777313232, -0.05858375132083893, 0.11618736386299133], [-0.11010456085205078, 0.3365873694419861, 0.054420724511146545, -0.05377268046140671, 0.03582406044006348, 0.047190405428409576, -0.15502896904945374, 0.16733717918395996, 0.15925320982933044, 0.02815958671271801, 0.011663886718451977, 0.07591257989406586, -0.11228891462087631, -0.05472320318222046, 0.05245004594326019, 0.010789051651954651, -0.013743657618761063, -0.12122191488742828, -0.025742297992110252, -0.06075023114681244, 0.056836456060409546, -0.0843864157795906, -0.2300395518541336, -0.054524216800928116, 0.17632821202278137, -0.1057395339012146, -0.037907399237155914, -0.03151525929570198, -0.05471154302358627, -0.061386119574308395, 0.030754482373595238, -0.024097753688693047, 0.03910616785287857, -0.024040834978222847, 0.051783379167318344, 0.05145382508635521, 0.05891759693622589, 0.09391812980175018, -0.10417740046977997, 0.06223501265048981, 0.12506964802742004, -0.006596284452825785, -0.006545156706124544, -0.08448167145252228, -0.018877604976296425, 0.06719444692134857, -0.1887529492378235, 0.3186701536178589, -0.1261521279811859, -0.031687043607234955, -0.08556676656007767, 0.027213910594582558, -0.14932170510292053, -0.3634509742259979, 0.21728724241256714, -0.16683433949947357, 0.09637053310871124, -0.13053946197032928, -0.006840232759714127, 0.027029456570744514, 0.02523260936141014, -0.1194969043135643, 0.0281288493424654, -0.12087012082338333, -0.004658515565097332, -0.009378863498568535, 0.07350384443998337, 0.09851177036762238, -0.3118932843208313, -0.06626147031784058, 0.0799335166811943, 0.08971251547336578, -0.17597243189811707, -0.05458885058760643, 0.0862080529332161, -0.0607437938451767, 0.0019021107582375407, -0.24041712284088135, -0.05431431159377098, 0.17964105308055878, 0.042217738926410675, 0.1260761022567749, 0.05950689688324928, 0.11414460837841034, -0.07835246622562408, 0.3362683057785034, 0.009547213092446327, 0.26877668499946594, -0.33887404203414917, 0.04383934661746025, -0.07484936714172363, -0.3262108564376831, 0.08460298180580139, 0.2416234314441681, -0.06510185450315475], [-0.44898250699043274, 0.14529627561569214, 0.02178686112165451, -0.035110048949718475, -0.010374762117862701, -0.3993234634399414, 0.2953300178050995, -0.03268923982977867, 0.06589673459529877, 0.06477498263120651, 0.018195740878582, 0.04470387101173401, 0.14611411094665527, -0.07471130043268204, -0.014877942390739918, -0.0008058539242483675, 0.0861983671784401, -0.0266331285238266, -0.025866808369755745, 0.011572561226785183, -0.022002611309289932, -0.03145311400294304, -0.07331281900405884, -0.09840512275695801, -0.10641585290431976, -0.02813483402132988, -0.10591311007738113, -0.038813941180706024, 0.0897759273648262, -0.02559809200465679, 0.13077174127101898, 0.10522621870040894, -0.06705138087272644, 0.08886246383190155, -0.10175120085477829, -0.11358773708343506, -0.03400596231222153, 2.608075737953186e-05, 0.013225006870925426, -0.03802122175693512, -0.0586552619934082, 0.04385387897491455, -0.001874319277703762, -0.06506012380123138, -0.021274371072649956, -0.04567529261112213, 0.0728120431303978, -0.26026514172554016, 0.11684440076351166, 0.0296687763184309, 0.009719528257846832, -0.18428198993206024, -0.006088002119213343, 0.0737597644329071, -0.10888166725635529, 0.2620216906070709, -0.09620621800422668, -0.04993843659758568, 0.005970441736280918, 0.15409985184669495, -0.12804251909255981, 0.0856054350733757, -0.08905074745416641, -0.06667151302099228, -0.013970497064292431, -0.09924113005399704, -0.12572336196899414, 0.17697344720363617, -0.027247998863458633, -0.09429936856031418, 0.11689043790102005, 0.07248206436634064, 0.0552712045609951, 0.13112004101276398, -0.15885625779628754, 0.1117977574467659, -0.013367859646677971, 0.06222933530807495, -0.2653651535511017, 0.1390991359949112, 0.04239952564239502, -0.16888460516929626, -0.04946104809641838, 0.08151519298553467, 0.0035236480180174112, 0.16153545677661896, 0.18971741199493408, 0.434186190366745, -0.4290432631969452, -0.04157751798629761, 0.4807426333427429, 0.3436189293861389, -0.3176741600036621, -0.27693456411361694, 0.2685900330543518], [0.5432884097099304, 0.45645543932914734, -0.010756425559520721, -0.011680945754051208, -0.009680517017841339, 0.07842043042182922, -0.2258521169424057, 0.1963929831981659, 0.02929067052900791, -0.12466150522232056, -0.11505749821662903, -0.1063360869884491, -0.08940231800079346, -0.16528737545013428, 0.05777523294091225, 0.0953189954161644, -0.015399269759654999, -0.051099661737680435, -0.11002334952354431, -0.09495127201080322, -0.028980888426303864, 0.018718993291258812, -0.013831025920808315, 0.06371838599443436, 0.3818150460720062, -0.0918886587023735, 0.06505454331636429, 0.009759416803717613, -0.2243332415819168, -0.15622709691524506, -0.05024882033467293, -0.08637525141239166, -0.009104892611503601, -0.1458800584077835, 0.05842551961541176, -0.0175918135792017, 0.09731210768222809, 0.1046004593372345, -0.1936422884464264, 0.015730975195765495, 0.19579583406448364, -0.03517233580350876, 0.03950759395956993, 0.021967090666294098, 0.06679970026016235, 0.05812908336520195, 0.095961794257164, -0.04606207087635994, 0.1057165190577507, 0.08364560455083847, -0.1646745651960373, 0.20732960104942322, -0.26773107051849365, 0.2814589738845825, -0.06838547438383102, 0.13738223910331726, -0.03487258777022362, 0.1161736249923706, -0.04940580576658249, -0.09393686801195145, -0.09881246089935303, 0.23526066541671753, -0.06557895243167877, 0.07832299172878265, -0.1749556064605713, -0.13993336260318756, 0.1321438103914261, 0.08319706469774246, -0.06666454672813416, 0.1234254539012909, 0.07758083939552307, 0.12119726091623306, 0.07092885673046112, 0.18934667110443115, -0.04747399315237999, -0.0537690632045269, -0.10984285920858383, -0.08690249174833298, -0.13389110565185547, 0.10325270891189575, 0.012139923870563507, -0.055530402809381485, 0.15879389643669128, 0.02074003964662552, 0.042634814977645874, -0.38266992568969727, 0.035239435732364655, -0.5057840943336487, 0.3797629475593567, -0.022372648119926453, -0.1629856377840042, -0.1602993607521057, 0.2939395010471344, -0.1801152229309082, -0.46763455867767334], [0.28025928139686584, 0.19272081553936005, 0.09912809729576111, -0.033655114471912384, 0.04561835527420044, -0.35527750849723816, -0.026553848758339882, 0.668335497379303, 0.08124691992998123, -0.021349864080548286, -0.14937317371368408, -0.11183641850948334, -0.12320814281702042, -0.03433876857161522, -0.015334825031459332, 0.08851238340139389, 0.03449275344610214, 0.016122937202453613, -0.07635965943336487, -0.09929484128952026, -0.011742417700588703, -0.12554243206977844, -0.05955531820654869, 0.056998223066329956, -0.12335915863513947, 0.016501782462000847, 0.21853068470954895, -0.30480870604515076, 0.19066740572452545, -0.12972784042358398, -0.10255783051252365, -0.08473437279462814, 0.005506545305252075, 0.03537129610776901, -0.00010001052578445524, -0.0644051656126976, 0.026273883879184723, -0.004025562200695276, -0.014687660150229931, 0.009924662299454212, -0.0034267972223460674, -0.04011376574635506, -0.26046594977378845, -0.032781679183244705, -0.05548466369509697, -0.10991176217794418, -0.0727836862206459, 0.07648413628339767, -0.08466588705778122, 0.21055474877357483, 0.05419646203517914, -0.06907942146062851, 0.1330498605966568, -0.030901199206709862, 0.007470284588634968, -0.05172219127416611, -0.054236073046922684, 0.16087545454502106, 0.13948982954025269, -0.12324860692024231, -0.08030223101377487, -0.03461207076907158, -0.03867247328162193, -0.12285657227039337, -0.07768112421035767, 0.0897800549864769, -0.05009571835398674, 0.08118704706430435, -0.07564956694841385, -0.0009591169655323029, -0.11743838340044022, -0.09583111852407455, 0.09313280135393143, -0.08993730694055557, 0.06370360404253006, 0.14152561128139496, -0.024130284786224365, 0.20185114443302155, -0.15772512555122375, 0.04198531061410904, 0.0004370351380202919, 0.23753021657466888, 0.03895514830946922, -0.01223831158131361, 0.07504022121429443, -0.16708756983280182, 0.1451321542263031, -0.041342832148075104, -0.00842305738478899, 0.10066189616918564, -0.12249821424484253, -0.20897932350635529, 0.031753428280353546, -0.21988621354103088, -0.15474753081798553], [-0.8366153240203857, 0.2886042594909668, -0.01595321297645569, -0.09979714453220367, -0.0523168109357357, 0.09382059425115585, 0.21335802972316742, -0.3655516505241394, 0.03731360286474228, -0.18260343372821808, -0.05853092670440674, -0.029892573133111, 0.12996578216552734, 0.04531148821115494, 0.06575488299131393, 0.1948515772819519, -0.21771074831485748, 0.05787091702222824, -0.05829005688428879, 0.09878770262002945, 0.04531989246606827, 0.049400877207517624, -0.0816410481929779, 0.21077759563922882, -0.33049532771110535, -0.019645294174551964, -0.05778385326266289, -0.21693943440914154, -0.2641962170600891, -0.1520833671092987, 0.04726173356175423, -0.1774543672800064, -0.02104812115430832, -0.0968094989657402, 0.15533778071403503, -0.052981164306402206, 0.034965626895427704, -0.1296328902244568, 0.07647828012704849, 0.04147995263338089, -0.008361772634088993, 0.06019841134548187, -0.022176362574100494, -0.03791600093245506, 0.1549619734287262, 0.1433900147676468, 0.1310606449842453, 0.04396134614944458, 0.10690943151712418, 0.02109198085963726, -0.04523524269461632, 0.1468505710363388, 0.19832725822925568, -0.040873557329177856, 0.03300521522760391, -0.15768688917160034, 0.20890246331691742, -0.06665637344121933, -0.07902829349040985, -0.24822983145713806, -0.19362786412239075, -0.20849235355854034, -0.14495356380939484, 0.22152982652187347, -0.040908049792051315, -0.0071208723820745945, -0.27006661891937256, -0.10144048184156418, 0.020546680316329002, -0.060655009001493454, 0.011511656455695629, -0.18579791486263275, 0.1965433806180954, -0.013816394843161106, 0.2681849002838135, 0.25073739886283875, 0.03285863250494003, -0.061339084059000015, 0.41510483622550964, -0.2642347812652588, 0.035239722579717636, -0.1172371357679367, -0.18266166746616364, -0.252732515335083, -0.0021389764733612537, 0.3677482306957245, -0.3880162537097931, 0.36009684205055237, 0.10637033730745316, 0.3037540316581726, -0.3707242012023926, -0.7289242744445801, 0.10067962855100632, 0.020045483484864235, -0.25011590123176575], [0.12388905137777328, 0.1022844985127449, 0.025350317358970642, 0.03826865553855896, -0.06927411258220673, 0.4421243667602539, 0.10865966230630875, -0.4692094326019287, 0.013756288215517998, -0.05280175805091858, -0.043931327760219574, -0.04124801978468895, -0.0227205790579319, 0.005919118411839008, -0.0211226437240839, 0.015411293134093285, -0.1938011199235916, 0.11047255247831345, -0.08539830893278122, -0.01571083813905716, -0.030469223856925964, -0.06095394864678383, -0.3353039622306824, -0.10157468169927597, -0.08450482040643692, 0.006780268624424934, 0.15972624719142914, -0.027335455641150475, -0.09566827118396759, -0.09972025454044342, 0.05261485278606415, 0.01917915791273117, -0.03478991985321045, -0.07952461391687393, -0.0700339749455452, 0.11263766139745712, 0.041414037346839905, -0.008140159770846367, -0.014057504944503307, 0.021011430770158768, 0.0505872443318367, 0.07849153131246567, 0.20035657286643982, 0.03761613741517067, -0.12490294128656387, 0.06335039436817169, 0.04302113503217697, -0.12166979908943176, -0.006935954559594393, 0.2515685260295868, -0.15085342526435852, 0.10325116664171219, 0.049723461270332336, 0.04174577817320824, -0.14447110891342163, -0.10070831328630447, 0.07214958965778351, 0.18061254918575287, 0.06737689673900604, -0.010951242409646511, -0.10560838878154755, -0.15324600040912628, -0.2404758781194687, -0.16586588323116302, -0.16367776691913605, 0.06492963433265686, -0.07162822037935257, -0.07095914334058762, 0.1229824647307396, 0.09670134633779526, -0.14652006328105927, -0.029322689399123192, 0.03563397005200386, -0.15818864107131958, -0.02508402243256569, 0.22289395332336426, 0.07611232250928879, 0.08758848905563354, -0.07211332023143768, -0.08042846620082855, -0.12291926145553589, 0.007825018838047981, 0.22613291442394257, -0.014271112158894539, -0.18314982950687408, -0.4750657379627228, 0.06807084381580353, 0.3563556373119354, -0.4325679838657379, 0.2565208077430725, 0.24248692393302917, -0.017551980912685394, -0.18614274263381958, -0.08298833668231964, 0.23012633621692657], [-0.10129115730524063, 0.3834502398967743, 0.09914100170135498, 0.07321403920650482, 0.08561427891254425, 0.2604604959487915, -0.2449769526720047, 0.18626506626605988, -0.09352041035890579, 0.02851947769522667, -0.012763082049787045, 0.04976751282811165, -0.01896505244076252, 0.00590213667601347, -0.1263853907585144, -0.034921932965517044, 0.03082021325826645, 0.04437636211514473, -0.017415761947631836, 0.05019919574260712, 0.12037357687950134, -0.004850923549383879, -0.2726646959781647, -0.13162557780742645, -0.111686110496521, -0.19311140477657318, 0.3866814076900482, 0.1396815925836563, 0.01606345921754837, 0.11915597319602966, 0.1660432070493698, -0.019321322441101074, -0.17938338220119476, -0.050957802683115005, 0.07945030182600021, 0.10550867021083832, 0.16963261365890503, 0.0806707963347435, -0.022224003449082375, -0.015085027553141117, 0.1351141333580017, 0.041730593889951706, 0.026193108409643173, 0.1988411843776703, -0.05751454457640648, 0.032617151737213135, -0.0866742730140686, -0.013878450728952885, -0.10761886090040207, 0.058880746364593506, 0.2903062701225281, -0.45124977827072144, -0.14268934726715088, 0.16732157766819, 0.19851908087730408, -0.6516121029853821, -0.1841214895248413, -0.20764249563217163, -0.01567087508738041, 0.0762372687458992, -0.10047996044158936, -0.17096152901649475, 0.06779836863279343, -0.1022515520453453, -0.039804693311452866, -0.028251534327864647, -0.004892216995358467, -0.01765589788556099, -0.09830672293901443, 0.1296800673007965, 0.015747755765914917, 0.10331296175718307, -0.023187441751360893, 0.09747043251991272, -0.12522976100444794, -0.12775053083896637, -0.03235954791307449, 0.10398291051387787, 0.007517892401665449, -0.12874114513397217, 0.02624199353158474, 0.00846093986183405, -0.11373226344585419, 0.02181352488696575, -0.15825879573822021, 0.1864810734987259, -0.20560885965824127, 0.42678502202033997, 0.11560364812612534, 0.1514977067708969, -0.0544641949236393, 0.12105394899845123, 0.09080132842063904, 0.055696964263916016, -0.11166112124919891], [0.31291791796684265, 0.08516327291727066, 0.06881982088088989, -0.06043189391493797, -0.020232006907463074, -0.22594811022281647, -0.035303011536598206, -0.19915519654750824, -0.00044628174509853125, 0.06883764266967773, -0.08234980702400208, -0.06631377339363098, -0.03770666569471359, -0.07395875453948975, -0.1366596519947052, 0.08048024028539658, 0.0398598276078701, -0.11079910397529602, 0.05152110010385513, -0.09588059037923813, -0.012147296220064163, 0.04448207840323448, -0.05140307545661926, -0.2717938721179962, 0.2862715423107147, -0.08612250536680222, 0.19460038840770721, -0.14169541001319885, 0.1083880066871643, -0.022232629358768463, 0.08854185789823532, -0.08707240223884583, -0.16300994157791138, 0.13755080103874207, -0.0745624378323555, -0.060901131480932236, -0.021105417981743813, 0.11962973326444626, -0.03404014930129051, -0.0808175802230835, 0.010499109514057636, -0.10815495252609253, -0.21991655230522156, -0.09871935844421387, 0.13094863295555115, -0.05445081740617752, -0.010510853491723537, -0.07688745111227036, 0.14321783185005188, 0.05547422915697098, 0.058309949934482574, -0.49457138776779175, 0.1740449219942093, 0.06325370818376541, -0.20016786456108093, 0.012736051343381405, 0.36330264806747437, -0.15073464810848236, -0.20843669772148132, 0.13979722559452057, 0.18910571932792664, -0.03881271556019783, -0.07335825264453888, -0.1812233030796051, -0.035762421786785126, -0.17172327637672424, -0.16020657122135162, 0.04052359238266945, -0.08447164297103882, 0.15431344509124756, -0.09936193376779556, 0.02880847081542015, 0.12346147000789642, -0.13751526176929474, -0.009977440349757671, -0.2608841359615326, 0.09298527985811234, -0.03392534703016281, 0.017118515446782112, 0.011462743394076824, 0.242842897772789, 0.044900234788656235, 0.15808157622814178, 0.1635763943195343, -0.06227295845746994, -0.21830333769321442, 0.22910021245479584, -0.22997111082077026, -0.21547548472881317, -0.33644282817840576, 0.428231805562973, -0.01259688287973404, -0.2697031795978546, -0.01810762658715248, -0.0441511794924736], [-0.28086936473846436, 0.03707075119018555, -0.045762814581394196, -0.02917540818452835, -0.0415877103805542, 0.5516231656074524, -0.16151711344718933, 0.11321982741355896, 0.06637278199195862, 0.03738919273018837, 0.117472805082798, 0.14214110374450684, 0.05721807852387428, -0.023333722725510597, -0.019199907779693604, 0.044318683445453644, -0.09481185674667358, -0.04996025562286377, 0.075409896671772, 0.13884001970291138, -0.05212172865867615, -0.014208982698619366, -0.1777423471212387, 0.0707257017493248, -0.12523557245731354, -0.02085336297750473, -0.3777616322040558, 0.1859057992696762, 0.20393864810466766, 0.2695130407810211, 0.10409745573997498, 0.09428626298904419, -0.21115276217460632, 0.006848852150142193, -0.07172085344791412, -0.02796422690153122, 0.01660398207604885, 0.11104020476341248, 0.10482551157474518, -0.18617422878742218, 0.007241697516292334, -0.06169068440794945, -0.04899314418435097, 0.012368478812277317, 0.17202600836753845, -0.02154032699763775, 0.031110014766454697, -0.0516037717461586, 0.14305442571640015, 0.07824584096670151, -0.03218354657292366, -0.1510038822889328, 0.17445851862430573, 0.032540712505578995, -0.404260516166687, 0.31038734316825867, -0.133342906832695, 0.0873502641916275, -0.06379464268684387, -0.16459763050079346, 0.12702888250350952, 0.06060999631881714, -0.22270700335502625, 0.2295554280281067, 0.031276192516088486, 0.024831930175423622, 0.16340939700603485, -0.05416247993707657, -0.08824416249990463, 0.15315526723861694, -0.08014663308858871, 0.04795007035136223, 0.13995784521102905, 0.18307983875274658, 0.04906740412116051, -0.029832204803824425, 0.12438647449016571, 0.03777557238936424, -0.22345958650112152, -0.4065433442592621, 0.38977357745170593, -0.0903031975030899, 0.09684807062149048, -0.10142824053764343, -0.1754036396741867, 0.5332754254341125, -0.0537901446223259, 0.49143996834754944, 0.029047364369034767, 0.17965221405029297, -0.3661811649799347, 0.11857812106609344, -0.09220276027917862, 0.1710498332977295, 0.10372452437877655], [-0.16679207980632782, -0.41688674688339233, -0.03681214153766632, -0.028167493641376495, 0.038198381662368774, 0.264387309551239, -0.2066611796617508, -0.3230283260345459, 0.06866622716188431, 0.12235928326845169, -0.00044280968722887337, -0.03561117500066757, 0.008596261963248253, 0.064615897834301, -0.018060000613331795, -0.01731950230896473, 0.1674252599477768, 0.03345360979437828, 0.043662697076797485, 0.038009244948625565, 0.026061099022626877, 0.016847211867570877, 0.045041486620903015, 0.2044837772846222, -0.12759657204151154, 0.04183656722307205, -0.003741396591067314, 0.17913641035556793, 0.03283591568470001, -0.1299239546060562, 0.023464346304535866, -0.040457434952259064, -0.10319696366786957, -0.057153645902872086, -0.04585535451769829, -0.056155700236558914, -0.14902803301811218, -0.009087065234780312, -0.03296010196208954, 0.03896234929561615, -0.051754727959632874, -0.012946302071213722, -0.08198776096105576, 0.05211596190929413, 0.1268661767244339, -0.015824466943740845, 0.25922730565071106, 0.18625381588935852, -0.13816431164741516, 0.23456047475337982, -0.10336452722549438, -0.0972040519118309, -0.16846267879009247, -0.3068437874317169, -0.28280511498451233, -0.3482407033443451, -0.3497927486896515, -0.18414397537708282, 0.07571260631084442, -0.027270054444670677, 0.028831804171204567, 0.05486518144607544, 0.05885501950979233, 0.1060456931591034, 0.07120908796787262, -0.02554440312087536, 0.19207645952701569, 0.17143912613391876, 0.06698468327522278, 0.08260950446128845, 0.08486253023147583, -0.05014810338616371, -0.07402634620666504, 0.06412187218666077, 0.12357447296380997, 0.07608795911073685, 0.048155199736356735, 0.08562427759170532, 0.3784501254558563, -0.05381593853235245, -0.17739295959472656, -0.10025416314601898, -0.11694269627332687, -0.11435682326555252, -0.08447546511888504, 0.4081874489784241, -0.4102778732776642, 0.5222049355506897, 0.016645150259137154, 0.003111135447397828, -0.2196284979581833, 0.1588056981563568, 0.05019587650895119, 0.11333341151475906, -0.08844997733831406], [0.41098135709762573, -0.20798251032829285, 0.08399857580661774, 0.01754416525363922, -0.050076186656951904, 0.1691533923149109, 0.2163587212562561, -0.38558217883110046, 0.04132302105426788, -0.22195269167423248, -0.11368729174137115, 0.016604581847786903, -0.03697943687438965, -0.063862644135952, -0.10397036373615265, 0.0922265276312828, -0.23949770629405975, -0.0077690305188298225, 0.01636258140206337, 0.012979650869965553, -0.11037933826446533, 0.009600353427231312, -0.1447611153125763, -0.10640096664428711, 0.0033918239641934633, -0.08050450682640076, 0.04700103774666786, 0.15388725697994232, 0.28264573216438293, -0.06696072965860367, -0.019711419939994812, 0.07462698966264725, -0.0006276156636886299, -0.05753152444958687, -0.10861312597990036, -0.03757960721850395, -0.10867790132761002, -0.11048988997936249, 0.17362244427204132, -0.1593521535396576, -0.13211186230182648, 0.03414588421583176, -0.10666200518608093, -0.24213270843029022, 0.09541849046945572, 0.04413193464279175, -0.0966004803776741, -0.1538643091917038, 0.1018160954117775, -0.0614456981420517, 0.02323395013809204, -0.18288694322109222, -0.04533221572637558, 0.11068040132522583, 0.1368212103843689, 0.19662830233573914, -0.022032946348190308, -0.2714954614639282, 0.17781876027584076, -0.0626613050699234, 0.11926444619894028, -0.15394814312458038, 0.030293747782707214, -0.1084931492805481, 0.044517531991004944, 0.08833076804876328, -0.32424741983413696, -0.08975712954998016, -0.08410943299531937, -0.13003231585025787, 0.19714824855327606, 0.02352949231863022, 0.19333310425281525, -0.27884775400161743, 0.11515548080205917, -0.16402103006839752, -0.051950763911008835, -0.0031888498924672604, 0.30666717886924744, 0.12676407396793365, -0.18260814249515533, 0.30344823002815247, -0.16233037412166595, 0.11152201890945435, -0.20385046303272247, -0.323630690574646, 0.41901472210884094, -0.3684706389904022, 0.36772620677948, -0.6418811082839966, 0.44162431359291077, -0.16161863505840302, -0.027630286291241646, 0.046750862151384354, 0.12595582008361816], [-0.012043638154864311, 0.04822177067399025, -0.08443059772253036, 0.06493666768074036, 0.06757992506027222, -0.09638238698244095, 0.3520912528038025, -0.08599362522363663, -0.060647062957286835, -0.10649745911359787, 0.03301551565527916, -0.02041478641331196, -0.06643154472112656, -0.06257209181785583, 0.0031943756621330976, 0.10611742734909058, 0.020083703100681305, 0.007031978107988834, -0.01430549193173647, 0.06102749705314636, -0.045775171369314194, -0.11519189178943634, -0.052927903831005096, -0.13693197071552277, -0.160554900765419, -0.2507050037384033, -0.1984494924545288, 0.3548004627227783, 0.21514546871185303, -0.10530541837215424, 0.06841138750314713, 0.04343387112021446, 0.07285618036985397, -0.07175369560718536, -0.16765980422496796, -0.10315578430891037, -0.10795101523399353, 0.03787479177117348, 0.029485078528523445, -0.06840026378631592, -0.09965863823890686, -0.018522540107369423, 0.05364704132080078, -0.021800018846988678, -0.05319111794233322, -0.052735161036252975, 0.009013828821480274, -0.08319927752017975, -0.1123628169298172, -0.027741624042391777, -0.16537955403327942, -0.014898229390382767, 0.2707301080226898, -0.021795667707920074, 0.10578044503927231, 0.20485155284404755, 0.05234844982624054, 0.08286338299512863, 0.012001385912299156, 0.1559043675661087, -0.029096966609358788, 0.04276429861783981, 0.0671883076429367, 0.12001384794712067, -0.021448727697134018, 0.04843705892562866, -0.3624422550201416, 0.11461984366178513, -0.005165476817637682, -0.026810910552740097, -0.13683129847049713, 0.07428649812936783, -0.059831101447343826, -0.2684153616428375, -0.04631185531616211, -0.03425053134560585, -0.10834645479917526, -0.07540067285299301, 0.2096138447523117, 0.09339240938425064, 0.04788636416196823, -0.02807866409420967, 0.047387685626745224, -0.0282332431524992, 0.09540636092424393, -0.26113563776016235, 0.09139253944158554, -0.01704959198832512, 0.07698999345302582, -0.13773123919963837, -0.277940571308136, -0.8593218326568604, 0.0448153093457222, -0.27942055463790894, -0.17814426124095917], [0.41369184851646423, -0.3583275377750397, 0.02875174582004547, 0.07281287014484406, 0.03494417667388916, 0.23238645493984222, -0.1189899891614914, -0.555221438407898, 0.062418557703495026, -0.276519238948822, -0.1490963250398636, 0.058034393936395645, -0.02280096895992756, 0.04696951434016228, 0.013374336995184422, 0.10430008918046951, -0.2869970202445984, -0.08149706572294235, 0.06941564381122589, -0.04826737940311432, 0.16162250936031342, -0.013974059373140335, -0.01709791086614132, -0.08642513304948807, 0.16491465270519257, 0.08259483426809311, -0.05483754351735115, -0.01403193548321724, 0.18392355740070343, 0.06373969465494156, -0.17810702323913574, 0.00461885379627347, -0.08407869935035706, 0.11032945662736893, -0.046645909547805786, -0.0915556326508522, -0.2512778341770172, -0.046095140278339386, 0.06467192620038986, -0.08766046166419983, 0.10687527060508728, 0.08457741141319275, -0.08709388226270676, 0.011156624183058739, -0.03775283694267273, -0.08572256565093994, -0.008812611922621727, -0.12469930946826935, -0.1340598464012146, -0.075139619410038, -0.26633304357528687, 0.39969146251678467, -0.2768223285675049, 0.20367909967899323, 0.11267170310020447, -0.5313148498535156, -0.06730396300554276, 0.035160936415195465, -0.13432063162326813, -0.15195338428020477, 0.07958570122718811, -0.16709724068641663, 0.18972912430763245, -0.12094589322805405, -0.18967996537685394, 0.1804933100938797, -0.04856056720018387, -0.1762903928756714, -0.029143203049898148, 0.18518471717834473, -0.08807329833507538, -0.09658374637365341, 0.06111390143632889, -0.18561820685863495, 0.08871036767959595, -0.04720866307616234, -0.09723418951034546, -0.0363469161093235, 0.01873238943517208, -0.04053736850619316, 0.15107198059558868, 0.08233287185430527, -0.24684354662895203, 0.24089550971984863, -0.06250909715890884, -0.19458967447280884, 0.36167559027671814, -0.2808692753314972, 0.010292411781847477, -0.2146035134792328, 0.17643436789512634, 0.0011782131623476744, -0.11454052478075027, 0.07857704162597656, -0.5290493369102478], [-0.12422642111778259, 0.051316212862730026, 0.05838946998119354, -0.09460315853357315, 0.03287503123283386, -0.22958028316497803, 0.1399882584810257, -0.37482747435569763, -0.12332718819379807, -0.1053365021944046, -0.021681329235434532, 0.042849212884902954, -0.0212310291826725, -0.008010963909327984, -0.06193217262625694, -0.08058404922485352, -0.021837955340743065, -0.13931243121623993, -0.043105512857437134, -0.016987647861242294, 0.00909851398319006, -0.11133776605129242, 0.1815672516822815, -0.3644043207168579, 0.18736335635185242, 0.30617108941078186, 0.05807632580399513, -0.08343331515789032, 0.0315309502184391, 0.08908495306968689, 0.09324546903371811, -0.20636866986751556, -0.13142740726470947, -0.016457557678222656, -0.10786403715610504, -0.03995053842663765, 0.1183248832821846, 0.07791781425476074, -0.060788318514823914, -0.07926604896783829, -0.11355235427618027, 0.13809779286384583, -0.026533257216215134, 0.07644573599100113, 0.02358865924179554, -0.12019524723291397, -0.17954890429973602, -0.1725357174873352, 0.061495132744312286, 0.17274503409862518, -0.33361220359802246, 0.22368846833705902, 0.05139600858092308, -0.1741347312927246, 0.3788035213947296, -0.07946301996707916, 0.13705570995807648, 0.03412164747714996, 0.11495214700698853, 0.022507335990667343, 0.2568553388118744, 0.046906184405088425, 0.19575440883636475, -0.2603667378425598, -0.368827760219574, -0.21126170456409454, -0.14553038775920868, -0.08673737943172455, 0.028187720105051994, -0.04571281373500824, 0.08020354807376862, -0.15513868629932404, 0.19011855125427246, -0.012701432220637798, -0.14231440424919128, -0.06123749911785126, -0.2182115912437439, -0.021236561238765717, 0.0007061669020913541, 0.15632924437522888, -0.01733211614191532, -0.10984567552804947, -0.12404634803533554, 0.06218850612640381, 0.015332183800637722, -0.16457615792751312, -0.2594383955001831, -0.3519635498523712, -0.009380831383168697, -0.05800193175673485, -0.2634396553039551, 0.2873663902282715, 0.14707671105861664, -0.5964400768280029, -0.19841964542865753], [-0.1126069724559784, 0.16776932775974274, -0.042056046426296234, -0.021386869251728058, 0.07952521741390228, 0.19576554000377655, -0.16032573580741882, -0.054886315017938614, -0.1230975091457367, -0.1323380172252655, 0.046155598014593124, -0.023209692910313606, 0.07926321029663086, 0.049737878143787384, 0.015137800015509129, -0.02503259666264057, -0.14897266030311584, 0.016272351145744324, -0.07548841834068298, 0.05621000751852989, 0.09863904863595963, 0.06117160990834236, 0.10579295456409454, 0.10323358327150345, -0.1271219253540039, 0.14894545078277588, -0.1168927550315857, 0.18254885077476501, -0.2536821961402893, -0.05311964452266693, -0.06362082809209824, 0.05331719294190407, 0.07229525595903397, -0.12284214794635773, -0.046324919909238815, 0.2158675640821457, 0.09558428078889847, 0.06925003975629807, 0.03658951073884964, -0.04891007021069527, -0.0029860236681997776, 0.08932004123926163, 0.12867014110088348, 0.14581483602523804, -0.00034717851667664945, -0.036002300679683685, 0.024386834353208542, -0.1307951956987381, -0.01658238284289837, -0.09070537984371185, 0.01459052786231041, 0.12741319835186005, -0.004885856527835131, 0.010520539246499538, -0.26615872979164124, -0.2055221050977707, -0.6445010304450989, 0.14320139586925507, 0.07540211081504822, -0.0896606296300888, 0.11122984439134598, 0.054521217942237854, -0.09227652847766876, -0.22175684571266174, 0.12164848297834396, 0.059090789407491684, 0.04327614605426788, 0.004552868660539389, -0.13526558876037598, -0.03267421945929527, -0.13614270091056824, 0.04349004849791527, 0.11220387369394302, 0.058790989220142365, 0.16937319934368134, 