{"model_type": "MarioMLP", "state_dict": {"net.0.weight": [[-0.24079398810863495, -4.656064510345459, 0.02579621970653534, 0.00200604647397995, 0.09627802670001984, -0.8715059161186218, 0.028744477778673172, -2.446681499481201, -2.4846818447113037, 0.1754506230354309, 3.5105628967285156, 0.6136233806610107, 0.09028155356645584, 0.01803937368094921, -0.06681820005178452, -0.19246427714824677, -0.30278921127319336, 3.5404348373413086, 0.76661217212677, 0.1331096589565277, 0.004022767301648855, -0.02711009420454502, -0.20178250968456268, -0.2675052285194397, -0.9554153680801392, 1.0474624633789062, -0.537769079208374, -1.1482276916503906, 0.14140579104423523, 0.14586620032787323, 0.1568634957075119, -0.6945271492004395, -0.13397017121315002, 0.27172139286994934, 0.15579281747341156, -0.23436686396598816, 0.2677975594997406, -0.08758421242237091, -0.1949750930070877, -0.22675210237503052, -0.2563990354537964, 0.3235463798046112, -0.1360272914171219, 0.03779289498925209, -0.053733114153146744, 0.04586733505129814, -0.5695919990539551, -0.016643255949020386, -0.11850345134735107, -0.5087984800338745, -0.4362117350101471, -0.009415177628397942, 0.8150296807289124, -2.02716064453125, -0.0136460205540061, -0.9345080852508545, -0.5765060782432556, 0.2652328908443451, 0.47950273752212524, -0.8016170859336853, 0.2232390195131302, -0.781187117099762, 0.1843123733997345, -0.47748976945877075, -0.37625157833099365, 0.20725373923778534, -0.710809588432312, -0.5574160814285278, 0.1825457662343979, -0.2588256895542145, -0.07984466105699539, -0.39384034276008606, -0.0021790042519569397, -0.14695346355438232, 0.4022565484046936, -0.3533683121204376, 0.06939008086919785, 0.23969319462776184, -0.2354685217142105, -1.1606645584106445, -0.1492009162902832, 0.555378794670105, 0.7050405144691467, -0.8482695817947388, -0.7453082799911499, 0.30759936571121216, -0.4061961770057678, 1.4549827575683594, -0.15025781095027924, 0.5292510986328125, 0.46509817242622375, -0.6214630603790283, -0.44529005885124207, -0.02950139343738556, -0.10054199397563934, 0.7470594644546509, -1.1176660060882568], [-3.5953094959259033, -0.6180367469787598, -0.08847207576036453, -0.08509498834609985, -0.08925885707139969, 0.14922672510147095, 0.36207351088523865, -0.9046673774719238, -0.644594669342041, 2.9691519737243652, 1.7447830438613892, 0.7535291314125061, -0.3843931257724762, -0.12359843403100967, 0.01614985056221485, 0.06357759237289429, 0.15734906494617462, 1.6831117868423462, 0.7957763075828552, -0.2428312599658966, -0.06112264469265938, 0.020567798987030983, 0.06948579847812653, 0.03261939063668251, 0.5359441041946411, 0.40062573552131653, 0.07802259922027588, 0.5979198217391968, -1.3357735872268677, -0.7527857422828674, 0.6010498404502869, -0.42026984691619873, -0.2470332384109497, 0.31518879532814026, 0.03277377411723137, 0.47083428502082825, -0.16283977031707764, -0.21024145185947418, -0.5194963812828064, 0.4871888756752014, -0.12053541094064713, 0.2015477865934372, 0.6354081034660339, 0.04417291656136513, -0.31981492042541504, -0.4298148453235626, 0.12118624150753021, 0.05969451367855072, -0.0322006493806839, 0.15523594617843628, -0.5663855671882629, -0.18163961172103882, 0.7734150886535645, -0.03755512088537216, -0.30236268043518066, 0.8940219283103943, -0.3419693410396576, -0.003104940988123417, -1.217953085899353, -0.36292922496795654, -0.5098912715911865, -0.9224959015846252, -0.2891519367694855, 0.9471074342727661, 1.440229892730713, -1.220217227935791, 0.2804741859436035, 0.00035082350950688124, 0.11325333267450333, -0.7428122162818909, 0.18824346363544464, -0.1582344025373459, 0.33944010734558105, 0.4021011292934418, 0.26711249351501465, 0.7046840190887451, 0.5296757221221924, 0.3978499472141266, -0.2168533205986023, -0.1194024458527565, -0.018448421731591225, -0.6707253456115723, -0.3915571868419647, 0.03652453422546387, -0.9054865837097168, 0.3516755700111389, -0.4309062063694, -0.09347213804721832, -0.6796423196792603, 2.094120979309082, 0.23002494871616364, 0.7583954334259033, 1.0961278676986694, 0.7595020532608032, -0.08891800045967102, -0.4853328466415405, 0.47949233651161194], [0.7787442803382874, -2.790679931640625, 0.09884718060493469, 0.012049295008182526, -0.11843941360712051, -0.044194042682647705, 1.5277243852615356, 1.8873822689056396, 2.079979419708252, 0.8542165160179138, 2.1580779552459717, 0.6352823972702026, 0.23806262016296387, 0.07527973502874374, -0.6561466455459595, -0.09144449234008789, -0.7822121381759644, 2.1711819171905518, 0.6460740566253662, 0.37653204798698425, -0.00662051048129797, -0.5637220144271851, -0.029950447380542755, -0.8133440017700195, -0.1623273342847824, -1.5024218559265137, 0.35882464051246643, -0.7619495391845703, 0.7569677829742432, 0.5737452507019043, 0.23549209535121918, 0.6085258722305298, 0.40140965580940247, 0.3162141442298889, 0.5502575635910034, -0.10020045936107635, 0.3791930079460144, -0.4451692998409271, 0.6386202573776245, 0.38730376958847046, 0.33070141077041626, 0.44896724820137024, 0.2260826975107193, -0.08801276236772537, -0.4296782612800598, -0.6333345770835876, -2.063847541809082, 0.2368917614221573, -1.198850393295288, 0.1638854444026947, -0.7393567562103271, 1.8406177759170532, -0.20614880323410034, 1.1216139793395996, 0.7843868136405945, 0.18271279335021973, -0.4384079873561859, -2.6534342765808105, 1.0874767303466797, 0.06739282608032227, -0.7524136304855347, 0.21512915194034576, 0.010623030364513397, 1.4635969400405884, -1.0834920406341553, -0.31385302543640137, -1.10209059715271, 0.9971345663070679, -0.08507229387760162, -0.1230444386601448, -0.0223944541066885, 0.25100675225257874, -0.7500808238983154, -0.7779422402381897, 0.1431005299091339, -0.8729531764984131, -1.9707980155944824, 0.22842220962047577, -2.0438480377197266, -0.46684178709983826, 1.2133708000183105, 0.2935839891433716, -0.3824729025363922, 0.7900233864784241, 0.04679721221327782, 0.7279832363128662, -0.5194907188415527, -2.7994461059570312, 3.158794403076172, -3.813481092453003, -0.024092016741633415, -1.9022190570831299, 1.5431376695632935, -1.0774900913238525, 0.26757121086120605, -0.9650692939758301, 0.7138346433639526], [0.1620882898569107, -0.8243706226348877, -0.028857998549938202, -0.020595155656337738, -0.16053181886672974, -1.8687992095947266, 2.102534532546997, 0.8674999475479126, -2.394289255142212, 0.2401699423789978, 1.496397852897644, -0.35658711194992065, -0.05967111140489578, -0.07040415704250336, -0.19227415323257446, 0.16786785423755646, -0.3914957642555237, 1.6000231504440308, -0.3599932789802551, -0.2083834558725357, -0.06556367129087448, -0.12137164920568466, 0.15420003235340118, -0.31476134061813354, 0.24123898148536682, -0.4679800271987915, -1.767801284790039, -0.4163329303264618, -0.10648757219314575, -0.042932990938425064, 1.096123218536377, -0.2880645990371704, 0.11144793033599854, 0.008828151039779186, -0.5196794271469116, 0.3255724310874939, -0.3461582064628601, 0.1469326913356781, -0.634716808795929, -0.19431740045547485, 0.2158973217010498, -0.08456756174564362, -0.42715218663215637, 0.1973041296005249, -1.1200140714645386, -0.3066426217556, -0.06126789748668671, 0.5270084738731384, -0.08577125519514084, -0.3943471610546112, -0.8657991886138916, 0.9058118462562561, 0.04636681452393532, -1.278915286064148, -0.6501452922821045, 0.5438005924224854, -0.7766323089599609, -1.2876482009887695, -2.150397300720215, 0.34628725051879883, -0.16242124140262604, -0.8754521608352661, 0.7800911068916321, -0.7993616461753845, 1.026226282119751, 1.0825551748275757, 0.7030546069145203, -0.9936971068382263, 1.1077513694763184, -0.43127697706222534, 1.005974531173706, -1.2349135875701904, 1.212282657623291, 0.022106900811195374, 0.6491740345954895, 1.0299675464630127, 0.05138031765818596, -0.6778507232666016, -0.03816938027739525, 0.10734064131975174, 0.2563609778881073, -0.30404749512672424, 0.6160600781440735, -0.4929219186306, -0.5964002013206482, 0.06801625341176987, 0.2721616327762604, 3.0579869747161865, -2.9161763191223145, 1.1025868654251099, -1.696981430053711, 1.5011934041976929, -0.12941806018352509, -0.16167078912258148, -0.25141116976737976, 1.5861256122589111, -0.6614372730255127], [-3.462390184402466, -0.5837656259536743, 0.01199544221162796, 0.026185885071754456, 0.4113928973674774, 1.2729475498199463, 0.11735685169696808, -0.7538503408432007, 2.367366313934326, -3.0543036460876465, 2.0948915481567383, 0.8069215416908264, -0.19278962910175323, -0.10289780050516129, -0.19682908058166504, -0.07454361766576767, -0.4802353084087372, 2.0083680152893066, 0.7762427926063538, -0.3359803855419159, -0.15407831966876984, -0.21744617819786072, 0.05206739902496338, -0.36121007800102234, -1.5039217472076416, -1.052672266960144, 0.2968072295188904, -1.4963264465332031, -1.0147624015808105, 0.05346716567873955, -0.16102997958660126, -0.06081990525126457, 0.1419474184513092, -0.028645947575569153, 0.2925172448158264, 0.558487057685852, 0.23254874348640442, 0.5319434404373169, 0.04975247383117676, -0.2077467441558838, -0.3412659466266632, 0.397239625453949, 0.7403428554534912, -0.08897228538990021, 0.48256465792655945, -0.6167169809341431, -0.3829036056995392, -0.19516190886497498, -0.626287579536438, -0.12404701858758926, -0.44336843490600586, 0.18048477172851562, 2.1777706146240234, -0.2657129466533661, 1.1343607902526855, -1.1317392587661743, -0.2243143618106842, -0.5723273754119873, -0.4579176604747772, -0.9563356637954712, -1.3327730894088745, -0.7674619555473328, -1.5193097591400146, 1.0580101013183594, -1.6787017583847046, 0.10308456420898438, -0.9547325372695923, -0.06677965819835663, 0.09808376431465149, 0.17177708446979523, -2.1459238529205322, 0.2236270308494568, -0.14583484828472137, -0.10775043070316315, 0.4558962881565094, -0.06644284725189209, -0.12181427329778671, -0.2142764776945114, -0.5048895478248596, -0.10788477957248688, -0.7088526487350464, -0.1572965830564499, 0.9113020896911621, 0.5486088395118713, 0.2642848789691925, 0.5519932508468628, -0.002342353807762265, -2.360734701156616, 0.8469091057777405, -0.4799251854419708, -0.5658971667289734, 0.3360847234725952, 0.7180923223495483, -1.449574589729309, 0.519743800163269, -0.3923238515853882, -0.09519284963607788], [0.6839665174484253, -2.388721466064453, -0.00404183566570282, -0.09888046979904175, -0.5309879779815674, -0.7236918807029724, -1.2227742671966553, -2.17834734916687, 0.9769833087921143, -0.05122600123286247, 3.39627742767334, 0.5378773808479309, -0.24708400666713715, -0.07840897142887115, -0.03784211724996567, -0.3427259624004364, -0.03226020559668541, 3.4203619956970215, 0.5441777110099792, -0.19720400869846344, -0.016835134476423264, -0.07103165984153748, -0.2712947130203247, -0.1603575497865677, -0.05010445415973663, 0.009344951249659061, -0.8016176223754883, 0.14911052584648132, 0.6649169921875, 0.36941567063331604, -0.7982073426246643, -0.6484979391098022, 0.44465550780296326, 0.17902541160583496, 0.26643791794776917, -0.37726449966430664, 0.31652727723121643, -0.48938554525375366, -0.3169522285461426, -0.1609472930431366, 0.14308342337608337, -0.17401891946792603, -0.33641713857650757, 0.10662402212619781, 0.1930655688047409, -0.2372579574584961, -0.2760184705257416, 0.057568684220314026, -0.4522693455219269, 0.10944198817014694, -0.2953161895275116, 0.129134401679039, 0.8549301028251648, -1.3500707149505615, 0.6403288245201111, -0.23309709131717682, -0.5986732244491577, 0.24054092168807983, -0.4490531384944916, -0.4359320402145386, 0.2792150676250458, -0.41232308745384216, -1.073560357093811, -0.5884271264076233, -0.19736431539058685, -0.2763456106185913, 0.15146560966968536, -0.08786167204380035, -0.5615077018737793, 0.48935556411743164, -0.6138476133346558, 0.07309470325708389, -0.7475749254226685, -0.9184607863426208, 0.2302672564983368, -0.46158352494239807, 0.27759814262390137, 0.6111337542533875, -0.35460010170936584, -0.01643097959458828, 0.09403841197490692, 0.5466768145561218, 0.038232214748859406, 0.37421533465385437, -0.42346811294555664, 0.44811397790908813, -0.24541425704956055, -0.12415899336338043, 0.04910627380013466, 0.28674009442329407, 0.721889853477478, -1.4265334606170654, 0.008728493005037308, 0.2523896098136902, -0.4975171983242035, -0.3140260577201843, -0.01997785083949566], [-0.9327816367149353, -1.3673021793365479, 0.07953713834285736, 0.00641380250453949, -0.38028228282928467, -0.10203702002763748, 2.0771141052246094, -0.6573145389556885, -0.8292684555053711, -0.10503371059894562, 3.209465742111206, 0.08461733907461166, 0.0929122045636177, 0.4528532326221466, -0.2792077660560608, -0.1179981529712677, -0.21895846724510193, 3.0921761989593506, 0.11017893999814987, -0.05992116779088974, 0.3873310387134552, -0.3028322458267212, -0.17098738253116608, -0.2867152690887451, -1.2897595167160034, -0.8056201934814453, 0.45809417963027954, -2.254972219467163, 1.2747540473937988, 1.7568303346633911, -0.41784724593162537, -0.6565556526184082, -0.1272953599691391, 0.10467476397752762, 0.5138624310493469, -0.551535964012146, -0.1757565438747406, -0.03583622723817825, 0.028432877734303474, -0.11276447027921677, -0.4729255437850952, -0.2880924642086029, -0.2935349941253662, -0.30266323685646057, -0.24251851439476013, 0.13743504881858826, -0.4710617959499359, -0.812731146812439, 0.01911783218383789, -0.4418465793132782, -0.7705687284469604, -0.004453723318874836, -0.04887539893388748, 2.4023916721343994, -0.4321047365665436, 0.9519837498664856, -0.42793264985084534, -1.0076286792755127, 1.0043516159057617, -0.6222179532051086, 0.15056350827217102, -0.1807882934808731, 1.418986201286316, 0.7061376571655273, 0.4929916262626648, 0.6692623496055603, 0.3493562638759613, -0.7550243735313416, 0.4212532341480255, -1.9839037656784058, -1.3037936687469482, 0.7981166243553162, -0.8534444570541382, -0.37587234377861023, -0.11202851682901382, 0.3455902934074402, -0.7235329151153564, -0.5832595825195312, -0.25807449221611023, 0.09163964539766312, 0.013277092948555946, 0.08150222152471542, -0.8188303112983704, 1.2756569385528564, 0.2985634505748749, 0.6015396118164062, -0.33897608518600464, -2.3642704486846924, 1.725361704826355, -2.8123340606689453, 1.9903119802474976, -3.2255797386169434, 0.7620061635971069, -0.28249093890190125, -1.0001347064971924, -1.1463545560836792, 1.3708655834197998], [-1.7386541366577148, -2.557288408279419, -0.027241744101047516, 0.06997650861740112, 0.06333368271589279, 0.8409655690193176, 0.08421202749013901, 0.03827730193734169, 0.1963658630847931, -4.259071350097656, 2.1512527465820312, 1.1681607961654663, -0.06343508511781693, -0.19308233261108398, 0.3832821249961853, -0.13472773134708405, 0.27079910039901733, 2.2202060222625732, 1.1376551389694214, -0.10016783326864243, -0.1807183027267456, 0.38763540983200073, -0.12620548903942108, 0.1795930117368698, 0.11408010870218277, -1.4895696640014648, 0.1857338696718216, 0.38248467445373535, -0.509258508682251, 1.094056248664856, 0.37519964575767517, 0.35873061418533325, -0.37104466557502747, -0.1470962017774582, -0.21928571164608002, -0.15646809339523315, -0.3030451536178589, -0.45702052116394043, 0.21946102380752563, -0.2486635148525238, -0.44021666049957275, -0.25603121519088745, -0.7469626069068909, -0.09221091121435165, -0.028634442016482353, 0.37885308265686035, 0.0670745000243187, -0.32926011085510254, 1.2509807348251343, 0.21024490892887115, 0.6894410848617554, -0.47084739804267883, -0.4742323160171509, 0.06163443252444267, 0.746591329574585, -0.870884120464325, 0.22494445741176605, 0.11079077422618866, -0.6306033730506897, 0.2661701738834381, -1.4396934509277344, 0.0388970822095871, -1.4709020853042603, -1.3935558795928955, 0.3725796043872833, -0.788938045501709, 0.4170502722263336, 0.6180853247642517, -0.8464007377624512, -1.1793245077133179, -0.9579066038131714, 0.7878699898719788, 0.039525534957647324, 0.9637945294380188, 0.22906123101711273, -0.5892971754074097, 1.1096572875976562, 0.7618041634559631, -0.03581544756889343, 0.7265411019325256, 0.6366690993309021, -1.0279721021652222, 0.10393092036247253, -0.14472471177577972, -0.34295958280563354, 0.41265687346458435, -0.5394666194915771, 1.0912690162658691, -0.09811002761125565, 1.5208327770233154, -1.5592753887176514, 0.5033055543899536, -0.2663421332836151, 1.1797361373901367, -1.290881872177124, 1.081122875213623, 0.37650778889656067], [-1.7571913003921509, -0.6519435048103333, 0.09237843751907349, 0.0007635354995727539, -0.6469327211380005, 1.9182075262069702, -0.20328545570373535, 0.10042957216501236, -0.6693909764289856, 0.3884888291358948, 3.07114577293396, -0.28707846999168396, -0.21558642387390137, 0.6216545104980469, -0.33606138825416565, -0.11717237532138824, -0.272335946559906, 3.1365907192230225, -0.3738878071308136, -0.043472204357385635, 0.7804561257362366, -0.38945695757865906, -0.23054032027721405, -0.1963987499475479, -0.5937797427177429, -0.2238437384366989, 0.551426112651825, -0.5680378079414368, 0.6777125000953674, -0.24874629080295563, 0.049119528383016586, 0.9311083555221558, 0.18794694542884827, 0.2281208336353302, 0.17806768417358398, 0.43616554141044617, 0.33440619707107544, 0.020920364186167717, 0.4977951943874359, 0.1935836225748062, 0.3361285626888275, 0.06790712475776672, 0.332326740026474, 0.17701755464076996, -0.08650706708431244, 0.07103157788515091, 0.026083562523126602, -0.356619656085968, -1.2896168231964111, -0.21069130301475525, -0.48317572474479675, 0.2878761887550354, -0.561011016368866, -0.8276466131210327, -0.2500208914279938, -0.152911975979805, -0.19581690430641174, -0.22300362586975098, -0.12617209553718567, 0.5894492864608765, -0.20927241444587708, 0.1389382928609848, 0.4258860945701599, -0.3792647123336792, -0.346730500459671, 0.6169586777687073, -0.22699078917503357, 0.07749830186367035, 0.08863268792629242, -0.9042938947677612, -0.32283058762550354, 0.0764327198266983, -0.25705376267433167, -0.4542858898639679, -0.009952010586857796, -0.2345426082611084, -0.4887250065803528, 0.3549937903881073, -0.0972849428653717, 0.602660596370697, -0.5104930996894836, 0.36911264061927795, -0.29323118925094604, 0.29454508423805237, -0.19309794902801514, 0.6401285529136658, -0.3091733455657959, -0.33683139085769653, 0.836747944355011, 0.32665544748306274, -0.9964005947113037, 0.8034021854400635, 1.6736037731170654, 1.436724066734314, -1.6920132637023926, -0.6438011527061462, 1.7514190673828125], [-0.26577210426330566, -1.8127771615982056, -0.05658752843737602, 0.03516460955142975, -0.34225037693977356, -1.429128646850586, 0.02536778710782528, 2.4681286811828613, 2.4787042140960693, 1.6822748184204102, 1.415974736213684, 1.3142294883728027, -0.45593732595443726, -0.21275804936885834, -0.36838260293006897, 0.012097821570932865, -0.784988522529602, 1.3245142698287964, 1.295332908630371, -0.4725353419780731, -0.208437979221344, -0.3590467870235443, 0.12255238741636276, -0.7699916362762451, -0.013759574852883816, 1.6800813674926758, -1.3789442777633667, 0.8389182090759277, -0.4941292107105255, -0.41600045561790466, -0.7058058381080627, 0.6341160535812378, -0.4566870927810669, 0.9889374375343323, -0.4059087336063385, 0.31199851632118225, 0.5037840008735657, 1.3056769371032715, 1.2679178714752197, -0.6336439251899719, 0.03167649358510971, 1.0895957946777344, 0.31277167797088623, -0.2579915523529053, 0.32657137513160706, 0.12765920162200928, -0.37003418803215027, 0.48407790064811707, -0.4326094686985016, -0.1040215939283371, -0.6738693118095398, -0.7926270365715027, -0.2963753044605255, -0.310952752828598, -0.5371649265289307, 0.8543316721916199, -1.2484794855117798, 1.419124960899353, 0.7921569347381592, 0.5398843288421631, 0.35263821482658386, 0.7268089056015015, -1.407589077949524, -0.22147615253925323, -0.09834033250808716, 0.21090476214885712, 0.5771156549453735, -0.8632343411445618, 0.17674289643764496, -2.0932209491729736, 0.8704175353050232, -0.32798945903778076, 0.13083972036838531, 0.3015998899936676, -0.7403804659843445, 0.8287842273712158, 0.5769180059432983, 0.33834972977638245, 0.02386043220758438, 0.8380897045135498, 0.6574550271034241, -1.2143824100494385, -0.10951314121484756, 0.11841089278459549, 1.360042691230774, -0.6444334387779236, -0.16727343201637268, -2.514864206314087, 2.2837703227996826, -0.6171735525131226, -2.049373149871826, -0.38159382343292236, -0.3199729025363922, -0.21825072169303894, -0.11790655553340912, 0.7235668301582336, 0.10729584097862244], [-2.4337456226348877, -1.0800693035125732, -0.011658474802970886, -0.04034250229597092, 0.17718887329101562, 3.0112946033477783, -1.489499807357788, 1.3213790655136108, -0.8723635077476501, -2.141406536102295, 0.45316281914711, -0.2576885521411896, -0.13346914947032928, -0.06455716490745544, 0.08464301377534866, 0.49639561772346497, 0.22920775413513184, 0.5206803679466248, -0.21634773910045624, -0.12643566727638245, -0.062178537249565125, 0.22140532732009888, 0.521289050579071, 0.21894489228725433, -0.2053665965795517, 1.1480971574783325, -0.9782033562660217, -0.7488450407981873, -0.9494409561157227, 0.500251293182373, 0.2509644329547882, 0.3077901005744934, -0.12368667870759964, 0.3937758505344391, -0.2814026474952698, 0.4812524914741516, 0.8606951236724854, 0.2637898027896881, -0.03532639890909195, -0.39494746923446655, 0.5676957964897156, 0.11185711622238159, 0.05339670181274414, 0.9740794897079468, 0.2787162661552429, -0.08278454095125198, 0.008223390206694603, 0.2018474042415619, 0.711158037185669, 0.6182008981704712, -0.26731395721435547, 0.13225489854812622, 1.1281894445419312, -0.5807026028633118, -0.37522488832473755, -1.6516509056091309, -2.349529981613159, -1.376499056816101, 0.185789093375206, -0.633618950843811, -0.014908206649124622, -1.2922884225845337, 0.1505211591720581, -0.9559299945831299, -1.5330448150634766, -0.13911312818527222, -0.32984471321105957, -0.45407286286354065, 0.7532034516334534, -0.14496852457523346, -0.8756746053695679, -0.7333618998527527, -0.5837308764457703, 0.17998221516609192, 0.10380076617002487, 0.7031533718109131, 1.2765135765075684, 0.275713711977005, 0.8589203357696533, 0.4738522469997406, 0.37490853667259216, -0.6696364879608154, 0.7525205612182617, 0.01816393993794918, -0.09630019962787628, -0.3302418291568756, -0.34566038846969604, 1.135254979133606, -2.8791182041168213, 3.0043106079101562, -2.2036237716674805, 2.3195269107818604, -0.8335566520690918, -0.9402351975440979, -0.021679041907191277, -0.5997499823570251, -1.0920087099075317], [0.45755866169929504, -2.3809661865234375, -0.08908310532569885, -0.0985301211476326, -0.044061873108148575, -0.03344225138425827, 0.6767297983169556, 0.5128686428070068, -0.5107510089874268, 1.2709046602249146, 3.48504638671875, 0.3801226317882538, 0.014250136911869049, 0.02035212144255638, -0.012442893348634243, -0.10598906129598618, 0.010149906389415264, 3.4398751258850098, 0.41344496607780457, 0.091066874563694, -0.13655060529708862, 0.022539222612977028, -0.16211524605751038, -0.1268456131219864, -0.04594254121184349, 0.11433306336402893, -1.116857886314392, 0.18908025324344635, 0.42813071608543396, -0.299703449010849, -0.07487478107213974, -0.11601042747497559, -0.09541738778352737, 0.1591503918170929, 0.2451203465461731, 0.12754887342453003, 0.2643713057041168, -0.49877026677131653, 0.15001307427883148, -0.35283413529396057, 0.0743628665804863, 0.15929673612117767, -0.40377479791641235, -0.12562492489814758, -0.22508607804775238, 0.2850480377674103, -0.15361644327640533, 0.4649212062358856, -0.2540871500968933, -0.027801666408777237, 0.31690678000450134, -0.1465100198984146, 0.7294175624847412, -1.0731422901153564, 0.500270664691925, -0.21009501814842224, -0.13410571217536926, 0.11540030688047409, -0.43887782096862793, -0.3170693814754486, 0.12431392073631287, -0.7450634241104126, -0.26012465357780457, -0.23728683590888977, 0.020895903930068016, 0.358466774225235, 0.10074111074209213, -0.2808532118797302, -0.5214170813560486, -0.24828121066093445, 0.29686540365219116, 0.29055356979370117, -0.033595018088817596, 0.2826135754585266, 0.356157124042511, 0.28009113669395447, 0.36497074365615845, -0.19477540254592896, -0.240164652466774, -0.005899898707866669, 0.2569853663444519, 0.25673341751098633, 0.07173711061477661, -0.5139287710189819, -0.35948070883750916, -0.15781237185001373, -0.5846946239471436, 0.923421323299408, -0.2963213324546814, 1.5761570930480957, -1.0738810300827026, 0.6239833831787109, -0.42197632789611816, 0.4437825381755829, -0.06150808557868004, 0.03335433080792427, -0.49974581599235535], [-0.2188406139612198, -2.4341015815734863, 0.005845516920089722, 0.0661611258983612, 0.40038198232650757, 0.3335331082344055, 0.4421549439430237, 5.546862602233887, 0.5818595290184021, -1.9439647197723389, 2.2738735675811768, -0.5627425312995911, -0.1062704473733902, -0.371425598859787, -0.581834614276886, -0.49179166555404663, -0.39237043261528015, 2.178018569946289, -0.4788055419921875, -0.07284723222255707, -0.3965485990047455, -0.5771625638008118, -0.5727117657661438, -0.5538949966430664, -0.6900935173034668, 1.500340461730957, -0.6265367865562439, 0.976781964302063, -0.03305398300290108, -0.7649266123771667, 0.1556689292192459, 0.9812294840812683, -0.3016044497489929, -0.0804673582315445, 0.3966894745826721, 0.3933762013912201, -0.18789885938167572, -0.13745130598545074, 0.7281469702720642, -0.05772481858730316, -0.2561646103858948, 0.6330344080924988, 0.4898037314414978, -0.3362337350845337, 0.07764926552772522, 0.5702254176139832, 0.7255527377128601, -1.0049099922180176, 0.3630398213863373, 0.28576549887657166, 0.17116139829158783, -0.5375072956085205, -1.9196065664291382, 0.09774386882781982, -1.6438572406768799, 1.456350564956665, -0.6044173240661621, -0.12645871937274933, -0.6732003092765808, 1.8348265886306763, -0.5825611352920532, 1.0352888107299805, -1.0643424987792969, -0.4115404486656189, 0.31405550241470337, -0.06827215105295181, -0.8592005372047424, 0.16433623433113098, 0.7090280055999756, -1.34494948387146, 0.222823828458786, -0.9172572493553162, 0.20771574974060059, 1.3963968753814697, -0.2719041407108307, 0.27344855666160583, -0.215645894408226, 0.38015875220298767, 0.206850066781044, -0.3376289904117584, 0.2816532254219055, -0.2790837585926056, 1.1099143028259277, 0.31666189432144165, 0.7746565937995911, 0.4476451873779297, 0.7350022792816162, -1.9408786296844482, 2.401005268096924, -1.1569980382919312, -1.2131352424621582, -2.314932346343994, 1.5507137775421143, -0.11147385835647583, 0.22914227843284607, -0.4630928337574005, 0.2962929904460907], [-0.624469518661499, -3.1499180793762207, -0.06255915760993958, -0.046168480068445206, -0.8814710974693298, 0.2377585470676422, -0.8770629167556763, -0.41661104559898376, -1.6488491296768188, 2.8039121627807617, 3.732621431350708, 0.43026378750801086, 0.28971338272094727, 0.1027909368276596, -0.23165613412857056, -0.08894731849431992, -0.3304714262485504, 3.7245209217071533, 0.5305553674697876, 0.31026291847229004, 0.1724797636270523, -0.1071661189198494, -0.06358803063631058, -0.432244211435318, 0.07627072185277939, -0.26779475808143616, -1.0784406661987305, 0.23739686608314514, -0.9966545104980469, -0.14736679196357727, -0.5796629786491394, 0.47022745013237, 0.3896985948085785, -0.40965741872787476, 0.8616517186164856, -0.02135908044874668, 0.5054650902748108, -0.015864068642258644, 0.4262082576751709, 0.11193646490573883, -0.23197759687900543, 0.43755680322647095, 0.20925472676753998, 0.5148584246635437, 0.22334285080432892, -0.22639648616313934, 0.15622387826442719, -0.2827024459838867, -0.08377457410097122, -0.7963815331459045, -0.5108128190040588, 0.07869201898574829, 0.8569993376731873, -0.08404398709535599, 0.40619632601737976, 0.53078693151474, -0.7216737866401672, -1.5225293636322021, 0.8838378190994263, -1.0652107000350952, -0.49389296770095825, -0.07766459137201309, -0.2844443619251251, -0.6548152565956116, -0.3175814747810364, 0.8500505089759827, 0.04675925150513649, 0.30818888545036316, -0.5591731667518616, -1.7732568979263306, 0.2794591188430786, 0.10398255288600922, 0.021062089130282402, -0.26312583684921265, 0.29248499870300293, -0.41712069511413574, 0.17904621362686157, 1.2829339504241943, 0.37436801195144653, -0.23926661908626556, 0.37102434039115906, -0.5100927948951721, -0.43349483609199524, -0.293614000082016, -0.10754147917032242, -0.2488429993391037, -0.3870689272880554, 0.12250710278749466, -0.8909317255020142, 0.75834059715271, -3.225393295288086, 2.540006160736084, -0.25564807653427124, 0.4546549618244171, -1.6977897882461548, 1.0292599201202393, -0.040747519582509995], [1.7269936800003052, -1.0378806591033936, 0.08916883170604706, -0.06862205266952515, -0.6383320689201355, -0.5863567590713501, 0.2053564041852951, -0.6270763874053955, -1.2352395057678223, 2.1726486682891846, 3.5605177879333496, 0.6012763977050781, -0.02013375237584114, 0.37897512316703796, -0.12581589818000793, -0.01636362448334694, -0.3719938099384308, 3.586737632751465, 0.4910140931606293, 0.09972942620515823, 0.3065885901451111, -0.14536167681217194, -0.14496606588363647, -0.24307851493358612, 0.4847295582294464, -0.9735690355300903, 0.4466383457183838, -0.48668861389160156, 0.7370667457580566, 0.5178071856498718, 0.19389067590236664, -0.4485348165035248, 0.29028749465942383, -0.5742599964141846, 0.17227864265441895, -0.12330138683319092, -0.430041640996933, -0.6854897737503052, -0.7270688414573669, 0.23746640980243683, -0.5722165703773499, -0.1629534810781479, -0.4823077619075775, -0.09536045044660568, -0.4736526608467102, -0.28596964478492737, 0.23002588748931885, -0.407715767621994, -0.0380244255065918, -0.2986557185649872, -0.002090245485305786, -0.8473339080810547, 0.8288078308105469, 0.5562008619308472, 2.2563209533691406, 1.29836106300354, -0.47886136174201965, 1.0142436027526855, 1.0345094203948975, -0.0895172655582428, -1.0692695379257202, -0.3484176695346832, -0.5456919074058533, -0.7812356948852539, -1.1616111993789673, -0.4222857654094696, 0.12469826638698578, -0.41256290674209595, -0.6490245461463928, 0.040814124047756195, 0.6171712279319763, -1.499616265296936, 0.34479081630706787, 0.21527624130249023, 0.19100894033908844, 0.7263227701187134, 0.34233397245407104, 0.43827739357948303, 0.13854211568832397, -0.012858791276812553, 0.27040499448776245, 0.4268608093261719, -0.45974141359329224, -0.39671358466148376, -0.08951389789581299, 0.5935991406440735, -1.2268173694610596, -1.3307528495788574, 0.20551829040050507, -0.802858829498291, 0.9678359627723694, -3.9030115604400635, 0.43044313788414, -0.6013141870498657, -0.39672791957855225, -0.3092300295829773, 0.7205930948257446], [-1.1955734491348267, -3.901252508163452, 0.09408442676067352, -0.04953613877296448, 0.45220842957496643, 0.04080575704574585, -1.2342948913574219, -0.029695753008127213, -0.4167023003101349, 0.38174185156822205, 5.787128925323486, 1.4553110599517822, 0.3172531723976135, 0.0577358603477478, 0.41860026121139526, 0.32294100522994995, 0.26080045104026794, 5.747499942779541, 1.4609062671661377, 0.3022279739379883, 0.11490125209093094, 0.37806665897369385, 0.29162800312042236, 0.20324932038784027, 0.3937453329563141, -0.4088786542415619, -0.9071089625358582, -0.3471408784389496, -0.4777253568172455, 0.3199372887611389, -0.8661445379257202, 0.08492115139961243, 0.19804957509040833, 0.4358503520488739, 0.5626436471939087, -0.45438531041145325, -0.008511742576956749, 0.2326478660106659, 0.1349429041147232, 0.29079902172088623, 0.04213745519518852, -0.04977802932262421, 0.469689279794693, -0.437101811170578, -0.10624322295188904, 0.18648335337638855, 0.46637439727783203, -0.5773129463195801, 0.08628390729427338, 0.19050487875938416, -0.10475081950426102, -0.02594582736492157, -0.06189434230327606, -0.2666035592556, -1.4512020349502563, -0.4161035120487213, -1.396618127822876, -0.09033708274364471, -0.3726609945297241, 0.22057482600212097, -0.4434155821800232, -0.6768205165863037, -0.16551616787910461, -0.28141647577285767, -0.1413811594247818, -0.7705495953559875, 0.0077068861573934555, 0.15197353065013885, 0.44420814514160156, -0.26399892568588257, 0.2768220007419586, 0.10306493937969208, 0.016823992133140564, 0.11816923320293427, 0.11656076461076736, 0.676031231880188, 0.49534955620765686, 0.617538571357727, 0.16375227272510529, 0.36512792110443115, -1.0754693746566772, -0.43633243441581726, -0.11768926680088043, -1.155752182006836, -0.32650619745254517, -0.6217494010925293, -0.6687552332878113, 2.1013476848602295, 0.2130216658115387, 1.9434223175048828, -1.4656293392181396, 0.9501999020576477, 0.35035231709480286, 0.9828712940216064, 0.2511984705924988, 0.2637191712856293, -0.1854744404554367], [-0.5502191185951233, -0.1242702305316925, -0.04645667225122452, 0.03545209765434265, -0.5362312197685242, 3.4202470779418945, -1.5452501773834229, -3.320103406906128, -1.1398298740386963, 0.2247966080904007, 1.205632209777832, 0.3118214011192322, -0.14045673608779907, -0.2991839349269867, -0.014693908393383026, 0.08007239550352097, -0.5455297231674194, 1.2018766403198242, 0.2801441550254822, -0.056657612323760986, -0.24609723687171936, -0.1946311891078949, 0.1711743026971817, -0.5481037497520447, -0.3147956132888794, 1.1850452423095703, -1.894940733909607, -0.2171570360660553, -0.41022247076034546, 1.0484895706176758, 1.2602063417434692, -0.8939980864524841, -0.07375916838645935, 0.29696232080459595, 0.40208449959754944, 0.6104596257209778, -0.6115741729736328, 0.837906002998352, -0.24607543647289276, 0.1823965162038803, -0.3071068227291107, 1.247907042503357, 0.5092211961746216, -0.5384970903396606, 0.2099231630563736, 0.18873895704746246, -0.40373411774635315, 0.15697415173053741, 0.0597265250980854, 0.28335702419281006, -0.13763749599456787, -0.5003785490989685, -2.3265092372894287, -0.8056402802467346, 0.05698908865451813, -1.6878612041473389, -1.645900011062622, 0.5339500308036804, -2.6755619049072266, 0.32260745763778687, -1.2946594953536987, -0.35389444231987, 1.1813263893127441, -0.4533737003803253, -0.010489823296666145, -0.282561719417572, 0.06095512583851814, -0.3708895444869995, 0.38395917415618896, -1.493287444114685, 0.3456916809082031, -0.41024813055992126, -0.3562789857387543, 0.9590649008750916, -0.4939129650592804, 0.41593673825263977, -0.12839053571224213, -1.3223694562911987, 1.0227924585342407, 0.32373324036598206, 1.8139995336532593, -0.33312174677848816, 0.043673764914274216, -0.1573505401611328, -0.023842990398406982, -0.5603035092353821, 0.5376647710800171, 2.4955153465270996, -0.9952648282051086, 0.6215581893920898, 1.1004952192306519, 1.6426085233688354, -0.8871973752975464, 0.557519257068634, 0.11862994730472565, 1.0272281169891357, -0.7196761965751648], [-1.5186320543289185, -2.5343525409698486, 0.013876736164093018, 0.03359849750995636, -0.6403651833534241, 1.0386801958084106, 0.1297086477279663, 0.9448425769805908, -0.5627727508544922, 0.17552468180656433, 1.6138594150543213, 0.5506018400192261, 0.2796323895454407, -0.0743570402264595, 0.07479855418205261, 0.04401131346821785, 0.31141215562820435, 1.4929909706115723, 0.5403146743774414, 0.13411059975624084, 0.008394550532102585, 0.11278630793094635, 0.16213342547416687, 0.3171086609363556, 0.20817898213863373, 0.2285872846841812, -0.1547306329011917, -0.13780425488948822, -0.10095038264989853, 0.08884056657552719, 0.5464730858802795, 0.005328787490725517, -0.09409536421298981, -0.13464313745498657, 0.6267058253288269, -0.36051398515701294, 0.16313420236110687, 0.12008596956729889, 0.5420500040054321, 0.009769471362233162, -0.3772636950016022, 0.1868887096643448, 0.0012024468742311, -0.0022073357831686735, -0.7473005652427673, 0.6890480518341064, 0.0023751556873321533, -0.09540065377950668, -0.40099847316741943, 0.21526850759983063, -0.18766067922115326, 0.019457213580608368, 0.09192477911710739, -0.059974752366542816, -0.48812705278396606, -0.4191027283668518, 0.5087305903434753, -0.053248558193445206, 0.010112682357430458, -0.2708277106285095, 0.5813322067260742, 0.22274468839168549, 0.24849382042884827, 0.09236230701208115, -0.3668835461139679, 0.7943152189254761, 0.3698858916759491, -0.1597159057855606, -0.4971960484981537, -0.2228066325187683, -0.2790772616863251, 0.29937246441841125, -0.25609174370765686, 0.36878499388694763, -0.1981419324874878, 0.3305032551288605, 0.5011379718780518, 0.2126350849866867, -0.3513548672199249, 0.047342754900455475, 0.0015893385279923677, -0.558286726474762, 0.24006083607673645, -0.32321566343307495, -0.0702228993177414, -0.04463840276002884, -0.1452338695526123, -0.09210705012083054, 0.6758446097373962, -0.28886741399765015, 1.0616213083267212, -0.6544684171676636, 0.5790045857429504, 0.29325464367866516, -0.6049523949623108, -0.572934091091156, -0.07685522735118866], [-3.146695852279663, -1.6754814386367798, -0.069779172539711, 0.012493409216403961, -0.7586910724639893, 1.8611704111099243, 0.6595430970191956, -0.6134389042854309, -1.9516979455947876, 1.2264243364334106, 2.6193301677703857, 0.322614848613739, 0.34758633375167847, 0.026411427184939384, 0.24223600327968597, 0.08804623782634735, 0.13236598670482635, 2.666637420654297, 0.2955731749534607, 0.37682729959487915, -0.08296608179807663, 0.1314190924167633, 0.281640887260437, 0.07253704220056534, 0.4766651690006256, 0.2900714874267578, 0.43267571926116943, 0.07244426757097244, 0.18076705932617188, -0.08367432653903961, -0.8772158622741699, 0.28081637620925903, 0.19742077589035034, -0.16936227679252625, -0.4943450689315796, -0.34828948974609375, -0.02194272167980671, -0.3149646520614624, 0.2875641882419586, 0.04627854377031326, -0.30376169085502625, -0.7165868878364563, -0.2920006215572357, 0.12561161816120148, -0.19508570432662964, 0.2814497947692871, 0.05765461549162865, -0.3236998915672302, -0.19920940697193146, 0.2753170132637024, 0.12701547145843506, -0.6330082416534424, 0.681520402431488, 0.6906620264053345, -1.6538081169128418, 1.2559510469436646, -1.927939534187317, -0.7275024652481079, 0.41409555077552795, 0.09361239522695541, 0.1971253901720047, 0.22769512236118317, 0.5810132026672363, -0.13150399923324585, 1.0297296047210693, 0.8384479284286499, -0.4666915237903595, 0.05297248810529709, -0.18658192455768585, -0.20090429484844208, -0.58570796251297, 0.17261362075805664, -0.34451982378959656, 0.5383977293968201, 0.24941009283065796, 0.09741943329572678, 0.9526770114898682, -0.49852365255355835, -0.3062386214733124, -0.007220302242785692, -1.0018261671066284, -0.6430074572563171, -0.23074452579021454, -1.2788804769515991, 0.5034047365188599, 0.06185344234108925, -1.4402861595153809, -1.217646837234497, 0.7960630655288696, 0.19678328931331635, 2.4955272674560547, 0.9548106789588928, 0.3516969382762909, -0.7046268582344055, 1.3720718622207642, -1.4639605283737183, -0.15389783680438995], [1.0927302837371826, -1.4827868938446045, -0.015290684998035431, -0.08115557581186295, -0.3898232579231262, 0.009766556322574615, 0.20177055895328522, -0.5864506959915161, 0.3813796639442444, 0.8646008968353271, 1.63433837890625, 0.17645370960235596, 0.03845176845788956, -0.3316613435745239, -0.1571577936410904, -0.3675931394100189, -0.20125862956047058, 1.608262300491333, 0.22502920031547546, -0.00010174426279263571, -0.20069390535354614, -0.07188866287469864, -0.30564984679222107, -0.2276487797498703, 0.8210288882255554, 0.7219141721725464, -0.8479045033454895, -0.1266091912984848, 0.7782920002937317, -0.19606232643127441, -1.6978169679641724, -0.2882594168186188, -0.4284299612045288, 0.16011032462120056, 0.542517900466919, 0.044390708208084106, 0.038063324987888336, 0.0019435305148363113, -0.3830146789550781, -0.39360612630844116, -0.13592666387557983, 0.5107524394989014, 0.14666545391082764, -0.39526399970054626, 0.5114282965660095, -0.38651883602142334, -0.44766491651535034, -0.27714017033576965, -0.30338817834854126, -0.570216715335846, -0.7193346619606018, -0.8803053498268127, -1.0255296230316162, 0.14736172556877136, -1.7743077278137207, 1.4794217348098755, -0.9598218202590942, 0.7149932980537415, 0.4561738669872284, -0.5002247095108032, -0.3206830322742462, 0.686318576335907, -0.10144777595996857, -0.07444655150175095, 0.5859038829803467, 0.29943883419036865, -0.16103342175483704, -1.0050771236419678, -0.8966159820556641, -0.6146035194396973, 0.143123060464859, 0.21891921758651733, -0.41264060139656067, 0.8299402594566345, 0.06430947780609131, 1.1478023529052734, 0.2583962678909302, -0.37970608472824097, -0.5775811076164246, -0.7083092927932739, -0.10356337577104568, 0.6474904417991638, 0.13144920766353607, 0.4223591387271881, 0.5404455065727234, 0.729952871799469, -0.7228274941444397, -0.08663549274206161, -0.27486303448677063, -1.1379859447479248, 0.3185275197029114, -1.241533637046814, 1.483925700187683, -0.9435458779335022, 0.5755283236503601, -0.12210904061794281, 0.2989043593406677], [-1.8547857999801636, -2.5766334533691406, -0.06529825925827026, -0.06387810409069061, -0.522274374961853, 0.19664956629276276, -0.8319056034088135, -0.9168086051940918, -0.8119143843650818, -0.8614146709442139, 2.9198710918426514, 0.1922074854373932, -0.09416764974594116, -0.0715833231806755, 0.3397601842880249, -0.10513852536678314, 0.2879543900489807, 3.029024600982666, 0.2218814492225647, -0.1455729454755783, -0.18478445708751678, 0.2676668167114258, -0.09333701431751251, 0.2629421055316925, 0.025528952479362488, -0.4194563627243042, 0.09194695949554443, -0.15507793426513672, -0.1425035148859024, -0.2764810621738434, -0.5631414651870728, 0.1889270544052124, -0.40007638931274414, -0.377645879983902, 0.5765629410743713, -0.3801032304763794, 0.7858248949050903, -0.15278185904026031, -0.292052298784256, -0.21819168329238892, -0.29196813702583313, -0.049922920763492584, -0.11609403043985367, -0.13040520250797272, -0.5929943919181824, -0.5215849280357361, -0.4599902927875519, -0.056851983070373535, 0.24262984097003937, -0.2989903390407562, 0.2276218831539154, 0.13472561538219452, -0.7492824196815491, 0.09438244998455048, -1.0328201055526733, 0.3580794036388397, 0.030728567391633987, -0.2849726974964142, 0.6986917853355408, 0.12178592383861542, -0.8030558824539185, 0.8747496008872986, -0.511620819568634, -0.4087333083152771, 0.07026407122612, -0.00024130869132932276, -0.7668190598487854, -0.187848761677742, -0.3171604573726654, -0.3004712462425232, 0.06761127710342407, 0.38113540410995483, -0.3720458447933197, 0.7127669453620911, -0.03133672475814819, 0.10580859333276749, -0.20088620483875275, -0.4724174737930298, -0.18181802332401276, -0.24050451815128326, -0.4276442229747772, -0.30816709995269775, 0.1245826929807663, -0.10770002752542496, -0.15435485541820526, 0.286255806684494, -0.6194632053375244, 1.031236171722412, 0.5641111731529236, 0.018421685323119164, -0.5002500414848328, 0.2992134392261505, 0.321862131357193, -0.8884692192077637, 1.8496453762054443, -0.31795433163642883, 0.7962332963943481], [-0.8549914956092834, -0.7263026237487793, -0.012276411056518555, 0.052932292222976685, -0.3523743450641632, 0.08130110800266266, 0.6197130680084229, 0.10342199355363846, -0.7223937511444092, -0.12437929213047028, 1.1019604206085205, 0.008777963928878307, -0.16335079073905945, 0.1317416876554489, -0.1683768332004547, -0.0058694565668702126, 0.11233378946781158, 1.2688380479812622, 0.05710499733686447, -0.2746220827102661, 0.24901315569877625, 0.016044743359088898, -0.051075153052806854, 0.08370566368103027, 0.12303163856267929, -0.48575344681739807, 0.25634801387786865, -0.042485374957323074, -0.2690606713294983, 0.037603750824928284, -0.06625324487686157, 0.28270798921585083, -0.14707937836647034, -0.06932097673416138, -0.3483000695705414, 0.17077484726905823, -0.3872205913066864, -0.21532492339611053, 0.015482943505048752, -0.13612021505832672, -0.009798035025596619, -0.2945936620235443, -0.23316454887390137, -0.13892002403736115, -0.47116366028785706, 0.09041920304298401, -0.21219174563884735, 0.15198983252048492, -0.3588525950908661, 0.09891577810049057, 0.5171582698822021, -0.06472230702638626, -0.4263148009777069, 0.2969995439052582, -0.10088348388671875, 0.3456973135471344, -0.04767568036913872, -0.1765322983264923, 0.196145698428154, -0.04138898476958275, -0.3373352587223053, 0.136171355843544, -0.10631901770830154, -0.23056279122829437, 0.18419185280799866, -0.22325344383716583, -0.03994377329945564, 0.14229382574558258, -0.2051708698272705, -0.4530293643474579, -0.007880160585045815, -0.42933544516563416, -0.4230602979660034, -0.10149508714675903, -0.2583984434604645, -0.055359143763780594, 0.32792171835899353, 0.11596199125051498, 0.20039771497249603, 0.3468337655067444, 0.11081796139478683, -0.14235445857048035, 0.0644776001572609, -0.12491709738969803, 0.08337482810020447, -0.0632617175579071, 0.12494616955518723, 0.09066284447908401, 0.07451097667217255, -0.3832382261753082, 0.19914516806602478, -0.027065327391028404, 0.051109373569488525, -0.13046059012413025, -0.39419978857040405, 0.4111201763153076, -0.07919341325759888], [2.7771871089935303, -3.23769474029541, -0.07946823537349701, 0.039802297949790955, 0.006456928793340921, -0.7119789123535156, 0.7925864458084106, -0.43087536096572876, -0.370490163564682, 2.906837224960327, 2.1985504627227783, 0.09332618862390518, -0.15346556901931763, -0.2705064117908478, -0.5461428165435791, -0.2674131989479065, -0.25460556149482727, 2.2269656658172607, 0.21597826480865479, -0.23370260000228882, -0.32266706228256226, -0.575977087020874, -0.15500777959823608, -0.3181973695755005, -0.7452210783958435, 1.163633108139038, -0.8432177901268005, -0.13486450910568237, -0.22942984104156494, -0.05491165816783905, -0.9858483672142029, -0.7852367758750916, -0.2852983772754669, 0.17535825073719025, 0.2064843773841858, -0.5007347464561462, -0.17453403770923615, 0.30693987011909485, -0.3164035975933075, -0.1246219351887703, -0.46620091795921326, 0.27688905596733093, -0.3216584026813507, 0.21238477528095245, -0.41686302423477173, 0.22968067228794098, -0.1496592015028, -0.009794502519071102, -0.3801276385784149, 0.004890831187367439, 0.4125695526599884, -0.8137159943580627, -0.9537237286567688, -0.8074004054069519, 0.49715951085090637, -0.5415580868721008, 0.8669046759605408, -0.045323122292757034, 0.43674835562705994, 1.2149536609649658, -0.17592062056064606, -0.3689959645271301, -0.10769245773553848, -0.7252168655395508, -0.7289795279502869, 0.6124189496040344, 0.08689326047897339, -1.2774407863616943, 0.39542052149772644, -0.25716930627822876, 0.257909893989563, -0.031201185658574104, 0.5919155478477478, -0.3137400448322296, 0.19679003953933716, 0.39114466309547424, -0.28982892632484436, 0.31080159544944763, -0.8974948525428772, -1.6388860940933228, 0.7033279538154602, -0.0071013690903782845, 0.052248671650886536, -0.06371650844812393, -0.2856156527996063, 0.19282585382461548, 0.34758371114730835, 1.50216805934906, -1.3838021755218506, 1.4167406558990479, -1.2665941715240479, -0.34649282693862915, -0.1495482474565506, -0.24878975749015808, -0.07072418928146362, 0.16043460369110107, -0.2679632604122162], [-0.031113984063267708, -2.4956116676330566, 0.011935338377952576, 0.025408446788787842, 0.07645690441131592, 0.23898445069789886, -0.8287034630775452, 0.2220289707183838, 1.5663203001022339, 1.2106142044067383, 5.362331867218018, 1.2260957956314087, -0.12752576172351837, 0.3821716606616974, 0.04646359011530876, 0.31850919127464294, 0.23710155487060547, 5.425251007080078, 1.3034588098526, -0.03201509267091751, 0.39235231280326843, -0.03578224405646324, 0.24531687796115875, 0.2778699994087219, 0.3400060832500458, -0.7141426801681519, 0.4324216842651367, -0.6714939475059509, 0.7856988310813904, -0.3220617473125458, -0.06856226921081543, 0.29380980134010315, 0.08889798074960709, 0.474698543548584, 0.34318041801452637, -0.05540700629353523, -0.3091256618499756, -0.14276376366615295, 0.21743525564670563, 0.12972070276737213, 0.08124846965074539, -0.1756310760974884, -0.0252279881387949, -0.023882338777184486, 0.044724587351083755, 0.9783451557159424, -0.3278366029262543, 0.2735965847969055, -0.2044423520565033, 0.01386005338281393, 0.6827859878540039, 0.01492465753108263, 0.17511141300201416, -0.49707379937171936, 0.4756854474544525, -0.14974884688854218, -0.03673916682600975, 0.03395572677254677, -0.12424689531326294, 0.23144014179706573, -0.6200999617576599, -0.46711400151252747, -0.6408849954605103, -0.027989888563752174, -0.12163484841585159, 0.26399850845336914, -0.03493419662117958, 0.08222813159227371, -0.16267284750938416, 0.33591732382774353, 0.05305979400873184, -0.271643728017807, 0.29964330792427063, 0.046832602471113205, 0.33146899938583374, -0.47435706853866577, -0.24527454376220703, 0.5466679930686951, 0.6857308745384216, 0.0020655221305787563, -0.45342475175857544, -0.857031524181366, -0.43865254521369934, -0.5901638865470886, -0.4656587839126587, -0.2702689468860626, -0.5788241028785706, 0.5684671998023987, 1.5702683925628662, 0.8211513757705688, -0.3224638104438782, 0.25700250267982483, 0.6214087009429932, 0.4994232654571533, 0.7460779547691345, 0.20814737677574158, 1.2019736766815186], [-4.411949634552002, -1.0910985469818115, 0.060321033000946045, 0.05357183516025543, 0.2122640609741211, 1.597070574760437, -1.2960472106933594, -3.6999924182891846, -1.4354201555252075, 1.167140007019043, 0.8442426323890686, 0.08982963860034943, -0.3943863809108734, -0.4759539067745209, -0.13546109199523926, -0.05471930652856827, -0.46370354294776917, 0.988125205039978, 0.2586517632007599, -0.3121882379055023, -0.3304923176765442, -0.0670178234577179, -0.09129508584737778, -0.48588594794273376, 1.1547678709030151, -0.8159700632095337, -0.7466474175453186, 0.13006769120693207, 0.07108847796916962, -0.9714064598083496, 0.47363460063934326, -0.503357470035553, -0.8940406441688538, -0.3989010453224182, 0.36698636412620544, -0.39045730233192444, -0.30129432678222656, -0.13949114084243774, -0.6784488558769226, -0.5452054142951965, -0.41155576705932617, 0.05081724748015404, -0.03254121169447899, -0.21749025583267212, 0.1115005612373352, -0.5095168352127075, -0.2318207025527954, 0.5935187339782715, 0.12081629037857056, -0.11005604267120361, 0.025303710252046585, 0.39591723680496216, -0.6861979365348816, 0.6688493490219116, -0.9945531487464905, -1.0941413640975952, 0.17088644206523895, -0.653413712978363, 1.3117691278457642, -0.6138716340065002, 0.43539032340049744, -0.7679415941238403, -0.2687031924724579, -0.8886620998382568, -0.16748885810375214, -0.3137091398239136, -0.17284142971038818, -0.18459594249725342, 0.701148271560669, 1.301281213760376, -0.94465571641922, 0.26121124625205994, -1.2579166889190674, 0.2072266936302185, -0.3384902775287628, 0.943027913570404, 1.1967813968658447, -1.2780770063400269, 1.3264588117599487, -0.7594239711761475, 0.37465375661849976, 0.05734352394938469, 0.2181573361158371, -0.23495671153068542, -0.8814268112182617, -0.40203550457954407, -1.0391254425048828, 2.331162214279175, -0.16809941828250885, 0.4084949195384979, 1.007332682609558, -2.619340658187866, 0.5304251313209534, 0.5364007949829102, 0.4237571358680725, -0.014709750190377235, 0.9063629508018494], [-2.2032787799835205, -2.8106513023376465, -0.02028476446866989, -0.02973821759223938, -1.0266296863555908, -0.13194583356380463, -0.8479306697845459, 0.07280801981687546, -0.32248684763908386, 0.17422790825366974, 4.100183486938477, 0.9217545986175537, 0.21364739537239075, 0.13318274915218353, 0.08765222877264023, 0.15622387826442719, 0.07505811005830765, 4.015181064605713, 0.7928124666213989, 0.11754347383975983, 0.1382947713136673, 0.15292516350746155, 0.12333430349826813, 0.0988975390791893, 0.044005993753671646, -0.8969624042510986, -0.36374223232269287, -0.49970442056655884, -0.0726792961359024, -0.4694485664367676, -0.021064111962914467, 0.19212035834789276, 0.7633857727050781, 0.035003289580345154, 0.4914821684360504, 0.636839747428894, 0.624127984046936, 0.4960438311100006, 0.9294863343238831, 0.1421864777803421, -0.04991744086146355, 0.6285919547080994, -0.5478997230529785, 0.4455103874206543, -0.09913290292024612, 0.11622818559408188, 0.2527850270271301, -0.4338504374027252, -0.11942491680383682, -0.4532402455806732, -0.06720360368490219, 0.4635522663593292, 0.2666682004928589, -1.2153483629226685, 0.28246477246284485, 0.21135388314723969, -0.3479659855365753, -0.9993653297424316, -0.8206118941307068, -0.022318081930279732, -0.02802356518805027, -0.8491054177284241, -0.46046313643455505, -0.05979325622320175, 0.6833516955375671, -0.14123687148094177, 0.032699547708034515, -0.6305702924728394, -0.07223187386989594, -0.7582736015319824, 0.64498370885849, -0.08759309351444244, -0.27352726459503174, -0.0065521555952727795, 0.5649561285972595, -0.10459056496620178, -0.009574025869369507, 0.3380596339702606, -0.43258342146873474, 0.663829505443573, -0.4733005166053772, -0.6560259461402893, -0.7108532786369324, -0.28198176622390747, -0.5175372362136841, -0.5443019270896912, -0.668375551700592, 1.60321044921875, 1.4567817449569702, 0.1913556158542633, -0.059402741491794586, 0.16270212829113007, -0.22055579721927643, 0.7139853239059448, 0.49198585748672485, -0.4336296617984772, -0.23870974779129028], [-0.38876429200172424, -1.7010228633880615, -0.050476379692554474, -0.019289903342723846, -0.3711526691913605, 1.9290715456008911, -0.485930472612381, 1.974994421005249, 0.42205163836479187, -1.7441985607147217, 5.6868109703063965, 0.9546951055526733, 0.2534969747066498, 0.2641545236110687, -0.08210421353578568, 0.1686832457780838, 0.23351822793483734, 5.542504787445068, 0.9267934560775757, 0.3235310912132263, 0.2586938440799713, 0.0020631959196180105, 0.16568602621555328, 0.16764092445373535, 0.19078585505485535, -0.25817105174064636, -0.3126521706581116, 0.31350967288017273, 0.601289689540863, 0.06108049303293228, 0.12825588881969452, 0.23648686707019806, 0.109718456864357, 0.0886269360780716, 0.50129234790802, 0.5798172354698181, -0.06733793020248413, -0.3421994149684906, 0.304101824760437, 0.3000026345252991, -0.20461085438728333, -0.22688986361026764, 0.09087477624416351, 0.19747810065746307, -0.3083096444606781, 0.62867671251297, -0.056804344058036804, -0.7009585499763489, -0.5895620584487915, 0.24707241356372833, 0.013301396742463112, 0.20560359954833984, 0.10704487562179565, 0.12398593127727509, -0.34562674164772034, -0.11101630330085754, 0.26809853315353394, 0.3374231457710266, 0.3448575735092163, 1.0046055316925049, -0.36864280700683594, 0.700846791267395, -0.24126048386096954, 0.10618752241134644, -0.2092871516942978, 0.02712838165462017, 0.08012028783559799, 0.46014732122421265, -0.39432525634765625, -0.13782858848571777, 0.5935444831848145, 0.03129156306385994, -0.45987531542778015, 0.20588909089565277, 0.4528864920139313, 0.10338471084833145, -0.10589349269866943, 0.41221320629119873, 0.010506938211619854, 0.8275648951530457, -0.6057993173599243, -0.8699049353599548, -0.054566796869039536, -0.34725886583328247, -0.4080323278903961, -0.35800543427467346, -0.5753423571586609, 0.09502878040075302, 0.39331039786338806, 0.8124733567237854, -0.23660653829574585, 0.5780051946640015, -0.05418698862195015, 0.3064975142478943, 0.2499302327632904, 0.2849687337875366, 0.20281250774860382], [-6.784230709075928, -0.8766658902168274, 0.035609111189842224, -0.0031418725848197937, 0.09387186914682388, -1.3153451681137085, -0.5819515585899353, -1.2551535367965698, -0.7833030819892883, 0.5027501583099365, 1.2796082496643066, 0.08506686240434647, 0.507896900177002, -0.3196723163127899, 0.18831554055213928, -0.04314205422997475, 0.22067002952098846, 1.350898265838623, 0.012559712864458561, 0.4555160701274872, -0.24211402237415314, 0.2946653366088867, 0.11534607410430908, 0.36885133385658264, 0.5868619680404663, 0.7814794778823853, -0.08403144776821136, 0.23947696387767792, -1.546303391456604, -0.16829903423786163, 0.2652897536754608, -0.0693325623869896, -0.4831908047199249, -0.2590312659740448, 0.4924694299697876, -0.13387343287467957, 0.8984444737434387, -0.5652534365653992, -0.343303382396698, 0.22485440969467163, -0.29724350571632385, 0.36598342657089233, 0.46955519914627075, 0.21030423045158386, 0.1280883252620697, 0.4894353151321411, -0.23673944175243378, 0.03334291651844978, 1.0654562711715698, -0.1724727302789688, 0.07220391929149628, 0.4978579580783844, 0.643825888633728, -0.25451868772506714, -0.18564029037952423, -0.8042963147163391, 1.3356386423110962, 0.3013707101345062, -1.2279415130615234, -0.7970695495605469, -0.09642542898654938, -0.7559800744056702, 0.6008118987083435, -0.40694114565849304, -0.41741716861724854, -0.32613739371299744, 0.3485800623893738, -0.5924702286720276, -0.06954383105039597, 0.05830754339694977, -0.41126033663749695, -0.8156937956809998, -0.17323307693004608, -0.45412373542785645, -0.21846777200698853, -0.1934388279914856, -0.029633566737174988, -0.3196145296096802, -1.4620150327682495, -0.4554210901260376, 0.6402629613876343, -1.1165194511413574, 0.44017666578292847, 0.35769057273864746, -0.8436716794967651, 0.11607302725315094, -0.3753083348274231, 1.552475094795227, -1.6419216394424438, -0.009424718096852303, -0.12483324855566025, 0.03050193190574646, -0.4858689606189728, -0.6668838262557983, 1.2808094024658203, 0.6577381491661072, 0.16431653499603271], [0.12277228385210037, -1.4644749164581299, 0.08026266098022461, -0.057112861424684525, -0.24705757200717926, 3.3925533294677734, 0.5705281496047974, 0.9298850893974304, -1.2842878103256226, -0.1010957807302475, 1.9227147102355957, 1.1912013292312622, 0.2722390294075012, 0.07636354118585587, 0.5080417394638062, -0.028685668483376503, 0.025478413328528404, 1.9295589923858643, 1.0254346132278442, 0.2504338026046753, 0.02764309011399746, 0.597428560256958, 0.03158274292945862, 0.10344070941209793, 0.6827864050865173, -0.32150521874427795, -0.11382298916578293, 0.3910562992095947, -1.0099164247512817, -0.1795077919960022, -0.7831963896751404, 0.049509815871715546, -0.24450348317623138, 0.1911853849887848, 0.6557131409645081, 0.22305253148078918, 0.19215205311775208, 0.0034130429849028587, 0.18476524949073792, -0.1066078320145607, 0.27150315046310425, 0.41495344042778015, 0.0388636514544487, -0.07630642503499985, -0.08641067892313004, 0.3891555070877075, -0.09012219309806824, 0.43227702379226685, 0.23558743298053741, -0.03506159037351608, -0.08422739058732986, 0.6210816502571106, 0.3892839252948761, 0.7155851125717163, -1.6658833026885986, 0.0008045018184930086, -1.6126306056976318, 0.2389000803232193, -0.784052312374115, -0.6838979125022888, -1.1993825435638428, 0.020301707088947296, -0.05442848056554794, -1.5276753902435303, -0.2903626263141632, 0.6368813514709473, 0.08735712617635727, 0.010108781978487968, 0.17381788790225983, -0.28656068444252014, 0.21984358131885529, -0.10338039696216583, -0.41701623797416687, 0.4409251809120178, 0.0715537965297699, 0.5037140250205994, 0.050586502999067307, 0.5902925729751587, 0.11159062385559082, -0.09985584765672684, -0.5372973084449768, -0.7222018241882324, 0.24648521840572357, -0.3418729305267334, -0.2810298800468445, -0.29533812403678894, -0.24354855716228485, 2.8428056240081787, -0.7863075733184814, 2.3229429721832275, -0.959239661693573, 2.022117853164673, -0.1463513821363449, 0.32483720779418945, 0.14028067886829376, 1.2007676362991333, -1.854065179824829], [-0.6629686951637268, -1.6845557689666748, -0.017944850027561188, -0.04270059987902641, -0.2495667040348053, 0.5786511301994324, 0.6760013699531555, 1.3579487800598145, 0.889445424079895, 1.7212599515914917, 4.251911163330078, 0.7652319073677063, -0.36563563346862793, -0.2916484475135803, -0.18035052716732025, -0.13435377180576324, -0.4687495827674866, 4.12163782119751, 0.7531126141548157, -0.3206278383731842, -0.32192301750183105, -0.16270200908184052, -0.14159774780273438, -0.3961891531944275, 0.42028069496154785, -0.7556862235069275, 0.08578149229288101, 0.05255059152841568, -0.405021071434021, -1.0388909578323364, 0.30427664518356323, 0.3427538275718689, -0.7502396106719971, -0.2997259199619293, 0.09817276149988174, -0.14954444766044617, 0.12150219082832336, -0.06229160726070404, 0.08781231939792633, -0.36883431673049927, -0.17610912024974823, -0.10417589545249939, -0.2190999686717987, 0.020806463435292244, -0.04470735788345337, -0.26531028747558594, -0.20090165734291077, 0.4021947979927063, 0.06139657646417618, 0.02970796823501587, -0.417342871427536, -0.19071626663208008, -0.7472686171531677, 0.367461621761322, 0.1736268550157547, -0.49482461810112, 0.328684002161026, 0.08792043477296829, 0.2423216849565506, 0.45383644104003906, 0.20722228288650513, -0.09393316507339478, 0.418012410402298, -0.06217481940984726, 0.4055422842502594, -1.1927735805511475, -0.38069477677345276, -0.6333315372467041, 0.8082982897758484, 0.19991403818130493, -0.08772861957550049, -0.5939577221870422, -0.1969992220401764, -0.6188388466835022, -1.02650785446167, 0.3040285110473633, 0.013547908514738083, -0.6156526207923889, 0.2786698341369629, -0.7510942816734314, -0.12950249016284943, -0.4321466386318207, 0.08335753530263901, -0.09686082601547241, 0.3159623146057129, -0.5553898811340332, 0.17053565382957458, -0.11779624223709106, -0.7283602356910706, -0.6913236975669861, 0.7780680060386658, 0.2878265380859375, -0.8755955696105957, 0.08334474265575409, -2.029613971710205, -1.0985692739486694, 1.6919682025909424], [2.209066152572632, -1.8510969877243042, -0.09113959968090057, -0.04205286130309105, -0.3024074137210846, 0.02867290750145912, 0.512349545955658, -0.3235114514827728, -0.09717316180467606, 1.233667016029358, 2.4207863807678223, -0.20295889675617218, 0.16359587013721466, -0.022138521075248718, -0.22498685121536255, 0.17778773605823517, -0.5430643558502197, 2.3250203132629395, -0.26242899894714355, 0.008749501779675484, -0.16063173115253448, -0.19933363795280457, 0.018084106966853142, -0.5310196280479431, -0.25225934386253357, -0.293834388256073, -1.3229047060012817, -0.08161993324756622, 0.18267130851745605, 0.79401034116745, -0.6345418691635132, 0.3362448513507843, 0.2905212938785553, -0.4457617402076721, 0.05392834171652794, -0.21225506067276, -0.6745055317878723, 0.8575002551078796, 0.3030073940753937, 0.017168108373880386, -0.24035537242889404, 0.10717920958995819, -0.8673340082168579, -0.1677093356847763, 0.1563296914100647, -0.17085546255111694, 0.8566490411758423, -0.11507527530193329, -0.5605183243751526, 0.5914912819862366, -0.5917147397994995, 0.19265800714492798, -0.10698190331459045, -0.671977162361145, -0.09817181527614594, -0.11441180855035782, 1.3492469787597656, -1.9952765703201294, 1.0662033557891846, 1.0225521326065063, -0.19625720381736755, -0.9419357776641846, -0.16637974977493286, -0.9313551187515259, 0.7080477476119995, -0.8068425059318542, -0.31357091665267944, -1.4872558116912842, 0.6343250870704651, -1.0083777904510498, 0.22767901420593262, -0.0007986431010067463, 0.3838713765144348, -0.36349591612815857, 0.15840654075145721, 0.059440381824970245, 0.2700626850128174, -0.6384326219558716, -0.06952864676713943, 0.22586487233638763, 0.1336176097393036, -0.3788806200027466, -0.43659794330596924, -0.7097494602203369, -0.8734225630760193, 0.38385137915611267, -0.8470956683158875, 1.8747011423110962, -0.3083149492740631, -0.09664186090230942, 1.3187896013259888, -0.5056498050689697, 0.7703044414520264, 1.388842225074768, -2.073575258255005, 0.031095430254936218, 1.1718283891677856], [-1.1186270713806152, -1.617666244506836, 0.020732618868350983, -0.018723681569099426, -0.25908809900283813, 1.4129527807235718, 0.9077193737030029, 1.994669795036316, -0.8168434500694275, -0.8403915762901306, 3.5160973072052, 0.056554123759269714, 0.01433597318828106, -0.3083401918411255, -0.18699432909488678, -0.04662090167403221, -0.3158452808856964, 3.6221420764923096, 0.1377643197774887, 0.018812118098139763, -0.2878243327140808, -0.22994546592235565, -0.0676582083106041, -0.2963660955429077, -0.09624329209327698, -1.1600563526153564, -0.09702345728874207, -0.1390271931886673, 0.28277379274368286, -0.3148220181465149, 0.10932159423828125, 0.1382567435503006, -0.1795307993888855, 0.023060699924826622, 0.17809441685676575, 0.04975180700421333, -0.021198246628046036, 0.14120614528656006, -0.05190574750304222, -0.12927132844924927, 0.07417193800210953, -0.2532515227794647, -0.08903001993894577, -0.21635882556438446, 0.3938148617744446, -0.19296342134475708, -0.09410068392753601, -0.20385955274105072, -0.17395639419555664, -0.05098214000463486, -0.14850500226020813, -0.09728989750146866, -0.17904461920261383, 0.3611924946308136, -1.395408034324646, 1.9461097717285156, -0.19971564412117004, -1.1938443183898926, -0.19081765413284302, 0.7691349387168884, -0.062119677662849426, 0.19212262332439423, -0.256547749042511, -0.24679116904735565, -0.09816809743642807, -0.17914974689483643, 0.16938398778438568, 0.08750466257333755, -0.2921867072582245, -0.11910292506217957, -0.4859113097190857, 0.29666781425476074, -1.1816225051879883, 0.19638967514038086, -0.7106245756149292, -0.5348194241523743, -0.46847862005233765, 0.5584713816642761, 0.3304463326931, 0.2500001788139343, -0.131561741232872, 0.9956163167953491, -0.41426894068717957, -0.7360021471977234, 0.5878348350524902, -0.018929705023765564, 0.005831425078213215, -0.9816452860832214, 0.4991345703601837, 0.45588093996047974, -2.2059381008148193, 0.7242271304130554, -1.0972144603729248, -0.8782182931900024, 2.1920828819274902, -0.507035493850708, -2.322497606277466], [-0.6769440770149231, -1.9105401039123535, 0.05540360510349274, -0.027063116431236267, -0.1495230346918106, -0.945498526096344, 0.28726574778556824, 0.1095542162656784, -0.989881694316864, 0.9787137508392334, 1.671222448348999, 0.5173138380050659, 0.028695475310087204, -0.15884092450141907, -0.1952035278081894, -0.05650961771607399, -0.2818411588668823, 1.622913122177124, 0.3304566740989685, -0.11642619967460632, -0.06118186190724373, -0.24288465082645416, -0.09545659273862839, -0.2484222948551178, -0.2830033004283905, -0.41413870453834534, -0.9003698229789734, -0.3068501055240631, 0.36699777841567993, -1.2933106422424316, -1.2163141965866089, 0.32433071732521057, 0.5591560006141663, 0.4259529113769531, 0.7678734660148621, 0.38686275482177734, 0.24858321249485016, 0.48912400007247925, 0.8180018663406372, 0.33290895819664, 0.14032641053199768, 0.561155378818512, 0.29930007457733154, 0.5855271816253662, 0.15526169538497925, -0.6288394927978516, -0.32153862714767456, 0.04035589471459389, -0.04900280013680458, -0.2803988754749298, -0.4304177761077881, -0.06066351383924484, -2.0165188312530518, -1.196444034576416, 0.021241243928670883, -1.4830231666564941, -1.2774101495742798, 0.7936356067657471, -0.716343104839325, -0.23831847310066223, 0.2910592257976532, -0.38719409704208374, 1.0565013885498047, 0.16714711487293243, -0.06678785383701324, -0.8067865967750549, 0.784978449344635, -0.8203551769256592, 0.011155344545841217, -1.2142887115478516, -0.9623342156410217, 0.8637862205505371, 0.4762994647026062, -0.24434645473957062, 0.18806631863117218, -0.5338703989982605, 0.009054087102413177, 0.4641963243484497, -0.10136151313781738, 0.3239290118217468, 0.12656919658184052, -0.7410281300544739, -0.4673662483692169, 0.04296042025089264, 0.2903168201446533, -0.5604866743087769, -0.03825961798429489, 1.609683632850647, 1.6237796545028687, 0.9903091192245483, 0.9620662927627563, -0.31544506549835205, 0.255299836397171, -0.660455584526062, -1.330411434173584, -0.3946619927883148, -0.04276486858725548], [-0.8657667636871338, -1.3661020994186401, -0.07806351780891418, 0.07926063239574432, -0.5175567865371704, 0.30610522627830505, 0.12954451143741608, -3.1763672828674316, -1.5636507272720337, 2.8383636474609375, 2.4088199138641357, 0.7844552397727966, -0.5603376030921936, -0.23473145067691803, -0.33488738536834717, -0.32212379574775696, -0.5042179822921753, 2.4248530864715576, 0.6741903424263, -0.5071534514427185, -0.2861083745956421, -0.49244987964630127, -0.30942320823669434, -0.5818434357643127, -0.8161014914512634, 0.9780060052871704, -0.0351351723074913, -0.012577909976243973, -1.1802289485931396, 0.12073525041341782, -0.17691867053508759, 0.05530974641442299, -0.501785159111023, -0.001189370290376246, -0.19927220046520233, 0.21593639254570007, -0.11473390460014343, -0.18302291631698608, -0.13760006427764893, -0.7590592503547668, -0.16727980971336365, -0.15784455835819244, 0.19650569558143616, -0.24293525516986847, -0.041736211627721786, -0.22421613335609436, -0.72426438331604, 0.35860583186149597, -0.6560722589492798, 0.786740243434906, -0.9030951261520386, 0.3210243284702301, -0.9277745485305786, -1.0830296277999878, 0.4066861569881439, 0.5344168543815613, -0.3175118565559387, -0.3989049196243286, 0.9376817941665649, -0.45672377943992615, -1.4490209817886353, -0.25836971402168274, -1.5231584310531616, -1.518153190612793, -1.3361008167266846, -0.1802562028169632, -0.9978945255279541, -0.731587290763855, 0.43815597891807556, 1.4113569259643555, 0.353069543838501, 0.6250535249710083, 0.07807499915361404, 0.6182013750076294, -0.4011414051055908, 0.22926998138427734, 0.8210911154747009, -0.08292325586080551, -0.11977607756853104, 0.27586930990219116, 1.1021804809570312, -0.9007472991943359, -0.40779173374176025, 0.2036406546831131, -0.2857762277126312, -0.18327884376049042, -0.5689136385917664, -0.9156885147094727, 1.0041301250457764, -0.15686596930027008, -0.038154780864715576, 2.581112861633301, -1.3320553302764893, -0.17617200314998627, -0.06437739729881287, -0.27929654717445374, 0.7114800214767456], [-0.6648556590080261, -1.4178102016448975, -0.017976567149162292, -0.021977119147777557, -0.7164048552513123, -0.03941076621413231, -1.015088677406311, 0.10048175603151321, -0.6854655742645264, -0.26991090178489685, 3.2797625064849854, 0.5514163374900818, 0.17192663252353668, 0.3413132131099701, 0.26176735758781433, 0.4159373641014099, -0.0014439497608691454, 3.245633602142334, 0.7405216693878174, 0.17449189722537994, 0.2469484508037567, 0.1531863808631897, 0.4552111029624939, 0.037480272352695465, 0.6078711152076721, -0.5075507760047913, -0.6112667322158813, -0.14398500323295593, -0.3443411588668823, -0.11965462565422058, 0.4443965554237366, 0.5398193597793579, 0.34619081020355225, 0.054211460053920746, -0.10483309626579285, -0.2992020845413208, -0.07688937336206436, -0.17460086941719055, 0.6089199781417847, 0.07066038250923157, 0.19832055270671844, -0.2149285525083542, -0.5470550656318665, 0.01840072125196457, 0.031284455209970474, 0.02638428471982479, -0.3222329318523407, -0.29949769377708435, -0.2806881070137024, 0.22151073813438416, -0.24116557836532593, -0.022923944517970085, -0.09181234985589981, -0.018565312027931213, -0.916143536567688, 0.14382268488407135, 0.220459446310997, -0.05292579531669617, 0.272796630859375, -0.0005105164018459618, -0.3295081853866577, 0.03799961507320404, -0.06728702783584595, -0.40154412388801575, -0.02002277597784996, 0.20900774002075195, 0.38771480321884155, 0.26203474402427673, -0.2497176229953766, -0.13584062457084656, 0.00821804441511631, -0.1381707489490509, 0.15223920345306396, 0.15178349614143372, 0.20945733785629272, 0.4646149277687073, 0.3163564205169678, 0.35627415776252747, -0.06484011560678482, 0.27045103907585144, -0.29728245735168457, -0.453625351190567, -0.37148886919021606, -0.4059838354587555, -0.4037220776081085, -0.29130762815475464, -0.7154539823532104, 0.23799020051956177, 0.8656496405601501, 1.211330771446228, -0.7572892904281616, 0.5697342157363892, -0.38416019082069397, 0.18010209500789642, -0.22599367797374725, 0.3666047155857086, -0.06374718248844147], [1.6009209156036377, -1.4031418561935425, 0.06796236336231232, -0.016543075442314148, -0.05902884155511856, 0.27167966961860657, 0.1949683129787445, -1.7469967603683472, -1.2854682207107544, -0.08794225007295609, 1.7437412738800049, 0.4052618741989136, 0.06454462558031082, -0.2915005087852478, -0.06797834485769272, 0.2963680624961853, -0.4244501292705536, 1.7753186225891113, 0.4186859726905823, -0.07363547384738922, -0.276439905166626, -0.1298205852508545, 0.10091264545917511, -0.45217201113700867, 0.4641801714897156, -1.2643234729766846, 0.9596927762031555, 0.3324321210384369, -0.7705268263816833, 0.12910108268260956, -1.0026015043258667, -0.6196051239967346, 0.04767032340168953, -0.3800218105316162, -0.917905330657959, 0.18762311339378357, -0.06636904925107956, 0.0729651153087616, -0.5679870843887329, -0.07307741045951843, -0.50380939245224, 0.17621678113937378, 0.36955559253692627, -0.18214808404445648, -0.6120250225067139, -0.9531640410423279, -0.11648371070623398, 0.34664663672447205, 0.8426131010055542, -0.4623483419418335, 0.08218524605035782, -0.29146596789360046, -2.2343978881835938, 0.4587031900882721, 1.3256891965866089, -1.389013648033142, 0.40268608927726746, -1.2967156171798706, 0.05180809274315834, -0.3624349534511566, -0.12441606819629669, -1.4905142784118652, -1.2099134922027588, 0.029346292838454247, 0.054371219128370285, -0.6688645482063293, -0.1058836430311203, 0.040636591613292694, -1.1376656293869019, 0.29473891854286194, -0.578311562538147, -1.1017110347747803, 0.44354742765426636, 0.505978524684906, 0.5871631503105164, -0.3145301043987274, -0.01629764959216118, -0.5183447003364563, -1.0498442649841309, 0.5406550765037537, 0.5454029440879822, 0.7710570096969604, 0.5213156342506409, 0.1055699959397316, -0.008565831929445267, -0.47481444478034973, 0.5582632422447205, 0.9385619163513184, -1.585705041885376, 1.9280942678451538, -1.5237948894500732, 0.8770174384117126, -1.814281702041626, -0.18991677463054657, -0.7873882055282593, -1.3175798654556274, -0.7945774793624878], [-1.650134801864624, -1.462875247001648, -0.07424892485141754, -0.003423132002353668, 0.045650579035282135, 0.31169450283050537, -0.13869762420654297, 0.7172934412956238, -0.46283191442489624, -0.877741813659668, 4.012024402618408, 0.2773141860961914, -0.10202768445014954, 0.020406560972332954, -0.09921839833259583, 0.09235814213752747, -0.21885451674461365, 3.904987335205078, 0.43015387654304504, 0.019651664420962334, 0.19764123857021332, -0.023172812536358833, 0.009655834175646305, -0.22927041351795197, 0.132369726896286, -0.03187452256679535, -0.060367368161678314, -0.2965945601463318, 0.05684280022978783, 0.44396543502807617, 0.11492843925952911, 0.11286903917789459, -0.02164757251739502, -0.6046954393386841, -0.054101958870887756, 0.19355766475200653, -0.5090802311897278, 0.07188671082258224, 0.06974529474973679, 0.09362321346998215, -0.5395694375038147, 0.22180353105068207, -0.52569979429245, -0.2144753485918045, -0.08910088986158371, 0.3692696690559387, 0.29630404710769653, 0.18614579737186432, 0.3713917136192322, 0.17000004649162292, -0.44676071405410767, -0.008044805377721786, 0.25624480843544006, -0.8123744130134583, 0.05074888840317726, -0.20471543073654175, 0.33929112553596497, 0.2695809006690979, 0.342597633600235, 0.0557192862033844, 0.08290605247020721, -0.10513190925121307, 0.2063901722431183, 0.3052706718444824, -0.4752238094806671, 0.16612732410430908, 0.07893867790699005, -0.03349067270755768, -0.021631896495819092, -0.3978324234485626, -0.44913730025291443, 0.2710190415382385, 0.5298002362251282, 0.32669663429260254, 0.16613605618476868, 0.5527163743972778, -0.03496282920241356, 0.8152912855148315, -0.2114216685295105, 0.1349598616361618, -0.5622289776802063, -0.08581332117319107, -0.05538705363869667, -0.5022029280662537, -0.243355855345726, 0.05885864049196243, -0.49860888719558716, 0.5837245583534241, 0.1808834820985794, 0.306793212890625, 0.05465691164135933, -0.069746233522892, -0.3662338852882385, 0.6215528249740601, 0.0030111693777143955, 0.2925640046596527, 0.17202526330947876], [-0.9736379384994507, -1.836856722831726, 0.004157327115535736, 0.013211987912654877, -0.13184894621372223, 1.213513731956482, -0.42365527153015137, -2.3378541469573975, 1.2468898296356201, 0.7585235238075256, 1.9345543384552002, 1.2074604034423828, -0.08808210492134094, -0.2444022297859192, -0.3086276352405548, -0.32718518376350403, -0.3016999661922455, 1.9577524662017822, 1.1380932331085205, -0.1887241154909134, -0.17908988893032074, -0.2977244555950165, -0.3332549035549164, -0.17076998949050903, -0.34362590312957764, 0.7244313955307007, -0.635766863822937, 0.47496700286865234, 0.8646119832992554, -0.12121984362602234, -0.8311498761177063, -0.0695403590798378, -0.520504891872406, -0.7105379700660706, 0.005216485820710659, 0.1737116426229477, -0.05174180865287781, -0.4613145887851715, -0.9657777547836304, -0.300944983959198, 0.30850034952163696, -0.052385907620191574, -0.3663235604763031, 0.11989167332649231, -0.38311079144477844, -0.6671674251556396, 0.5373291373252869, 0.49492523074150085, 0.5569806098937988, -0.4645393490791321, -0.3129808008670807, 0.16778694093227386, -0.48252853751182556, -1.2731519937515259, 2.1266143321990967, -1.0690977573394775, 0.7465794086456299, 0.7105469703674316, -0.6973576545715332, -0.33791911602020264, -0.3432290852069855, 0.48651692271232605, -0.3341176211833954, -0.35873278975486755, -0.809083104133606, -0.03531009331345558, 0.4165937900543213, -0.7537932991981506, -1.1298766136169434, 0.8490344882011414, -0.4611259400844574, -0.6820637583732605, 0.3256102502346039, -0.715435266494751, -0.0031381926964968443, -0.1805056631565094, 0.2688918113708496, 0.10541687905788422, -0.023752139881253242, -0.01567130535840988, 0.9502277970314026, 0.34541791677474976, -0.06140977889299393, 0.09456600248813629, 0.10506010800600052, 0.11257633566856384, 0.027135027572512627, 2.37363338470459, -1.1089756488800049, -0.4163108170032501, 0.40705204010009766, -1.4894914627075195, -0.10448496788740158, -1.1192865371704102, -0.4569759964942932, -1.7238056659698486, -0.10722898691892624], [-1.5080655813217163, -2.74045991897583, 0.04188758134841919, -0.013021901249885559, 0.2844850420951843, 1.727172613143921, -1.0685389041900635, 1.226858139038086, 0.2094249129295349, -0.6590490937232971, 5.570796966552734, 0.9469855427742004, 0.19692103564739227, 0.19407005608081818, 0.4721285402774811, 0.0804317444562912, 0.20643097162246704, 5.499015808105469, 0.9811737537384033, 0.1272803544998169, 0.1446317881345749, 0.4458727538585663, 0.01797989010810852, 0.39681926369667053, 0.29045259952545166, -0.5639345645904541, -0.9954289197921753, -0.17054010927677155, 0.21862222254276276, 0.3299579918384552, -0.025939056649804115, 0.7702844142913818, -0.26709604263305664, 0.5897619724273682, 0.6819941401481628, 0.04180305451154709, 0.1395961046218872, -0.0021592045668512583, 0.8457691073417664, -0.5002197623252869, 0.3380914032459259, 0.4334495961666107, -0.8481904864311218, 0.6798427104949951, -0.344206839799881, 0.5301124453544617, -0.5072336196899414, 0.15796487033367157, -0.4654085636138916, 0.17323146760463715, 0.18191704154014587, -0.10703673213720322, 0.012056509032845497, -1.1051493883132935, 0.21345773339271545, -0.5372114181518555, -0.5039408802986145, 0.3644229769706726, 0.0660601332783699, 0.3532969057559967, -0.2860565185546875, -0.1475830227136612, -0.05712619796395302, -0.517246663570404, -0.6397404670715332, -0.033643197268247604, 0.12758763134479523, 0.6423137187957764, -0.09328697621822357, 0.10190502554178238, 0.20159408450126648, 0.3384876549243927, 0.04346382990479469, 0.27861088514328003, 0.2966504395008087, 0.8897605538368225, 0.03733135759830475, 0.42901358008384705, 0.6759174466133118, 0.45685911178588867, -0.11977434903383255, -0.46780312061309814, -0.3705202043056488, -0.8117647171020508, -0.2742127478122711, -0.40496334433555603, -0.4631913900375366, 1.8043776750564575, -0.14303447306156158, 0.34031572937965393, 0.12886688113212585, -0.08741065859794617, 0.4880787134170532, 0.5581567287445068, -0.2186865657567978, 0.650956392288208, -0.4710107445716858], [-1.5093098878860474, -2.464829444885254, -0.0784381702542305, -0.04735149070620537, -0.36106958985328674, 0.5700829029083252, 0.22252331674098969, -1.8036149740219116, 0.6366317272186279, 0.3329363167285919, 1.7335165739059448, 1.2291425466537476, 0.28264832496643066, 0.4250914454460144, -0.16533221304416656, -0.23478123545646667, -0.1890302300453186, 1.710835337638855, 1.3027805089950562, 0.20080448687076569, 0.3336646556854248, -0.1600651890039444, -0.3361019492149353, -0.23423200845718384, -1.5330431461334229, -0.70554119348526, -0.9060375094413757, 0.8534890413284302, -0.8014427423477173, -1.685102939605713, -0.23047976195812225, 0.16313017904758453, -0.1539132446050644, -0.3963361382484436, 0.5207434296607971, -0.3091510236263275, -0.11667732894420624, 0.12464041262865067, -0.2221025824546814, -0.4910496473312378, -0.0032947203144431114, 0.28552675247192383, -0.3996632695198059, 0.0295089278370142, 0.1815742403268814, -0.45200279355049133, -0.3492162227630615, -0.37438875436782837, -0.345319926738739, 0.07348304241895676, -0.10448163002729416, -1.0388014316558838, -0.3733898103237152, 0.9495880603790283, 0.5345407128334045, -1.580190658569336, 0.04567256197333336, 1.7297183275222778, -0.25214147567749023, 1.120634913444519, 0.14704658091068268, -0.6252292990684509, 0.3360708951950073, -0.2856777012348175, -0.8717709183692932, 1.2945815324783325, 0.20052310824394226, -0.7490915060043335, -0.6683917045593262, -0.9892322421073914, 1.4008818864822388, -1.0955257415771484, -0.7565644979476929, -0.596531867980957, -0.27594152092933655, -0.009155936539173126, -0.17029908299446106, -0.3736562132835388, -0.02690058946609497, 0.18582990765571594, -0.21945036947727203, -1.0465706586837769, -0.2952805757522583, 0.0121611962094903, 0.3637905418872833, -0.3072625398635864, -0.023059358820319176, 0.016511937603354454, 0.039988692849874496, -0.6371111273765564, -3.187774419784546, 1.680702567100525, -0.6429539322853088, -1.065793514251709, -0.2159441113471985, 3.0594961643218994, -2.2388479709625244], [-0.5822790265083313, -3.4359652996063232, -0.01810149848461151, 0.009706228971481323, -0.46770188212394714, 0.13152386248111725, 1.113200306892395, 3.2702441215515137, 0.1624845564365387, 3.7987239360809326, 3.8558449745178223, 0.8631443977355957, 0.03759293258190155, -0.254458487033844, -0.22531943023204803, -0.23412276804447174, -0.4072646200656891, 3.888822078704834, 0.8103153705596924, 0.03841227665543556, -0.2660101652145386, -0.2543657422065735, -0.11843208223581314, -0.3420751690864563, -1.3638356924057007, 1.8128480911254883, 0.16192394495010376, -1.1753543615341187, -0.10807324200868607, 0.7596278786659241, 0.5797932744026184, 0.06315941363573074, -0.25378915667533875, -0.28933507204055786, 1.6794214248657227, -0.06844679266214371, -1.0505112409591675, 0.30326083302497864, 0.21551451086997986, -0.06484100967645645, -0.33078691363334656, 0.24098548293113708, 0.02444513514637947, 0.5528650283813477, -0.5270996689796448, 0.7675471901893616, 0.028186561539769173, -0.45559635758399963, -0.645133376121521, 0.7042756080627441, 0.7023617625236511, -0.5105055570602417, -0.37293967604637146, -0.6188448071479797, -0.41111183166503906, -1.8887780904769897, -0.08492378145456314, 0.43470919132232666, 1.5461835861206055, 1.095678687095642, 1.005286455154419, 0.628607988357544, -0.9426254630088806, 0.5020856261253357, -0.8047999739646912, -0.8247885704040527, -0.9798495769500732, 0.03626083582639694, 0.5326380729675293, 1.2096974849700928, -1.7394087314605713, -0.20231042802333832, -0.4320600926876068, 0.6636172533035278, -0.26575279235839844, 0.06823490560054779, 0.5729022026062012, -1.2955833673477173, 0.20795682072639465, 0.3840247392654419, 0.3469734787940979, -1.162454605102539, 0.21121947467327118, -0.8329659104347229, -1.3439935445785522, 1.2302830219268799, -0.41438350081443787, -0.563233494758606, 0.8921105265617371, -1.567852258682251, 1.1994526386260986, 0.01711796410381794, -0.5541464686393738, -0.2545267939567566, 0.5148892998695374, -1.4427433013916016, -0.7275486588478088], [-1.0982552766799927, -2.534991502761841, -0.046254660934209824, -0.05211225524544716, -0.4702005684375763, -1.6167926788330078, -2.148660898208618, -2.02567982673645, 0.8197851777076721, 0.4885384738445282, 3.6976940631866455, 1.4487671852111816, -0.4202653765678406, 0.09001309424638748, -0.07795215398073196, 0.1583692878484726, 0.06281598657369614, 3.757213830947876, 1.464400053024292, -0.34792906045913696, 0.1182255744934082, -0.12647858262062073, 0.12375803291797638, 0.06783481687307358, -0.3237574100494385, -0.6323815584182739, 0.01823696307837963, -0.13032908737659454, 0.20681244134902954, 0.7109297513961792, -0.24305588006973267, 0.4790143370628357, -0.27916887402534485, 0.8568248152732849, 0.35805001854896545, 0.32365283370018005, 0.07442361116409302, 0.7741895914077759, 0.5190132260322571, -0.37587159872055054, 0.43101757764816284, -0.012884872034192085, 0.6438543796539307, 0.1393144279718399, -0.11144915223121643, -0.08339909464120865, -0.28742021322250366, 0.24589940905570984, -0.9083784222602844, -0.27592387795448303, -0.3698107898235321, -0.7628318667411804, -1.4708307981491089, 0.35544225573539734, -0.5367065668106079, -0.35816580057144165, 0.4933311641216278, -1.2534434795379639, -0.5061402916908264, -1.1526305675506592, -1.1008466482162476, -1.1308746337890625, -0.13448329269886017, -0.04666932672262192, -0.987831175327301, 0.24229168891906738, 0.1137569323182106, 0.4177950322628021, 0.1586276739835739, -0.614251434803009, 0.41686731576919556, 1.1839312314987183, -0.06233733147382736, -0.004970096051692963, 1.11199152469635, 0.41368693113327026, -0.09444167464971542, 0.16075445711612701, -1.0206072330474854, -0.2232092320919037, 0.6156740188598633, -0.013603360392153263, -0.7079921364784241, -0.45960351824760437, 0.039124611765146255, -1.1188366413116455, 1.1641439199447632, -1.558232069015503, -0.5344867706298828, -0.05600516498088837, 2.4583115577697754, 1.3706088066101074, 1.290854811668396, -0.5551841855049133, -1.710655927658081, -2.9671614170074463, 1.279781699180603], [-0.4676901698112488, -1.0239653587341309, 0.03479878604412079, 0.06661012768745422, -0.31155553460121155, 4.149198055267334, -0.4207366406917572, -0.5011863112449646, -0.4403718411922455, 2.137253761291504, 0.710200309753418, 0.564665675163269, 0.1501978039741516, 0.18587623536586761, -0.09827513247728348, -0.29221630096435547, 0.1361224353313446, 0.5570399761199951, 0.5631439685821533, 0.12074662744998932, 0.2052515298128128, -0.06890443712472916, -0.211458221077919, 0.2323959469795227, 0.4396078586578369, 1.8058936595916748, 0.768002450466156, 0.45277002453804016, 0.48363861441612244, -0.943071722984314, 0.25017285346984863, 0.1124359592795372, -0.4825400114059448, -0.2711299955844879, 0.057935819029808044, -0.04306856170296669, 0.11854182183742523, -0.08399225771427155, 0.21660910546779633, -0.5537084341049194, -0.5746968388557434, 0.7133774757385254, -0.2067769169807434, 0.1803026646375656, -0.2129189670085907, 0.2695906162261963, -0.500819742679596, -0.28553256392478943, -0.4601131081581116, -0.17402024567127228, 0.2562982439994812, -0.2567026615142822, 1.5770996809005737, -0.5555363893508911, -0.1391797810792923, -0.5300863981246948, -1.264545202255249, 1.3098459243774414, -1.4634478092193604, -0.5716575384140015, -0.9924654364585876, -0.9857240915298462, 0.09992269426584244, -0.8128194212913513, 0.2671458423137665, -1.092631220817566, -0.04698863625526428, 0.1002364531159401, 0.15200230479240417, -1.0106945037841797, 1.1635181903839111, -0.5661696195602417, 0.1473432183265686, 1.1519298553466797, -0.16655409336090088, 0.7170141339302063, 1.11643385887146, 0.8900598287582397, 0.6829557418823242, 0.20309904217720032, 0.4049626886844635, 0.323540598154068, -0.05698484927415848, 0.20362912118434906, 0.35203659534454346, 0.35326555371284485, 0.32413652539253235, 0.3943166136741638, -0.2669014036655426, 1.3742258548736572, -0.8264881372451782, 0.4026281237602234, -0.22740773856639862, 0.513953447341919, -0.5106865763664246, -2.0588669776916504, 0.2415752112865448], [1.4029651880264282, -3.179903507232666, -0.012187071144580841, 0.07322922348976135, 0.6378030776977539, 1.9734077453613281, -0.7562047839164734, -2.9602789878845215, -1.7353179454803467, 1.7137926816940308, 3.218097448348999, -0.04947609454393387, -0.353991836309433, -0.11493147909641266, -0.4361394941806793, -0.2321343719959259, -0.8658139109611511, 3.158433198928833, -0.044125139713287354, -0.436785489320755, -0.11956542730331421, -0.31806614995002747, -0.16681355237960815, -0.9291343092918396, 0.8245824575424194, -0.010775561444461346, -0.41519418358802795, -1.2274836301803589, 0.8043279647827148, 0.10560519993305206, -0.599532425403595, -0.9491658210754395, -0.21745294332504272, -0.023068130016326904, -0.026614559814333916, 0.1573258340358734, 0.2288796752691269, 0.0002568602794781327, -0.8928155303001404, 0.001982111716642976, 0.11752612143754959, -0.1741746962070465, 0.3821304738521576, 0.02981754019856453, 0.6333314776420593, -0.347064346075058, -0.25753358006477356, 0.2714380919933319, -0.7406098246574402, -0.4046531319618225, -0.6034996509552002, 0.4095483720302582, 0.22774143517017365, -0.7906537055969238, -0.5146757364273071, 1.0700290203094482, -0.9238247871398926, -0.8285772800445557, -0.13161487877368927, -1.6029942035675049, -0.6820564270019531, -0.8993520140647888, -0.5082584023475647, -0.62110835313797, -0.8215625286102295, -0.14120543003082275, -0.30757850408554077, -0.5161988139152527, -0.5470765829086304, -0.9131053686141968, -0.7549788951873779, 0.6244896054267883, -0.2408488690853119, 0.0159172210842371, 0.3226025700569153, 0.1634395271539688, 0.6612913608551025, -0.42502307891845703, 0.11253124475479126, 0.15447735786437988, 0.13212648034095764, 0.379740446805954, -0.35830527544021606, 0.34638869762420654, 0.27460065484046936, -0.010155776515603065, -0.5203299522399902, 1.3698853254318237, -1.353370189666748, 0.5135149359703064, -0.2878609001636505, -1.8090027570724487, 0.34777364134788513, -0.2897118628025055, -0.7925837635993958, -1.8302303552627563, -0.9549037218093872], [-1.2768886089324951, -1.7245763540267944, -0.011665888130664825, 0.001332797110080719, 0.2721877694129944, -0.18733012676239014, -0.9965311884880066, 0.09569571912288666, -0.4796707034111023, 0.29258066415786743, 4.7290215492248535, 0.8466334342956543, 0.3255537748336792, 0.3151816129684448, -0.03498135134577751, 0.196298748254776, 0.12029055505990982, 4.907126426696777, 0.742478609085083, 0.17159105837345123, 0.32960784435272217, -0.09903419017791748, 0.13582785427570343, 0.12988530099391937, 0.14555814862251282, -0.7893178462982178, -0.03406878560781479, 0.18069112300872803, -0.25835540890693665, 0.0835239440202713, -0.0032642295118421316, 0.4998675584793091, -0.18136613070964813, 0.300633043050766, -0.052034396678209305, 0.02299150452017784, 0.09600337594747543, 0.0049498979933559895, 0.46110427379608154, -0.18987815082073212, -0.2391999363899231, -0.04753431677818298, 0.24270494282245636, -0.08028960227966309, -0.48349127173423767, 0.1246352344751358, -0.3249320387840271, -0.22116784751415253, -0.10140163451433182, 0.41168272495269775, 0.3921474814414978, -0.19810475409030914, -0.07603752613067627, -0.43682631850242615, -0.12583403289318085, -0.2383178025484085, 0.4075336158275604, -0.2925121486186981, 0.2980465292930603, 0.1971253603696823, -0.7470954656600952, 0.23474571108818054, -0.860600471496582, 0.008634544909000397, -0.005345031153410673, -0.3372277319431305, 0.7218257188796997, -0.199666827917099, 0.2170247733592987, 0.3544677197933197, 0.09995435923337936, 0.19797968864440918, -0.20756956934928894, 0.20075200498104095, 0.36557459831237793, 0.8379788994789124, 0.40877223014831543, 0.18689487874507904, 0.23455047607421875, 0.5078845620155334, -0.10268666595220566, -0.6524689793586731, -0.4306381940841675, -0.4344443082809448, -0.5573258996009827, -0.4338538348674774, -0.4146435558795929, 0.5610023140907288, 0.14988142251968384, 0.7776483297348022, -0.3829980790615082, 0.31298166513442993, -0.1062883511185646, 0.5125462412834167, -0.24421578645706177, 0.996207594871521, -1.0724966526031494], [0.7754876613616943, -1.564331293106079, -0.06623799353837967, 0.06711751222610474, -0.2755211293697357, -0.6538711786270142, 1.1187450885772705, 1.8282251358032227, 0.2511196732521057, 1.828365683555603, 2.9509100914001465, 0.02643803507089615, -0.057615015655756, -0.27149495482444763, -0.18077896535396576, -0.40820175409317017, -0.3497895300388336, 2.863637924194336, -0.10443887859582901, -0.0713554099202156, -0.31640952825546265, -0.22868500649929047, -0.4083210229873657, -0.30715563893318176, -0.7619157433509827, -0.21897414326667786, -1.6745256185531616, 0.38125598430633545, -0.521680474281311, -0.030932143330574036, 0.07660414278507233, 0.4027545154094696, -0.2805107831954956, 0.1084771454334259, 0.0537828765809536, 0.1395793855190277, -0.09382648766040802, -0.14694081246852875, 0.5024604201316833, -0.2638155221939087, -0.11498101055622101, 0.008796467445790768, -0.16003306210041046, -0.1931828111410141, 0.09407723695039749, -0.5199854373931885, -0.15647068619728088, -0.5797568559646606, -0.06851764768362045, -0.6054803133010864, 0.1823321133852005, -0.5385033488273621, -0.10960270464420319, -1.1984878778457642, 0.7147542834281921, -0.9327501654624939, -0.3720608651638031, -0.2519344389438629, -0.711176872253418, 0.9026601314544678, -0.4786455035209656, -0.9654274582862854, 0.8259219527244568, -0.2912197709083557, 0.39140060544013977, 0.3314424753189087, -0.4458760619163513, 0.08811286091804504, -0.11862893402576447, -0.8661516904830933, 1.3066673278808594, -0.9684617519378662, 0.7360086441040039, -0.32443100214004517, -0.26699215173721313, 0.2990090847015381, 0.2294783592224121, -0.2232876420021057, -0.5948050022125244, -0.8423303961753845, 0.4252902567386627, -0.965374231338501, 0.2848593592643738, -0.18576239049434662, -0.49640366435050964, -0.2895147204399109, 0.39969462156295776, -1.5569664239883423, 1.995735764503479, -1.7173255681991577, 1.3864233493804932, -0.15518027544021606, -0.9042419195175171, -1.836082935333252, -0.38807833194732666, 0.4299905002117157, 0.19215211272239685], [-1.4995051622390747, -1.9791072607040405, -0.0944538563489914, -0.055671337991952896, 0.3682878613471985, 0.6524503827095032, -1.360005497932434, -0.5541317462921143, -0.35295382142066956, 0.03351818770170212, 4.542445659637451, 0.5870299935340881, 0.15120558440685272, 0.08239073306322098, -0.059312980622053146, 0.0918928012251854, -0.031683579087257385, 4.538219928741455, 0.6291324496269226, 0.27606087923049927, 0.09126458317041397, 0.06451195478439331, -0.010121754370629787, 0.07241477817296982, 0.1174333468079567, 0.5759896636009216, -0.22229649126529694, -0.24884147942066193, 0.13421498239040375, 0.6629790663719177, -0.7695281505584717, 0.2112080603837967, -0.26693081855773926, 0.1436338573694229, 0.2906975746154785, -0.0676727369427681, -0.06720206141471863, -0.03154080733656883, -0.3158344626426697, -0.14133627712726593, -0.2358035296201706, 0.21162018179893494, -0.14461325109004974, -0.14949336647987366, -0.1890811175107956, 0.2180262804031372, -0.28793931007385254, -0.22385865449905396, 0.2209450602531433, 0.18413634598255157, 0.30548545718193054, 0.2580280005931854, 0.15680576860904694, -0.7879081964492798, -0.007520739920437336, -0.4198479950428009, 0.19546474516391754, 0.0327075831592083, -0.4559065103530884, 0.5276971459388733, -0.783415675163269, -0.10907196253538132, 0.33619987964630127, -0.6691511869430542, -0.11703608185052872, 0.003860040567815304, 0.14500398933887482, 0.23281706869602203, -0.09282273054122925, 0.26877275109291077, 0.12274136394262314, 0.04020979255437851, 0.3775997757911682, 0.46324101090431213, 0.30302590131759644, 0.47388362884521484, 0.1409250795841217, 0.20696628093719482, -0.1659550964832306, 0.6699895262718201, -0.37360841035842896, -0.317171186208725, -0.1193913146853447, -0.7845325469970703, 0.09496285021305084, -0.22052212059497833, -0.5491973161697388, 1.3656882047653198, -0.1763528287410736, 0.09658735990524292, 0.38983356952667236, -0.22036084532737732, 0.05586547404527664, 0.41780760884284973, 0.469586044549942, 0.36918920278549194, 0.047652002424001694], [-4.382164001464844, -0.8637712597846985, -0.01841995120048523, 0.07080258429050446, 0.29949256777763367, 2.238175630569458, 0.6274481415748596, 0.04207088053226471, -0.9982725381851196, -1.3641647100448608, 1.7223544120788574, 0.34868869185447693, -0.006348673719912767, -0.10449182242155075, 0.05560891330242157, -0.018598562106490135, 0.2876080870628357, 1.8006186485290527, 0.38067927956581116, 0.049736715853214264, -0.10118383914232254, 0.16991026699543, 0.05461251735687256, 0.30976253747940063, -1.5173500776290894, 0.5257763862609863, -0.6357385516166687, 0.24306508898735046, -0.35100841522216797, 0.2301737666130066, -1.1540791988372803, 0.3959735333919525, -0.22046130895614624, 0.07963377237319946, -0.23077520728111267, -0.41118577122688293, 0.075404092669487, -0.4738505780696869, 0.023293374106287956, -0.4297059178352356, 0.1629154235124588, 0.010774645954370499, -0.29587024450302124, -0.5368139147758484, -1.1959718465805054, -0.5569505095481873, -0.05120494216680527, -0.11406578123569489, 0.6106176376342773, 1.4951865673065186, -0.21217036247253418, 1.397413730621338, -0.8217795491218567, -2.290158271789551, -0.6520087718963623, 0.6390093564987183, -0.19664879143238068, 0.6491252183914185, -0.15161475539207458, -0.05200458690524101, -0.35637351870536804, -0.0017103193094953895, 0.9440209269523621, -1.08870267868042, -0.4835900366306305, 0.6443804502487183, -0.573265016078949, 0.4989457130432129, -0.8943919539451599, -2.401416063308716, 0.4977438747882843, -0.23099714517593384, 0.11580769717693329, -0.350369393825531, 0.9515002965927124, -0.05291903764009476, 1.1978950500488281, -0.12300921976566315, 0.5695628523826599, 0.5768921375274658, -0.23781144618988037, 0.642714262008667, -0.3413097560405731, -0.259700208902359, 0.6064549088478088, 0.06673868745565414, -0.20573613047599792, 1.6777740716934204, -0.6675965785980225, 0.6572744846343994, -2.6658904552459717, 1.4339932203292847, 0.07831162214279175, 0.31465959548950195, 0.03041340410709381, 1.2507200241088867, -0.6823471784591675], [-2.3067824840545654, -2.338602304458618, 0.004224888980388641, 0.02577771246433258, -0.9221504926681519, 0.4214172959327698, -0.9007818102836609, 0.11215610057115555, 0.13057927787303925, 2.231229782104492, 2.1182432174682617, 0.7178847193717957, -0.13398338854312897, -0.2776447832584381, 0.21055610477924347, -0.10146842151880264, -0.2068794071674347, 2.121863603591919, 0.6007742285728455, -0.139444962143898, -0.2632198631763458, 0.2315130978822708, -0.11049895733594894, -0.24840904772281647, 0.8613737225532532, 1.9455769062042236, -0.7367087006568909, 0.5058374404907227, -1.1952667236328125, -1.1163989305496216, -0.3961861729621887, -0.028197329491376877, -0.6236132383346558, 0.7964981198310852, 0.8146724104881287, -0.10907655954360962, -0.04532022401690483, 0.7703818082809448, -0.42299413681030273, -0.25212445855140686, 0.636040210723877, 0.074797622859478, -0.1755538284778595, 0.7453170418739319, 0.8480732440948486, -0.15973183512687683, -0.3441241383552551, 0.2791481614112854, -0.14739151298999786, 0.06325048953294754, 0.5969803333282471, -0.2783724367618561, -0.754844069480896, -0.6474761366844177, -1.6770973205566406, -1.615896224975586, -1.1110801696777344, 1.2025705575942993, -2.143545150756836, 0.2550088167190552, 0.2652721703052521, 0.48805901408195496, 1.4991198778152466, -0.5191354155540466, -1.2728984355926514, 1.7881511449813843, 0.46817296743392944, -1.423649549484253, 0.08123863488435745, 0.12883181869983673, -1.5675928592681885, 0.4497292935848236, -1.4929274320602417, 0.4275345504283905, 0.3187340795993805, -0.21837235987186432, 0.8849652409553528, 0.6037625670433044, -0.2525639235973358, 0.6330614686012268, 0.10001231729984283, -0.7211313843727112, -1.0004067420959473, -0.10010168701410294, 0.7069077491760254, -0.1192067563533783, 0.2484395056962967, 0.32590237259864807, 2.2125720977783203, 1.7793362140655518, -0.9316250085830688, -3.3913774490356445, -0.111897312104702, -1.197298526763916, -0.037198204547166824, -1.3752094507217407, 2.0821101665496826], [-3.1899971961975098, -1.8572956323623657, 0.08663222193717957, -0.08995933830738068, -0.10575037449598312, 0.7258340120315552, -0.08705191314220428, -0.7389392852783203, -1.4255647659301758, -3.2796263694763184, 2.1953842639923096, 0.6892155408859253, 0.16721142828464508, -0.09055997431278229, 0.15030980110168457, 0.20690633356571198, -0.02590603195130825, 2.3548715114593506, 0.7780065536499023, 0.21399693191051483, 0.06279653310775757, 0.028133582323789597, 