{"model_type": "MarioMLP", "state_dict": {"net.0.weight": [[0.6844123601913452, 0.21255876123905182, 0.08156274259090424, -0.09804201126098633, 0.05136343836784363, 0.5901011228561401, 0.24412669241428375, -1.2436336278915405, 0.1397140920162201, -0.2809957265853882, 0.04142443463206291, 0.10237811505794525, 0.03334635868668556, -0.02398226596415043, -0.05529095232486725, 0.1304141879081726, -0.3999130129814148, 0.17562039196491241, 0.2187347710132599, -0.020589809864759445, -0.07273735851049423, 0.04658019542694092, -0.2612491846084595, -0.17195627093315125, 0.07658639550209045, -0.3342337906360626, 0.1034688800573349, 0.15827777981758118, 0.5750678181648254, -0.04890737310051918, -0.06143531948328018, -0.05954572185873985, 0.029215741902589798, -0.05711410939693451, -0.40186601877212524, -0.13481667637825012, -0.06749992072582245, 0.07262402772903442, 0.0385858379304409, -0.23619994521141052, 0.020341085270047188, -0.13313181698322296, 0.2842852473258972, 0.0418093279004097, -0.2580863833427429, 0.19070997834205627, 0.13910728693008423, 0.15220344066619873, 0.21630316972732544, 0.31076446175575256, -0.4504927694797516, 0.2144382745027542, 0.5335158109664917, -0.06077636033296585, -0.43429914116859436, -0.018072159960865974, -0.44570255279541016, -0.3020157814025879, -0.04636015743017197, 0.10360999405384064, 0.02828281559050083, -0.024988647550344467, -0.01183166354894638, 0.39733338356018066, -0.23364244401454926, 0.07807603478431702, 0.12575049698352814, 0.2576707601547241, 0.011493008583784103, -0.6284782886505127, -0.286642849445343, 0.047242097556591034, -0.14452894032001495, -0.09799378365278244, 0.001135349739342928, -0.010178246535360813, 0.31349098682403564, 0.10037169605493546, 0.09296058863401413, -0.057087551802396774, 0.04257892817258835, 0.4531945288181305, -0.1085277870297432, 0.11693397909402847, -0.5656356811523438, 0.39068928360939026, 0.3442871570587158, -1.2350062131881714, -0.2782435417175293, -0.6431106925010681, 0.035031650215387344, 0.24219700694084167, 0.11686908453702927, -0.755609929561615, 0.29880255460739136], [0.052681539207696915, 0.06408395618200302, 0.06835493445396423, 0.09417273104190826, -0.07180081307888031, -0.2968117892742157, 0.11841272562742233, -0.72465580701828, -0.1072206199169159, -0.1499100923538208, -0.006970633752644062, -0.14247700572013855, -0.14412835240364075, 0.045658212155103683, -0.017006736248731613, -0.15926964581012726, -0.13066405057907104, 0.1413825899362564, -0.12825247645378113, -0.1585603952407837, 0.05326508730649948, 0.024791928008198738, -0.14612118899822235, 0.22323600947856903, -0.6841702461242676, 0.5778855085372925, -0.6584503054618835, -0.5510825514793396, 0.3068752884864807, 0.12538078427314758, -0.10366969555616379, -0.21701936423778534, -0.09456254541873932, 0.0007268848130479455, -0.06908213347196579, -0.3200581967830658, 0.23794403672218323, -0.11841769516468048, -0.15579669177532196, 0.08540262281894684, -0.1858396828174591, -0.18993940949440002, -0.33562782406806946, 0.05160873383283615, -0.14911718666553497, -0.28094276785850525, -0.15821132063865662, 0.5765912532806396, 0.31751906871795654, -0.48240765929222107, -0.25314095616340637, -0.020316224545240402, 0.06847978383302689, 0.06845319271087646, 0.2073030173778534, 0.33635127544403076, 0.06849028915166855, -0.015424220822751522, 0.2578144371509552, -0.08149314671754837, -0.02225843444466591, -0.3527625799179077, -0.2486961930990219, 0.3069857954978943, -0.15044547617435455, -0.1683204472064972, -0.22455602884292603, 0.028865592554211617, -0.33644911646842957, 0.09379035979509354, 0.13090084493160248, -0.051377713680267334, 0.19658470153808594, 0.09502091258764267, 0.1021447405219078, 0.34265440702438354, -0.005432576406747103, -0.4284604489803314, 0.1668730229139328, -0.4466797709465027, 0.3935641050338745, 0.18583944439888, -0.005598727148026228, 0.4593367576599121, -0.29174381494522095, 0.5883893966674805, -0.4260022044181824, -0.3242049813270569, -0.09650468826293945, -0.03369821980595589, -0.17491161823272705, -0.11058957129716873, -0.14966841042041779, -0.2691613435745239, 0.3519153892993927], [0.6206082701683044, 0.9223567247390747, -0.0703936368227005, -0.02772461622953415, -0.05168995261192322, 0.38423386216163635, -0.30370816588401794, 1.5798834562301636, -0.002767303492873907, 0.25256386399269104, -0.15543368458747864, -0.07907840609550476, -0.17501772940158844, 0.22970466315746307, 0.0700979009270668, 0.07794461399316788, 0.22734124958515167, -0.18943309783935547, -0.12016419321298599, -0.1415664106607437, 0.10828107595443726, 0.137327179312706, 0.061291348189115524, -0.5061115026473999, 0.25588467717170715, -0.1787077635526657, -0.007097151130437851, -0.21126589179039001, 0.06615754216909409, 0.2907060980796814, 0.06861907988786697, -0.01313844881951809, -0.13438528776168823, 0.1677759289741516, 0.17131511867046356, -0.1651240438222885, 0.2091795802116394, 0.13344138860702515, -0.04458513483405113, 0.03829832002520561, 0.21643279492855072, -0.2838706970214844, -0.1748875379562378, 0.23437008261680603, 0.35120049118995667, -0.04957703500986099, 0.04333944618701935, 0.5008440613746643, 0.015475137159228325, -0.07090214639902115, 0.1131347194314003, 0.3236354887485504, -0.5001332759857178, -0.5107134580612183, 0.13724350929260254, 0.4813607335090637, -0.05110873654484749, -0.060217391699552536, 0.07479982823133469, 0.10959908366203308, -0.34950628876686096, -0.19593316316604614, 0.2502720057964325, 0.18361733853816986, -0.16043630242347717, -0.35758548974990845, -0.24911849200725555, 0.26836028695106506, -0.23032255470752716, -0.2415066510438919, -0.20080745220184326, -0.07978549599647522, 0.2839530110359192, 0.2418813705444336, 0.14822380244731903, 0.1384732574224472, -0.051894236356019974, 0.04029880091547966, -0.35575637221336365, 0.7435551285743713, 0.42072170972824097, -0.2827815115451813, 0.010427887551486492, -0.42024144530296326, 0.043991584330797195, 0.572317361831665, -0.26869964599609375, 1.1062759160995483, 0.10953079909086227, 0.4696201980113983, -0.06384789198637009, -0.27375978231430054, 0.4451766908168793, -0.00953990500420332, 0.19162946939468384], [0.1633804887533188, -0.013686788268387318, 0.02121855318546295, -0.060373201966285706, 0.005654431879520416, 0.08719063550233841, -0.39496317505836487, -1.5419085025787354, 0.07468583434820175, 0.2820683419704437, -0.04244379699230194, 0.0587553046643734, 0.05496528744697571, -0.06939175724983215, -0.20705284178256989, 0.11264745891094208, 0.1622602343559265, -0.05843812972307205, 0.009801065549254417, 0.05043046176433563, -0.017177488654851913, -0.1735122948884964, 0.4875798523426056, 0.6124676465988159, -0.33724746108055115, 0.24657343327999115, -0.4193855822086334, 0.1522218883037567, 0.3902164697647095, -0.22858531773090363, -0.06488310545682907, 0.0447147935628891, -0.008594054728746414, 0.2533562183380127, 0.031615328043699265, 0.02145911380648613, -0.044027943164110184, -0.05734257400035858, -0.18338945508003235, 0.2880626618862152, 0.08628345280885696, 0.14612512290477753, 0.19072428345680237, -0.21419395506381989, -0.17795227468013763, 0.10797347873449326, -0.07037726789712906, 0.07571860402822495, -0.1742974817752838, -0.27412405610084534, -0.49538129568099976, -0.8493365049362183, 0.3622312843799591, 0.0700606033205986, -0.18905659019947052, 0.1799657940864563, 0.24257493019104004, 0.2487189769744873, 0.11424943804740906, 0.047156788408756256, -0.8052739500999451, 0.06855781376361847, -0.3193075358867645, -0.2989853024482727, -0.16970957815647125, 0.12159479409456253, -0.3121987581253052, -0.39184778928756714, -0.36357811093330383, -0.27905911207199097, 0.4892929494380951, -0.057402923703193665, -0.6714991927146912, -0.612637996673584, -0.30268701910972595, -0.13340164721012115, 0.022048505023121834, -0.22300487756729126, 0.34535589814186096, 0.5752085447311401, 0.03516062721610069, 0.14460580050945282, 0.33850929141044617, -0.24614451825618744, 0.17795459926128387, -0.3441813588142395, 0.6485593318939209, -0.23883730173110962, 0.042834844440221786, -0.10378077626228333, 0.12857291102409363, -0.22770364582538605, 0.12386257201433182, 0.10473626852035522, 0.08125948160886765], [0.946622371673584, 0.27845674753189087, 0.07134266197681427, 0.09040391445159912, -0.08377303183078766, 0.07398863136768341, -0.2874891757965088, 0.875555157661438, -0.09046240895986557, 0.0755229964852333, 0.030416788533329964, -0.034661609679460526, -0.09635543823242188, -0.1146649569272995, 0.018602563068270683, -0.10697146505117416, 0.12552303075790405, 0.018932854756712914, -0.15017883479595184, 0.07718603312969208, -0.11134493350982666, 0.10039333999156952, 0.19785843789577484, -0.07533417642116547, 0.566774308681488, -0.7305466532707214, 0.039871130138635635, -0.11573933064937592, 0.2411731481552124, -0.28237760066986084, -0.07081817835569382, -0.06498311460018158, -0.07113894075155258, 0.3388270437717438, -0.22110989689826965, -0.09366383403539658, -0.34224826097488403, 0.020912673324346542, -0.05920441448688507, 0.0031271909829229116, 0.2224661260843277, -0.27120649814605713, -0.019410599023103714, 0.2948947548866272, -0.14728571474552155, -0.06072240322828293, -0.0983835980296135, -0.08434294164180756, -0.22543510794639587, -0.2080005705356598, -0.016257269307971, 0.3216750919818878, 0.6546815633773804, -0.30496832728385925, 0.34032729268074036, 0.1086718812584877, -0.46158871054649353, -0.13545796275138855, -0.1631060391664505, 0.12917973101139069, 0.1519230753183365, -0.032622624188661575, -0.025792820379137993, -0.3185150623321533, -0.39854177832603455, 0.21048519015312195, -0.09012267738580704, 0.24967685341835022, -0.2766752243041992, 0.1437883824110031, 0.2805018723011017, 0.08396153897047043, -0.06568726897239685, -0.2444097250699997, -0.20615226030349731, -0.560890793800354, -0.237954244017601, -0.054784346371889114, 0.05790567770600319, 0.37610694766044617, 0.03642643243074417, -0.002366388915106654, 0.32329893112182617, -0.308421790599823, 0.3313223123550415, -1.2619848251342773, 0.5305333733558655, -0.4774331748485565, 0.04596235975623131, -0.8106420040130615, -0.11722572147846222, -0.38013097643852234, -0.1441565603017807, 0.21074923872947693, 0.308157354593277], [0.8207457661628723, 0.24947406351566315, -0.013216085731983185, 0.02903936803340912, 0.027917221188545227, 0.3687661290168762, 0.04149609059095383, 0.6600247025489807, 0.21947245299816132, 0.18270713090896606, -0.07084339112043381, 0.012026790529489517, -0.04835859313607216, 0.024813992902636528, -0.025353875011205673, 0.13980348408222198, 0.021394018083810806, -0.19512724876403809, 0.04474670812487602, -0.004093109630048275, 0.0857400968670845, -0.08131487667560577, -0.24602341651916504, -0.41378653049468994, 0.039881106466054916, -0.042650867253541946, -0.1565045267343521, -0.2604562044143677, -0.45533767342567444, 0.06332564353942871, 0.21886689960956573, 0.20419320464134216, -0.12153227627277374, -0.040574103593826294, 0.10489249974489212, 0.0029023298993706703, 0.0008974813972599804, 0.2679010033607483, 0.1325722485780716, -0.05731193348765373, 0.05669531226158142, -0.049463845789432526, 0.10033100098371506, -0.1410984843969345, 0.38568782806396484, 0.07493022829294205, -0.21792128682136536, 0.017093949019908905, -0.10956757515668869, -0.1851212978363037, 0.18658959865570068, -0.5968001484870911, -0.21543864905834198, -0.5032483339309692, 0.5914474725723267, -0.7101054191589355, 0.09405462443828583, -0.14416785538196564, -0.6119204759597778, 0.15066733956336975, -0.10669758915901184, -0.03902226313948631, 0.2666676938533783, -0.35867008566856384, 0.11878800392150879, 0.4186215102672577, 0.22059215605258942, -0.1575637012720108, -0.19905777275562286, 0.16733990609645844, -0.6410737633705139, 0.13972218334674835, -0.02237391658127308, 0.11632786691188812, -0.18791930377483368, 0.22730937600135803, 0.2693944275379181, -0.1286829113960266, 0.07777690142393112, -0.027650844305753708, -0.011849148198962212, -0.44955119490623474, -0.17379985749721527, -0.43366196751594543, 0.5874862670898438, 0.2990760803222656, -1.2022695541381836, 0.8314335942268372, 0.4060709476470947, -0.14147314429283142, 0.3544727861881256, -0.12571515142917633, -0.3321722149848938, -0.41955214738845825, 0.07758016139268875], [0.8134682774543762, 0.8711437582969666, 0.08093918859958649, 0.07496634125709534, 0.09807591140270233, -0.15312311053276062, 0.002231891732662916, 0.08606486767530441, 0.32194867730140686, 0.15526077151298523, 0.08947639912366867, 0.07066082209348679, -0.05017454922199249, -0.048208076506853104, -0.08441033214330673, 0.4080738127231598, 0.1980648636817932, 0.015177310444414616, 0.0677991583943367, 0.07917186617851257, 0.001246878644451499, -0.2313985973596573, -0.004839637316763401, 0.40699639916419983, -0.06094061955809593, -0.0025643797125667334, -0.03109416365623474, -0.3535933792591095, 0.17305931448936462, -0.3917299509048462, 0.007554823067039251, 0.11473490297794342, 0.08196111768484116, -0.3313562870025635, 0.06361348927021027, 0.1404188722372055, 0.14393556118011475, 0.13044771552085876, 0.2082614302635193, 0.1235165223479271, 0.13078774511814117, 0.041667815297842026, 0.06339443475008011, -0.2887730598449707, 0.2315940260887146, -0.1870242804288864, 0.034045036882162094, 0.2987634539604187, -0.1712389886379242, 0.06646226346492767, -0.27660074830055237, -0.00859866477549076, -0.42716091871261597, -0.1557990163564682, 0.0702982023358345, 0.2827920615673065, 0.17940187454223633, -0.043580856174230576, -0.08132641762495041, -0.33546915650367737, -0.4357042908668518, -0.3586866855621338, -0.237138032913208, 0.047642599791288376, 0.10626119375228882, -0.46024197340011597, 0.29183724522590637, -0.31927797198295593, -0.16728752851486206, -0.24667590856552124, -0.04092209041118622, 0.299968957901001, -0.2648325562477112, -0.032288603484630585, 0.05629725009202957, 0.25468069314956665, -0.4772931635379791, 0.04386065900325775, 0.14859537780284882, 0.19265727698802948, -0.18561601638793945, -0.398389607667923, -0.14302761852741241, 0.028927013278007507, -0.08738110959529877, 0.7701321840286255, -1.2478870153427124, 1.177175760269165, 0.4776969254016876, 0.6687645316123962, -0.3212319314479828, 0.06277375668287277, -0.5091536641120911, -0.21781760454177856, -0.03608255088329315], [-0.12354172766208649, -0.5279167294502258, -0.06510253250598907, 0.08915786445140839, 0.007243886590003967, -0.05769205093383789, -0.5340778231620789, -0.8239181637763977, 0.03663526475429535, -0.3674522638320923, 0.011957340873777866, 0.10773047059774399, -0.0442204624414444, 0.11805520206689835, -0.22928568720817566, 0.05152996629476547, -0.43069392442703247, -0.04437045753002167, 0.032931990921497345, -0.008534332737326622, 0.0804777517914772, -0.1429564654827118, 0.04556070268154144, 0.0873023197054863, 0.2108945995569229, 0.0020737801678478718, -0.502921462059021, 0.038633108139038086, -0.07754860073328018, -0.16416826844215393, -0.2774750888347626, -0.03670347109436989, 0.14034146070480347, 0.06966421008110046, 0.07766691595315933, -0.12267894297838211, -0.055808864533901215, -0.11850228905677795, 0.01293257437646389, 0.25128939747810364, 0.05926339700818062, 0.13979987800121307, -0.05866965278983116, -0.49925801157951355, 0.02017381228506565, -0.10822691023349762, 0.016111355274915695, -0.198866069316864, -0.312448650598526, 0.8747969269752502, 0.3399178087711334, 0.267598032951355, -0.24737614393234253, -0.19588947296142578, 0.5677453279495239, -1.0696206092834473, 0.46805211901664734, -0.09281542897224426, 0.17164140939712524, 0.2328229546546936, -0.40509629249572754, -0.33320313692092896, 0.2911646068096161, -0.0948796421289444, -0.10103444010019302, -0.15987466275691986, 0.08515912294387817, -0.17384468019008636, -0.09327883273363113, 0.38121676445007324, -1.0088545083999634, -0.201984703540802, -0.2308005392551422, -0.10350410640239716, 0.085847869515419, -0.22720687091350555, -0.22743302583694458, -0.13482382893562317, 0.3619101047515869, -0.2711207866668701, 0.19518013298511505, 0.08351629972457886, 0.001681119785644114, 0.18012461066246033, -0.2745964825153351, -1.074823021888733, 0.24844028055667877, 0.21276827156543732, -0.33777618408203125, 0.18811863660812378, 0.36865606904029846, -0.501430869102478, 0.23995697498321533, -0.2236514836549759, -0.5530523061752319], [-0.09781128168106079, 0.6611223816871643, 0.07117533683776855, 0.08255238831043243, 0.05990546941757202, -0.2147742062807083, 0.3353648781776428, 0.32473164796829224, -0.09631577879190445, 0.17516818642616272, -0.14672642946243286, -0.006976748816668987, -0.009148195385932922, 0.013123000971972942, 0.019476110115647316, 0.02120010182261467, 0.12883275747299194, -0.08467156440019608, -0.06540542095899582, -0.1113760843873024, -0.09905950725078583, -0.07692408561706543, 0.2182270884513855, 0.304624080657959, -0.5006164312362671, -0.5083868503570557, 0.05768390744924545, -0.12948425114154816, -0.328636109828949, 0.059229716658592224, -0.3993314206600189, 0.14444184303283691, -0.031459927558898926, -0.1905706375837326, -0.03294558823108673, 0.0668107196688652, 0.03806982561945915, -0.39131566882133484, -0.021304182708263397, 0.04072176665067673, -0.1266145408153534, -0.1535906046628952, -0.3904465436935425, -0.1316208690404892, -0.01800426095724106, 0.1054486557841301, -0.11958539485931396, 0.08989020437002182, 0.19210217893123627, -0.07731319963932037, -0.4010774791240692, -0.2774654030799866, 0.3429410457611084, -0.09626265615224838, 0.04563433304429054, -0.21979211270809174, 0.11633986234664917, 0.09608885645866394, 0.10071069747209549, -0.0003421070287004113, 0.13508440554141998, 0.24922311305999756, 0.3835006356239319, -0.40825721621513367, 0.06811414659023285, -0.18317440152168274, 0.016217105090618134, -0.3686918616294861, 0.05432920530438423, -0.18286123871803284, 0.25329628586769104, 0.04451451450586319, 0.252250999212265, -0.2340591549873352, 0.34370726346969604, -0.06974339485168457, -0.392745703458786, 0.2795526385307312, -0.13502775132656097, 0.13889969885349274, -0.03890763595700264, 0.2029212862253189, -0.1448618322610855, 0.2662315368652344, -0.26493972539901733, 0.3647494316101074, -0.0070356042124331, 0.4553876519203186, -0.48428359627723694, -0.051966454833745956, 0.05717143416404724, 0.12600064277648926, -0.16583018004894257, 0.2941003143787384, 0.5462462902069092], [-0.5196241140365601, 0.39804577827453613, -0.025624334812164307, -0.039957836270332336, 0.0988536924123764, -0.0889655277132988, 0.5845250487327576, -1.470245361328125, 0.32242608070373535, -0.2500348687171936, -0.21968711912631989, 0.0271596796810627, -0.16411647200584412, -0.0021727667190134525, -0.2564582824707031, 0.1467771977186203, -0.21213822066783905, -0.2293308824300766, -0.047502387315034866, -0.17228716611862183, 0.04375682398676872, -0.2156142145395279, -0.7684272527694702, -0.1822759211063385, 0.4313572347164154, -0.2679343819618225, -0.25768527388572693, 0.19442667067050934, 0.18331106007099152, 0.02223765291273594, -0.323030948638916, -0.021495014429092407, -0.17177875339984894, 0.3565174639225006, -0.33506834506988525, 0.01792283169925213, -0.1938629001379013, -0.03108871728181839, -0.08574072271585464, -0.03406083583831787, -0.022065363824367523, -0.12915609776973724, 0.2004004269838333, -0.017008604481816292, 0.09006112068891525, 0.19969239830970764, 0.33962270617485046, -0.08239708095788956, 0.1825874298810959, -0.04392780736088753, 0.025405284017324448, -0.7370826005935669, -0.21561861038208008, 0.1528065949678421, -0.041287925094366074, 0.16694773733615875, -0.2541184723377228, -0.7303969860076904, 0.11497926712036133, -0.008254584856331348, -0.11163794994354248, 0.01514377910643816, -0.847425103187561, -0.049017805606126785, -0.3222454786300659, -0.0965462327003479, 0.11058129370212555, 0.14263799786567688, 0.09838749468326569, 0.09969941526651382, -0.019089888781309128, 0.009808631613850594, 0.32803428173065186, 0.23037053644657135, 0.05466761067509651, 0.08656653016805649, -0.36875325441360474, -0.025207074359059334, -0.21535077691078186, 0.5557153820991516, 0.029250413179397583, -0.4247879683971405, -0.33656278252601624, 0.20673303306102753, 0.1172962337732315, 0.6586063504219055, -0.4479888379573822, 0.2777170240879059, 0.5218205451965332, 0.1082257330417633, -0.21735773980617523, 0.6106370687484741, -0.3514697551727295, 0.2378883957862854, -0.35868415236473083], [0.6423231363296509, 0.8244810104370117, 0.08710381388664246, -0.08638302981853485, 0.018698349595069885, 0.14021232724189758, 0.08282389491796494, -0.7570745348930359, 0.1467854231595993, -0.4093782305717468, 0.08565153926610947, -0.11566271632909775, 0.009230293333530426, -0.0854930505156517, 0.021157409995794296, 0.29211845993995667, -0.41487228870391846, -0.01687273010611534, -0.12999781966209412, 0.10344956070184708, 0.0346851646900177, 0.01901010423898697, 0.3103053867816925, -0.004912376403808594, 0.2623082101345062, 0.1849338263273239, 0.01276396680623293, 0.04173204302787781, 0.2872024178504944, -0.342785120010376, -0.03835960477590561, -0.21466532349586487, -0.2257343977689743, 0.04378921166062355, -0.05285376310348511, -0.15989334881305695, -0.21256673336029053, -0.14288197457790375, -0.18435649573802948, -0.06748439371585846, -0.11380007117986679, -0.011082476004958153, 0.2592496871948242, -0.3753569424152374, -0.0016868510283529758, -0.21968860924243927, 0.30715471506118774, -0.003799479454755783, -0.10256921499967575, -0.1821340024471283, 0.4250420928001404, -0.0016957029001787305, 0.29903700947761536, -0.09030366688966751, 0.052927739918231964, 0.12651896476745605, -0.02783368155360222, -0.1341509371995926, -0.16456195712089539, -0.06984391063451767, -0.08862977474927902, 0.21023811399936676, 0.2733941376209259, 0.023285381495952606, -0.07343146950006485, 0.11291386187076569, -0.09042453020811081, -0.3622366786003113, -0.26162368059158325, -0.10197374224662781, 0.005414887797087431, -0.1761414259672165, -0.0424647256731987, -0.23233091831207275, 0.2052122950553894, 0.3042002320289612, -0.44620656967163086, -0.022884104400873184, 0.40092477202415466, 0.46011123061180115, 0.27964749932289124, 0.43579113483428955, -0.18348640203475952, 0.2687940001487732, 0.019694751128554344, -0.8518490195274353, 0.6948429346084595, -0.6540554761886597, 0.3806895911693573, -0.5351420640945435, 0.21198241412639618, -0.8396554589271545, 0.47382622957229614, 0.03631935268640518, 0.007662625052034855], [0.7311127185821533, -0.0465138778090477, -0.06360635161399841, 0.02068425714969635, -0.06937059015035629, -0.3686363995075226, 0.41587451100349426, 1.4997812509536743, 0.01490762922912836, 0.007100195623934269, -0.12203258275985718, -0.20134544372558594, -0.14737990498542786, -0.22657352685928345, -0.1723010540008545, 0.08448570221662521, -0.08493074029684067, -0.09123900532722473, -0.1974399983882904, -0.17846855521202087, -0.18912506103515625, -0.01169294212013483, -0.4380578100681305, -0.7173689007759094, -0.17133481800556183, -0.8821125030517578, -0.016112567856907845, -0.17270149290561676, -0.3111913204193115, -0.2761145830154419, -0.14891992509365082, 0.03744901344180107, -0.08701696991920471, -0.08896292001008987, -0.23187844455242157, -0.04041777551174164, -0.2819794714450836, -0.06751198321580887, -0.04878631979227066, 0.0062384409829974174, -0.10190524160861969, -0.1982414424419403, -0.07895702123641968, -0.03293481841683388, -0.09632435441017151, -0.1622195690870285, 0.39173170924186707, 0.12822774052619934, 0.001989667071029544, -0.21391592919826508, -0.007858344353735447, -0.18441814184188843, 0.5055792331695557, -0.20308184623718262, -0.06467599421739578, 0.33258286118507385, 0.12248758226633072, 0.37967509031295776, 0.1586930751800537, 0.18505841493606567, 0.11072035878896713, -0.3531254827976227, 0.25334861874580383, 0.10523863136768341, -0.16120176017284393, 0.2333410382270813, -0.033039551228284836, -0.41332077980041504, 0.08203883469104767, 0.21066410839557648, -0.16100089251995087, 0.13598479330539703, -0.13918966054916382, -0.08282077312469482, 0.14558112621307373, -0.26087331771850586, 0.28594696521759033, -0.16750991344451904, -0.17943988740444183, 0.004934141878038645, -0.12149061262607574, -0.3068090081214905, 0.15818242728710175, 0.4270583391189575, 0.4020761251449585, -0.14578859508037567, 0.175657257437706, 0.37848222255706787, 0.23208144307136536, -0.10939422249794006, 0.016203176230192184, 0.03932791203260422, 0.3208579421043396, 0.08402297645807266, 0.19977253675460815], [-0.1551762968301773, 0.7384430766105652, -0.09526869654655457, 0.017945945262908936, -0.016447916626930237, 0.37282830476760864, 0.09351230412721634, 1.4459993839263916, 0.177311971783638, -0.0643918514251709, -0.2012994885444641, -0.040688566863536835, -0.12915153801441193, -0.18064260482788086, -0.105046346783638, 0.22592200338840485, -0.08211277425289154, -0.10549606382846832, -0.12386464327573776, -0.11722688376903534, -0.3455110490322113, -0.13841883838176727, -0.31895461678504944, 0.4146645963191986, 0.45089709758758545, 0.3353775143623352, -0.5301035642623901, 0.24911168217658997, -0.6056011319160461, -0.19267575442790985, -0.1683773398399353, -0.08760868012905121, -0.20643004775047302, 0.045541536062955856, 0.15005046129226685, 0.2350061982870102, -0.10532183200120926, -0.0031983498483896255, -0.2610720694065094, -0.11987126618623734, 0.10026417672634125, 0.07465318590402603, -0.008314622566103935, -0.6228804588317871, -0.39394867420196533, -0.05708185210824013, -0.2831207513809204, 0.056304220110177994, 0.22057050466537476, -0.14612455666065216, 0.3417803645133972, 0.15526805818080902, -0.08951347321271896, -0.24258717894554138, 0.0440092571079731, -0.1588740199804306, 0.3804816007614136, 0.2082919031381607, -0.19502510130405426, 0.6674765348434448, 0.4319329559803009, -0.06124404817819595, 0.20598343014717102, -0.1903860867023468, 0.1437632441520691, 0.4299415349960327, -0.1889372169971466, 0.12818367779254913, -0.4461057484149933, -0.06019807606935501, 0.09450926631689072, 0.05597466602921486, 0.236455038189888, -0.06860147416591644, 0.12819649279117584, 0.4989817440509796, 0.2897263765335083, -0.05044355243444443, -0.11047521233558655, -0.13673143088817596, 0.06006691977381706, -0.07183697819709778, 0.022242160513997078, 0.09786372631788254, -0.3072970509529114, -0.48086488246917725, 0.03197016566991806, -1.0049551725387573, 0.4242762625217438, -0.028591172769665718, 0.062031980603933334, -0.09958817809820175, 0.24989274144172668, 0.021456677466630936, -0.03897961974143982], [-0.6938576102256775, 0.43653804063796997, 0.010175488889217377, -0.05986490845680237, 0.09911711513996124, -0.7501518130302429, 0.05038320645689964, 0.9835992455482483, 0.12065616250038147, 0.11666277050971985, -0.06930143386125565, -0.07621779292821884, -0.09147215634584427, 0.05959298461675644, 0.10679460316896439, 0.10833974182605743, 0.021546492353081703, -0.05663395673036575, -0.2198670655488968, -0.19097721576690674, 0.13997502624988556, 0.15832635760307312, 0.06293869018554688, 0.3792308270931244, 0.2704511284828186, 0.4635666012763977, -0.3224014341831207, -0.3501310646533966, -0.33057278394699097, 0.020467184484004974, 0.12166785448789597, -0.00822503212839365, 0.03727460652589798, 0.08136910945177078, 0.29460984468460083, -0.10468100756406784, 0.08958113193511963, -0.08717850595712662, 0.22018423676490784, 0.0690399706363678, -0.16655752062797546, 0.26797381043434143, -0.016154875978827477, -0.43945762515068054, 0.046930212527513504, 0.01776759885251522, 0.2784304618835449, 0.20774215459823608, -0.2800494134426117, -0.44267505407333374, 0.08740491420030594, -0.1040722131729126, 0.2552533447742462, -0.16220319271087646, 0.7887383699417114, -0.24201293289661407, -0.04657736048102379, 0.10203799605369568, -0.05032099038362503, -0.025156933814287186, -0.36474931240081787, -0.5233151316642761, 0.6097558736801147, 0.03316411003470421, -0.04259960353374481, 0.12596064805984497, 0.06285952776670456, 0.09312685579061508, 0.21804288029670715, -0.08225096762180328, 0.01685219071805477, -0.1355794072151184, 0.054545920342206955, 0.14211903512477875, 0.19964665174484253, 0.006907094269990921, -0.12822142243385315, -0.10343944281339645, 0.4354586899280548, -0.06690645217895508, -0.11920126527547836, 0.4450860023498535, 0.06504900008440018, -0.1266641616821289, -0.05309808999300003, -0.11676673591136932, -0.2231600135564804, -0.11345450580120087, 0.19870281219482422, 0.2536255121231079, -0.08460364490747452, -0.46539202332496643, 0.03597435727715492, -0.08934573829174042, -0.021556012332439423], [-0.2773662209510803, -0.9777304530143738, -0.09697777777910233, -0.034773774445056915, -0.014410063624382019, -0.022201772779226303, -0.06107629835605621, -0.849949061870575, 0.24636505544185638, 0.27422264218330383, -0.09718295186758041, 0.09321986138820648, -0.024013739079236984, 0.09816564619541168, 0.03303605690598488, 0.2536889910697937, 0.29417482018470764, -0.054665982723236084, 0.029186001047492027, 0.0481899231672287, 0.1356053650379181, 0.177606999874115, 0.34858179092407227, -0.41434770822525024, -0.2562420964241028, -0.09558525681495667, -0.07127855718135834, -0.25587525963783264, -0.22430142760276794, 0.02338290587067604, 0.10005536675453186, 0.08702822774648666, -0.18709798157215118, -0.046650804579257965, 0.08916060626506805, 0.035218045115470886, -0.09873102605342865, -0.04951104149222374, 0.12393652647733688, -0.04423532262444496, -0.012537541799247265, -0.076573945581913, -0.17754657566547394, -0.059663545340299606, 0.020511621609330177, 0.12693364918231964, -0.06731695681810379, -0.12006263434886932, -0.15829412639141083, 0.05450468137860298, -0.0628558099269867, -0.24079303443431854, 0.3129758834838867, 0.4312645196914673, -0.21694789826869965, 0.421121209859848, 0.14047673344612122, -0.2914383113384247, -0.3596237003803253, 0.007539124693721533, 0.43594929575920105, 0.49810871481895447, -0.14185957610607147, -0.22363081574440002, -0.15867644548416138, -0.13995692133903503, 0.4683817923069, -0.13299299776554108, -0.2395605742931366, -0.47531628608703613, -0.10214480757713318, 0.6136665940284729, 0.23105710744857788, -0.3212207555770874, -0.31470823287963867, -0.48565909266471863, 0.41873204708099365, 0.42419636249542236, -0.12089879810810089, 0.08110839128494263, 0.12103753536939621, -0.3066275715827942, 0.11606805771589279, 0.25177663564682007, -0.6637088060379028, -0.1064305305480957, 0.7302570939064026, 0.5325314402580261, -0.7324382662773132, -0.39553335309028625, 0.5730710029602051, 0.21163731813430786, 0.3849906921386719, -0.17323420941829681, -0.10387074202299118], [0.43555212020874023, 0.25845417380332947, 0.0774727463722229, 0.03850151598453522, 0.08021315932273865, -0.3923531770706177, 0.5656318664550781, -1.099169373512268, 0.2317371368408203, 0.03291475772857666, -0.1076255515217781, 0.01483509037643671, -0.07710114866495132, -0.08521811664104462, -0.21549825370311737, 0.22048917412757874, -0.00035311613464728, -0.05576460808515549, -0.034851934760808945, 0.05825250968337059, -0.10195654630661011, -0.12776601314544678, -0.3907490372657776, 0.594643235206604, -0.5563381314277649, -0.13989226520061493, 0.618144690990448, -0.5316940546035767, 0.6522133946418762, -0.18610969185829163, -0.04286586120724678, -0.23490586876869202, 0.038850218057632446, -0.17670252919197083, -0.0767069086432457, -0.05540892109274864, -0.009079190902411938, -0.18327423930168152, -0.09358372539281845, 0.11072627454996109, -0.10831718891859055, -0.037198685109615326, -0.042862411588430405, -0.1017698273062706, -0.19726310670375824, -0.13449308276176453, -0.06801411509513855, 0.006704468745738268, 0.08845251053571701, -0.11891419440507889, -0.057053063064813614, -0.45974302291870117, 0.10233397781848907, 0.012612377293407917, -0.26898717880249023, -0.2998717725276947, 0.014676490798592567, 0.0745895579457283, -0.008597930893301964, -0.2814488708972931, -0.09489458799362183, 0.28958049416542053, -0.197471484541893, -0.1089446097612381, -0.015059634111821651, 0.15932324528694153, 0.18823027610778809, -0.4313940405845642, -0.17213484644889832, 0.09268596023321152, 0.0484846867620945, 0.14889265596866608, 0.2078343629837036, -0.008223733864724636, 0.038344383239746094, -0.0320797823369503, 0.11670856177806854, -0.16270336508750916, 0.6378477215766907, -0.40409985184669495, 0.07559013366699219, -0.09481106698513031, -0.16889068484306335, 0.12212589383125305, -0.14510098099708557, 1.230785846710205, -0.5469600558280945, -0.06368794292211533, -0.20749379694461823, -0.5082699656486511, -0.30539244413375854, -0.03634437918663025, -0.04172738641500473, -0.7117562890052795, -0.03598581627011299], [1.280907392501831, -0.18316425383090973, -0.002674505114555359, -0.09267410635948181, -0.0090971440076828, -0.04680543392896652, -0.07311666756868362, -0.00518344109877944, 0.3127935230731964, -0.09992901235818863, -0.14161093533039093, -0.02897064760327339, 0.02731102705001831, 0.00682790158316493, 0.09368662536144257, 0.17516498267650604, 0.011294757947325706, -0.03504442051053047, 0.005294449627399445, 0.07661906629800797, -0.0035893404856324196, 0.13481388986110687, 0.0839734673500061, -0.0850488692522049, 0.04130997881293297, 0.05640673264861107, 0.1309080421924591, 0.06105795502662659, -0.36911097168922424, -0.5615358352661133, -0.06310637295246124, 0.16559267044067383, 0.18116559088230133, -0.18356983363628387, 0.3037078380584717, -0.08011983335018158, 0.12839245796203613, -0.1180787906050682, 0.030736824497580528, 0.008080539293587208, 0.19333906471729279, -0.14034396409988403, -0.3305395543575287, -0.13291341066360474, -0.04663506895303726, -0.03498281538486481, 0.2121811956167221, -0.1276819258928299, -0.056038618087768555, 0.06947600096464157, -0.40062186121940613, 0.26122328639030457, -0.34127965569496155, 0.0942976176738739, 0.17610633373260498, 0.2974378764629364, -0.34989991784095764, -0.04060361534357071, -0.044798869639635086, -0.17350909113883972, -0.17859458923339844, -0.21784795820713043, -0.10224554687738419, 0.257114976644516, 0.11196443438529968, 0.08335885405540466, 0.04346945509314537, -0.002161865122616291, -0.06068669259548187, -0.20116043090820312, 0.13659723103046417, 0.019951915368437767, 0.3041304349899292, -0.03325123339891434, 0.0701569989323616, -0.21845921874046326, -0.2477562576532364, -0.1367889940738678, 0.6559724807739258, 0.2146964818239212, -0.34730082750320435, 0.046890534460544586, 0.5045153498649597, 0.0785803496837616, -0.10963436216115952, 0.53061443567276, -0.7326062321662903, -0.9197744131088257, 0.672581672668457, -0.6514095664024353, 0.6181644797325134, 0.25527286529541016, 0.46255573630332947, -0.9166820049285889, 0.09247863292694092], [0.1511891633272171, 0.18103256821632385, -0.09094113856554031, 0.004411965608596802, -0.05173230916261673, 0.5799443125724792, 0.258199006319046, 1.506733775138855, -0.10885275900363922, 0.010603596456348896, -0.10239212960004807, -0.12725605070590973, 0.08651669323444366, 0.06427282840013504, 0.07908153533935547, -0.04713230952620506, -0.14409315586090088, -0.022019801661372185, -0.14991429448127747, -0.010022163391113281, 0.05267716199159622, 0.03663884475827217, -0.26474085450172424, 0.20379751920700073, -0.3359163701534271, -0.2367124855518341, 0.08822853863239288, 0.10316391289234161, 0.5379305481910706, -0.5364400744438171, -0.11491450667381287, -0.13922831416130066, -0.29920169711112976, 0.08397649973630905, 0.06795162707567215, -0.07807562500238419, -0.4570613503456116, -0.10197075456380844, -0.22059687972068787, -0.01032197754830122, -0.07115980982780457, -0.09828286617994308, -0.09839832037687302, -0.23597902059555054, -0.15109582245349884, -0.04890957474708557, -0.0550696887075901, -0.11257147789001465, -0.2043144702911377, -0.2587668299674988, 0.15324409306049347, 0.1396060287952423, -0.4005521535873413, 0.1861497461795807, 0.34197860956192017, -0.1626187413930893, -0.1268647313117981, 0.630994439125061, -0.19199688732624054, 0.18872101604938507, 0.381073921918869, 0.1515561193227768, 0.3950292468070984, -0.17614230513572693, -0.18264800310134888, 0.1649007946252823, -0.06114421412348747, 0.0014302218332886696, -0.134356290102005, -0.09294204413890839, -0.11871018260717392, -0.15879887342453003, -0.35896748304367065, 0.32542508840560913, 0.19325372576713562, -0.33743372559547424, -0.04912218824028969, -0.0543307401239872, 0.39395439624786377, -0.09539694339036942, 0.04239781200885773, 0.135797917842865, 0.07946014404296875, -0.2019878774881363, 0.19238156080245972, -0.7678362727165222, -0.44695746898651123, -0.9330092072486877, 0.43545854091644287, 0.335130512714386, -0.6018768548965454, -0.15286360681056976, -0.16829845309257507, -0.02946062758564949, 0.1779337227344513], [-0.6085165143013, 0.2697536051273346, 0.06453554332256317, -0.09334331750869751, 0.0462891161441803, 1.0661920309066772, -0.5983509421348572, 0.8453370928764343, -0.1479184627532959, -0.10081703960895538, -0.0832059234380722, 0.24175921082496643, -0.033597707748413086, -0.1781749129295349, 0.09372709691524506, -0.1453247368335724, 0.013060321100056171, -0.061897069215774536, 0.20524391531944275, -0.10936375707387924, -0.045133721083402634, 0.07131179422140121, 0.1882392168045044, 0.04686439782381058, -0.4150829017162323, -0.2933599650859833, -0.1717483550310135, -0.02787315659224987, 0.23895429074764252, 0.2598399221897125, 0.04617110639810562, -0.09813753515481949, 0.14562375843524933, 0.05298853665590286, -0.09521003067493439, -0.047336410731077194, 0.12043678760528564, -0.12450697273015976, 0.02236376330256462, -0.058444585651159286, -0.07963650673627853, 0.043127112090587616, 0.08178908377885818, 0.10328357666730881, 0.11385583132505417, 0.07337091863155365, 0.028882620856165886, 0.20706798136234283, -0.006455606780946255, 0.21383967995643616, 0.10917836427688599, -0.19147062301635742, 0.016766268759965897, -0.5185253620147705, 0.5812486410140991, 0.10487107932567596, -0.3799576163291931, -0.12437015771865845, 0.744934618473053, -0.4203674793243408, -0.2606143057346344, -0.49453291296958923, 0.1658717840909958, -0.13894546031951904, 0.15901553630828857, 0.0655655637383461, -0.0133267343044281, -0.11784844100475311, -0.02754146419465542, 0.2762470245361328, 0.3522109389305115, 0.03434278443455696, 0.15730804204940796, -0.2959115207195282, 0.33013859391212463, -0.05274961516261101, 0.4155491888523102, -0.018462438136339188, 0.45314884185791016, 0.611353874206543, -0.05754408985376358, -0.27238574624061584, -0.24097582697868347, -0.39832234382629395, 0.006092050112783909, 0.8718236684799194, -0.40441274642944336, 0.39130935072898865, -0.027208197861909866, 0.45216095447540283, -0.6056841611862183, -0.8626473546028137, -0.1927153468132019, 0.7052282094955444, 0.07221373915672302], [-0.37368863821029663, 0.9693683981895447, -0.06799571216106415, 0.056665897369384766, -0.07724527269601822, 0.4195660650730133, 0.18530906736850739, -1.2651762962341309, 0.186879500746727, 0.05429783836007118, -0.007161168847233057, -0.2239220291376114, -0.10937748104333878, 0.14249950647354126, -0.20321419835090637, 0.24147038161754608, 0.06851132959127426, 0.15761035680770874, -0.15084825456142426, -0.04156813398003578, 0.04577947035431862, -0.2818189561367035, -0.19255025684833527, 0.46904256939888, -0.260831743478775, 0.41340720653533936, 0.7404033541679382, -0.40652376413345337, 0.6657484173774719, -0.2637054920196533, -0.06845827400684357, -0.1875229775905609, 0.14370232820510864, 0.06669699400663376, -0.27025696635246277, -0.019138338044285774, -0.14614629745483398, -0.01973424106836319, -0.1302795261144638, 0.06807296723127365, -0.29839426279067993, 0.23417943716049194, 0.03981083258986473, -0.1470835953950882, 0.005860979203134775, -0.321519136428833, -0.0015021655708551407, -0.3265755772590637, 0.14787210524082184, -0.08565996587276459, -0.3311203718185425, -0.1993362307548523, -0.06588665395975113, -0.5946826338768005, -0.3601163923740387, -0.3507494628429413, -0.6575703620910645, 0.11443781852722168, -0.1363159865140915, 0.1953868269920349, 0.500558614730835, -0.2695935368537903, 0.21175935864448547, 0.5367276072502136, 0.21563369035720825, -0.06459316611289978, 0.05611483380198479, 0.006027365103363991, 0.05585838109254837, 0.13435488939285278, 0.3428730368614197, 0.31773826479911804, -0.6933486461639404, 0.2951749265193939, 0.5013609528541565, -0.16968098282814026, 0.09013400971889496, 0.0490238256752491, 0.0767553448677063, 0.3489663004875183, -0.16007594764232635, 0.14916189014911652, -0.013861211948096752, 0.2870399057865143, 0.021743688732385635, -1.0961360931396484, 0.3923109769821167, -1.1431788206100464, 0.44068261981010437, 0.17578864097595215, 0.27866435050964355, 0.1283445954322815, -0.0009261972736567259, -0.6753378510475159, 0.7375432848930359], [0.15121611952781677, 1.6163872480392456, 0.07428249716758728, -0.0744975283741951, -0.07472501695156097, 0.3632563054561615, 0.5627150535583496, -0.15181510150432587, 0.42573386430740356, -0.06327323615550995, 0.01015221793204546, -0.0718858391046524, -0.035787783563137054, 0.029251642525196075, -0.03814809396862984, 0.28889763355255127, 0.051612675189971924, -0.061894334852695465, -0.06991656124591827, 0.030191199854016304, -0.02214813604950905, -0.017013171687722206, -0.05270736664533615, 0.4933217167854309, -0.0768011063337326, -0.3921934962272644, -0.4776146113872528, -0.4885781407356262, -0.29761213064193726, -0.059907324612140656, -0.07247563451528549, -0.08437125384807587, 0.16776756942272186, 0.09507463127374649, -0.1145731583237648, -0.06315432488918304, -0.010566923767328262, 0.018014414235949516, -0.13102507591247559, -0.005212480667978525, -0.050772376358509064, -0.09053824841976166, 0.01678445376455784, -0.24959266185760498, 0.015283731743693352, -0.030934516340494156, 0.05338522419333458, 0.1986786127090454, -0.1186426654458046, 0.053073104470968246, -0.3504575192928314, 0.3345389664173126, 0.10610087960958481, 0.39136525988578796, -0.2530095875263214, -0.23907583951950073, -0.25385788083076477, 0.06083444878458977, 0.21284908056259155, 0.10238312184810638, -0.3921649754047394, 0.047056425362825394, 0.5899280905723572, -0.08026979118585587, -0.09232445806264877, 0.1377207338809967, -0.1665254384279251, -0.024933580309152603, 0.05763495713472366, 0.17010021209716797, 0.15915392339229584, 0.08254949748516083, -0.16725696623325348, -0.13397817313671112, 0.09515328705310822, -0.278431236743927, 0.22685606777668, -0.0666603222489357, 0.31736135482788086, -0.06093338876962662, -0.09790956974029541, 0.21920935809612274, -0.2527977526187897, -0.21894916892051697, -0.16246508061885834, -0.29264163970947266, -0.11204607784748077, 0.6091505885124207, -0.39697226881980896, 0.8921154141426086, -0.1371484398841858, 0.060072530061006546, -0.5928369164466858, 0.4038613736629486, -0.24933530390262604], [1.3318407535552979, 0.05878017470240593, 0.055817678570747375, 0.06993575394153595, -0.09959690272808075, 0.5308763980865479, -0.017512977123260498, -0.8436187505722046, -0.00414812657982111, -0.151849627494812, 0.10896803438663483, 0.06665672361850739, 0.14144736528396606, 0.12095021456480026, -0.0737914964556694, 0.06354565918445587, -0.11185158044099808, 0.10121375322341919, 0.02514101192355156, 0.041407398879528046, 0.1779567152261734, -0.022590724751353264, 0.09827500581741333, 0.8106978535652161, 0.21803654730319977, 0.4697154462337494, -0.28338760137557983, -0.20630183815956116, 0.17234458029270172, -0.017035070806741714, -0.18719667196273804, 0.07914242893457413, 0.04848045855760574, 0.06259790807962418, 0.011800083331763744, -0.1867276281118393, 0.059622131288051605, -0.15932010114192963, 0.006171075161546469, 0.14943209290504456, -0.09433519095182419, -0.12273114919662476, 0.1367010772228241, 0.043890729546546936, -0.1508672684431076, -0.1124785766005516, -0.06802663952112198, -0.27468398213386536, 0.08393562585115433, 0.33063632249832153, -0.6261742115020752, -0.41181233525276184, 0.2543933391571045, 0.416498601436615, 0.6232965588569641, -0.15830367803573608, -0.046637162566185, -0.257007896900177, 0.16531150043010712, -0.022517826408147812, 0.13375495374202728, -0.14975842833518982, 0.2871192395687103, 0.045119933784008026, -0.025125546380877495, -0.03701448068022728, -0.3585411012172699, -0.2977897822856903, -0.2942100167274475, -0.12152411043643951, 0.45736387372016907, -0.17480681836605072, 0.13296256959438324, -0.31403517723083496, 0.004099228885024786, 0.2974579632282257, -0.2431708574295044, -0.3770805299282074, 0.054410312324762344, 0.08732196688652039, 0.3318623900413513, -0.060367703437805176, 0.09963759779930115, 0.20615604519844055, 0.3670503497123718, -0.751369833946228, -0.5977008938789368, 0.2423723340034485, -0.7439271807670593, -0.4750616252422333, 0.3765440285205841, -0.034216828644275665, 0.12134935706853867, -0.5924552083015442, 0.050697144120931625], [0.8975858092308044, 0.4951966106891632, -0.07943549752235413, 0.016408458352088928, -0.033237822353839874, 0.34751757979393005, 0.34432098269462585, -1.1427308320999146, 0.3253016471862793, -0.24514928460121155, -0.14458730816841125, 0.07829564809799194, 0.1450042724609375, 0.2659856081008911, 0.12419481575489044, 0.15686190128326416, -0.2483677715063095, -0.15184921026229858, -0.08460450172424316, 0.11342816799879074, 0.24768172204494476, 0.10872127115726471, 0.18795146048069, -0.49433162808418274, 0.18995362520217896, -0.10042597353458405, -0.15275774896144867, -0.0009344288846477866, -0.04489117115736008, -0.2628474235534668, 0.2556311786174774, -0.048685766756534576, -0.007834477350115776, 0.10622753947973251, -0.22063477337360382, 0.147443950176239, -0.08469374477863312, 0.26632627844810486, -0.2331777960062027, -0.16164147853851318, -0.06981687247753143, -0.06548953056335449, 0.20616696774959564, -0.10230167210102081, 0.058467838913202286, -0.1177244633436203, 0.052807413041591644, 0.08979153633117676, -0.10441668331623077, 0.19845281541347504, -0.30705350637435913, 0.37321463227272034, -0.08874153345823288, -0.08982980996370316, 0.702650785446167, 0.11199155449867249, -0.014716186560690403, -0.4363993704319, -0.12373379617929459, 0.14935021102428436, 0.25430750846862793, -0.2794274389743805, -0.4019843339920044, 0.24797624349594116, 0.08195336908102036, -0.10406605154275894, 0.1527940332889557, -0.19302459061145782, -0.2999850809574127, -0.35447701811790466, -0.24842460453510284, -0.24957646429538727, 0.2092602699995041, 0.0023435517214238644, -0.02870054915547371, 0.007612574379891157, -0.3866691589355469, -0.009960709139704704, 0.3950672447681427, -0.047179464250802994, 0.021328305825591087, -0.41559189558029175, -0.014899935573339462, -0.02596288174390793, -0.5342490077018738, 0.28276923298835754, 0.10073193907737732, 0.5067147612571716, -0.9312306046485901, -0.12964017689228058, 0.2775568664073944, 0.002251108642667532, 0.48561206459999084, 0.3465876579284668, -0.39361923933029175], [0.020944351330399513, 0.6405428647994995, -0.022998780012130737, 0.005341418087482452, -0.0895075872540474, -0.005802466068416834, -0.04504643753170967, 0.2697541415691376, -0.003950898069888353, -0.1705176830291748, -0.11020147055387497, -0.12932859361171722, -0.13515116274356842, -0.11421938240528107, -0.07740765810012817, 0.03771345689892769, -0.042120419442653656, -0.07368055731058121, -0.13478052616119385, -0.06803607940673828, -0.1650683879852295, -0.07235227525234222, -0.4722479283809662, -0.21687930822372437, -0.2636297643184662, 0.031212473288178444, 0.05279017612338066, -0.02315538562834263, 0.8642981648445129, -0.09572824090719223, -0.006844001356512308, -0.1326986849308014, 0.015829503536224365, -0.06360359489917755, -0.007114405278116465, -0.04417552426457405, -0.06166195496916771, -0.1812140792608261, 0.03436112776398659, -0.0690438374876976, -0.14303110539913177, -0.07573486864566803, -0.1563320755958557, 0.0062406049109995365, -0.23000381886959076, -0.028439627960324287, -0.16592969000339508, -0.48874977231025696, 0.06449856609106064, -0.20514994859695435, -0.2405148148536682, 0.12579841911792755, 0.07005713880062103, 0.08604776114225388, 0.4485604763031006, 0.21432751417160034, -0.15572847425937653, -0.1058172807097435, 0.35411038994789124, 0.3110784888267517, 0.3026990592479706, -0.24313850700855255, 0.052766840904951096, -0.1633244901895523, -0.30706822872161865, 0.006758879870176315, -0.3261960744857788, 0.009211886674165726, -0.2168993502855301, 0.36517512798309326, 0.23014545440673828, -0.40143272280693054, -0.028548553586006165, -0.037679273635149, 0.019561823457479477, -0.2341008335351944, -0.3202742636203766, 0.3877784013748169, 0.016210880130529404, 0.33525633811950684, 0.08926379680633545, -0.1959012746810913, -0.0849057212471962, -0.015883581712841988, 0.18021497130393982, -1.0122333765029907, 0.3075760304927826, -1.4473713636398315, 0.02697412669658661, -0.705141544342041, 0.23580633103847504, -0.25020524859428406, 0.25160834193229675, -0.296056866645813, -0.14016088843345642], [-0.15843379497528076, 0.6874008774757385, 0.054462745785713196, 0.07240509986877441, 0.08885325491428375, -0.1167435497045517, 0.07175944745540619, 1.2237564325332642, 0.12119265645742416, 0.2191038578748703, -0.06386984139680862, -0.07064470648765564, -0.057218849658966064, -0.020748469978570938, -0.1332729607820511, 0.15400369465351105, 0.2884511351585388, 0.027436379343271255, 0.04277459904551506, -0.20803725719451904, -0.04663994908332825, -0.0955844298005104, -0.4342205226421356, 0.02602786011993885, 0.39427366852760315, -0.2645159661769867, -0.0976162925362587, -0.027359219267964363, 0.2086019515991211, 0.2155882567167282, 0.10601939260959625, 0.053925998508930206, -0.20213089883327484, -0.17194338142871857, -0.12378126382827759, -0.2555747926235199, 0.1950913369655609, 0.04149974510073662, -0.04995271563529968, -0.21527306735515594, 0.07408487051725388, -0.13030239939689636, -0.1986248791217804, -0.15059314668178558, -0.007100781891494989, 0.031789060682058334, 0.2476382851600647, 0.33764949440956116, 0.04543855041265488, 0.2669229209423065, -0.3509902060031891, 0.24456366896629333, 0.46084287762641907, 0.2874701917171478, -0.10891791433095932, 0.020331701263785362, 0.13356317579746246, 0.2086171656847, -0.4089055061340332, -0.6045621633529663, 0.4611388146877289, -0.09017796069383621, -0.7298449277877808, -0.019247332587838173, 0.03439968824386597, -0.0024456584360450506, -0.2740485668182373, -0.24773956835269928, -0.38696005940437317, 0.2663714289665222, -0.14219413697719574, -0.4204299747943878, 0.1593792587518692, -0.14121612906455994, -0.14216697216033936, 0.2700197696685791, -0.37567272782325745, 0.21067656576633453, -0.6692490577697754, 0.05676228180527687, 0.34006085991859436, -0.36855679750442505, 0.03746956214308739, -0.06847655028104782, -0.23886176943778992, -0.5247834324836731, 0.34961938858032227, -0.13756997883319855, 0.14520052075386047, 0.05651788040995598, 0.17731381952762604, 0.08088940382003784, 0.429277628660202, -0.42681553959846497, 0.3226315677165985], [-0.3101293742656708, 0.6876387596130371, -0.09288227558135986, -0.003019861876964569, 0.030101031064987183, 0.05976906046271324, 0.1967429667711258, -0.9638992547988892, 0.17072036862373352, -0.2853540778160095, 0.06703677773475647, 0.015495993196964264, 0.14757856726646423, -0.1347089260816574, -0.25752490758895874, 0.19866597652435303, -0.35888808965682983, 0.05892614647746086, -0.07085655629634857, 0.1285140961408615, -0.12275458127260208, -0.2034974843263626, -0.08251617848873138, 0.21326091885566711, -0.22838880121707916, 0.25008025765419006, 0.5889683365821838, 0.03414212539792061, 0.018220679834485054, -0.4112587869167328, 0.15994049608707428, 0.08346956968307495, -0.0957345962524414, -0.2314562201499939, 0.00047798798186704516, -0.08631277084350586, -0.177642360329628, 0.2040759176015854, 0.1033233255147934, -0.007823983207345009, -0.17538119852542877, 0.10877978801727295, -0.2787017524242401, -0.3085612952709198, -0.37207546830177307, 0.06486020982265472, -0.2189793437719345, -0.5169028043746948, -0.253397136926651, 0.4444925785064697, 0.15101632475852966, -0.18579065799713135, 0.17988254129886627, 0.28357529640197754, 0.19366389513015747, -0.7278571128845215, 0.3367656469345093, -0.2591842710971832, 0.05066721886396408, 0.3361050486564636, -0.06119271740317345, 0.08329621702432632, 0.07037725299596786, -0.07265021651983261, -0.16333912312984467, 0.10072087496519089, -0.36294811964035034, -0.40342244505882263, -0.04535141587257385, -0.30349302291870117, 0.20678195357322693, 0.026621852070093155, 0.2814962863922119, 0.019554104655981064, -0.07162921130657196, 0.09728896617889404, 0.34457218647003174, -0.21768994629383087, 0.34604156017303467, 0.3459264934062958, -0.39074230194091797, -0.17337392270565033, 0.24933212995529175, 0.44757530093193054, -0.22552518546581268, -1.3160465955734253, -0.08828280121088028, -0.07491322606801987, -1.0355291366577148, -0.08425741642713547, 0.12388903647661209, -0.1318492889404297, -0.48978790640830994, -0.11050330102443695, 0.5187785029411316], [0.6864548325538635, -0.36092403531074524, 0.10023687779903412, -0.020857416093349457, -0.10027492046356201, 0.948711633682251, -0.17861321568489075, -0.11352065205574036, 0.16827641427516937, -0.05641582980751991, 0.052261415868997574, -0.049615032970905304, 0.135527566075325, -0.05569459870457649, 0.0359148234128952, 0.08462508767843246, -0.050979483872652054, 0.10313654690980911, 0.02692103572189808, 0.04967851936817169, -0.05931467562913895, 0.1452733278274536, 0.27396443486213684, -0.2627851366996765, -0.5762117505073547, 0.4066365361213684, -0.3600044846534729, 0.22887857258319855, 0.22705964744091034, -0.006708402186632156, 0.33875080943107605, 0.18694429099559784, -0.16467569768428802, -0.060623619705438614, 0.11733784526586533, 0.09726424515247345, 0.06329867243766785, 0.2173440307378769, 0.01415017805993557, -0.015156162902712822, -0.08704999089241028, -0.0341222882270813, 0.12484104186296463, -0.10245727002620697, 0.07567048817873001, 0.1578819900751114, 0.01157784927636385, -0.28737324476242065, 0.03054778464138508, -0.2725898325443268, -0.21505294740200043, -0.24114632606506348, 0.43654221296310425, -0.33863842487335205, 0.13113150000572205, 0.5533126592636108, 0.3736559748649597, 0.37011438608169556, -0.1681191325187683, -0.45817631483078003, 0.4336162209510803, -0.021876061335206032, 0.04612791910767555, -0.07269104570150375, 0.04014646261930466, -0.16645878553390503, 0.17952187359333038, -0.18240457773208618, 0.27859461307525635, -0.23209115862846375, 0.1021837517619133, 0.22154588997364044, 0.44203707575798035, 0.010899159125983715, 0.017361849546432495, 0.3077089488506317, -0.5371951460838318, -0.04410303384065628, -0.48994117975234985, 0.36236777901649475, 0.3535705506801605, -0.16120176017284393, 0.07859838753938675, -0.12130243331193924, -0.11178262531757355, 0.4797039330005646, 0.4559738337993622, -0.5220233201980591, 0.034438472241163254, 0.8833463788032532, -0.7357866168022156, -1.4240784645080566, -0.2248753011226654, -0.12884627282619476, -0.1685454398393631], [0.44963183999061584, 0.35006386041641235, -0.0802624449133873, -0.04709973186254501, 0.03198324143886566, 0.3207804262638092, 0.6970288753509521, 0.008824635297060013, 0.16087155044078827, -0.1615421622991562, -0.05256066843867302, -0.027212398126721382, 0.053425196558237076, -0.18627971410751343, -0.02668285369873047, 0.21934552490711212, -0.13713772594928741, -0.15090137720108032, -0.17774222791194916, -0.0012441558064892888, -0.031064577400684357, 0.009784598834812641, -0.22116072475910187, 0.11902463436126709, 0.050113141536712646, 0.23106950521469116, 0.06385450065135956, 0.280055969953537, 0.19679026305675507, -0.33811211585998535, 0.1680394858121872, -0.035963889211416245, -0.04511455073952675, -0.4369541108608246, 0.17070816457271576, -0.20003296434879303, -0.05231161415576935, 0.006887409836053848, -0.07709182053804398, -0.05171909183263779, -0.043908145278692245, -0.093006432056427, -0.06520359963178635, -0.08925849199295044, 0.05489853769540787, -0.054480720311403275, -0.02852756530046463, -0.4512558877468109, 0.15908467769622803, -0.24298109114170074, 0.48674631118774414, 0.40179479122161865, 0.026147479191422462, -0.13571518659591675, 0.36284422874450684, -0.02146608754992485, 0.3731527626514435, 0.33116963505744934, -0.18765784800052643, 0.25444528460502625, -0.017286667600274086, 0.39156726002693176, 0.32521042227745056, -0.6348563432693481, -0.1216571182012558, -0.24773241579532623, -0.1507946252822876, 0.13452251255512238, 0.17579495906829834, -0.49605342745780945, 0.25506776571273804, 0.015222661197185516, -0.052730441093444824, 0.13659483194351196, -0.04094596207141876, -0.2775449752807617, 0.30731552839279175, -0.26450493931770325, -0.35333648324012756, -0.159478098154068, -0.5155920386314392, 0.26284879446029663, -0.12858951091766357, -0.21428924798965454, -0.2626274824142456, -0.27774983644485474, -0.2891603708267212, -0.8411731719970703, 0.8958485126495361, -0.6101294159889221, 0.3851297199726105, 0.2039995938539505, 0.23698413372039795, 0.05171012505888939, 0.2810560166835785], [-0.2816219925880432, 0.9060071110725403, 0.002930067479610443, -0.0744725689291954, -0.04190779849886894, 0.40802696347236633, 0.12707041203975677, 1.295540690422058, 0.05680731683969498, 0.1265338510274887, 0.13669568300247192, -0.2257985770702362, 0.10395116358995438, -0.017594963312149048, -0.06177063658833504, -0.017950881272554398, 0.1790255606174469, 0.10861682146787643, -0.22944927215576172, 0.0996273085474968, -0.036557260900735855, -0.04094374179840088, -0.17310193181037903, -0.9304324984550476, -0.2958383560180664, 0.36780545115470886, 0.24431879818439484, 0.03744623064994812, -0.30098995566368103, -0.04575878009200096, -0.09002164006233215, 0.017533093690872192, -0.058815594762563705, 0.047962140291929245, -0.05575716122984886, 0.03209438547492027, 0.0216494370251894, -0.04322696477174759, 0.02270314283668995, 0.13734972476959229, 0.07687332481145859, 0.14525096118450165, 0.0677286833524704, -0.2940045893192291, -0.18502622842788696, -0.1959691047668457, -0.28787899017333984, -0.1510934829711914, -0.30247703194618225, 0.2409764975309372, 0.47512510418891907, -0.12295109033584595, -0.1963222324848175, 0.2172122597694397, -0.25747889280319214, 0.062053922563791275, -0.14351977407932281, -0.01779109798371792, 0.1505749523639679, 0.2833949029445648, 0.4756195545196533, -0.21455270051956177, 0.0192714910954237, 0.22062794864177704, 0.030209219083189964, -0.09178269654512405, 0.03991483896970749, -0.3529934287071228, -0.20626729726791382, -0.5540554523468018, -0.35517945885658264, -0.09292417019605637, 0.07332471758127213, -0.12142881751060486, 0.2916302978992462, 0.09771133959293365, 0.18053942918777466, -0.21937085688114166, 0.18746335804462433, 0.527095377445221, 0.062204014509916306, -0.19031555950641632, 0.34124720096588135, -0.13762715458869934, 0.14870306849479675, -0.03602737560868263, -0.005792080890387297, 0.4129370450973511, -0.5583205223083496, -0.35528048872947693, 0.5435170531272888, 0.28303906321525574, -0.07516560703516006, -0.7241936326026917, 0.4251704216003418], [-0.20461486279964447, 0.5980306267738342, 0.06285466253757477, -0.08260954916477203, -0.01623430848121643, 0.14462405443191528, 0.04438063129782677, 0.7362122535705566, -0.2661917507648468, -0.012608818709850311, 0.005939008202403784, -0.0980987399816513, -0.17026719450950623, -0.13401798903942108, -0.06281519681215286, -0.265221506357193, -0.06421970576047897, -0.020118284970521927, -0.01680956594645977, -0.10453932732343674, -0.01618807576596737, -0.19059087336063385, -0.36215949058532715, 0.16106054186820984, -0.3294123411178589, -0.3068618178367615, 0.0031903276685625315, 0.1597355455160141, 0.3331311047077179, 0.3937200903892517, 0.12595194578170776, -0.43905341625213623, -0.08920062333345413, -0.053297508507966995, -0.11285192519426346, -0.008540290407836437, 0.34801992774009705, 0.0682927668094635, -0.3036521375179291, -0.05842381715774536, -0.031108355149626732, -0.0627153217792511, 0.02354971505701542, 0.19214196503162384, -0.2579094469547272, -0.18479487299919128, -0.0728573426604271, 0.20212438702583313, -0.08360574394464493, -0.16410809755325317, 0.19311648607254028, -0.06348229944705963, 0.5657362937927246, -0.3318084478378296, -0.29630956053733826, -0.01840171217918396, -0.05136898532509804, 0.04023663327097893, 0.326776385307312, -0.09791667014360428, 0.10551348328590393, 0.0688641294836998, 0.42780184745788574, -0.02864725887775421, -0.2769848108291626, -0.2923010587692261, -0.19736309349536896, 0.02597883716225624, 0.07319595664739609, -0.42245054244995117, 0.1841987669467926, 0.18864546716213226, -0.22868123650550842, -0.02974480763077736, 0.058725520968437195, -0.032343268394470215, -0.224714994430542, 0.02681289240717888, -0.13325020670890808, 0.365291953086853, -0.046825654804706573, 0.20651087164878845, 0.510836124420166, -0.14715012907981873, 0.13636626303195953, 0.2699557840824127, -0.07669111341238022, -0.6068804860115051, 0.19381913542747498, -0.20707513391971588, -0.3752616345882416, -0.4274478852748871, -0.026012692600488663, -0.0018427317263558507, 0.1778242439031601], [-0.5910196304321289, -0.22067469358444214, -0.0415426641702652, -0.0958520844578743, 0.0460667759180069, 0.9810327887535095, -0.6656191349029541, -1.0661139488220215, -0.1428983211517334, -0.00506577780470252, 0.2579089403152466, 0.20827077329158783, 0.042786743491888046, 0.10331666469573975, 0.09654489904642105, -0.08859620988368988, 0.04943462088704109, 0.20982657372951508, 0.01727284863591194, 0.08812864869832993, 0.1129160076379776, 0.11749205738306046, 0.6211085319519043, -0.03892107680439949, 0.2376551479101181, 0.39204615354537964, -0.2962789833545685, -0.18601356446743011, 0.07804478704929352, 0.07126975804567337, -0.0946592316031456, -0.12076464295387268, 0.09957356750965118, -0.03895094245672226, -0.14481887221336365, 0.2603107690811157, 0.011947139166295528, -0.10084119439125061, -0.2746092677116394, -0.057884685695171356, -0.15827228128910065, 0.017677659168839455, -0.03685488551855087, -0.11559875309467316, -0.017905477434396744, 0.27091720700263977, 0.07142975926399231, 0.0858202874660492, 0.12532751262187958, 0.12705625593662262, 0.5490200519561768, -1.1522108316421509, -0.3327426314353943, -0.32929912209510803, 0.25654470920562744, 0.6547601222991943, -0.2997010350227356, 0.3562189042568207, 0.15265057981014252, -0.2435341775417328, 0.12580670416355133, 0.242131307721138, -0.10869479924440384, -0.718706488609314, -0.06785403937101364, -0.4331797957420349, -0.16783523559570312, 0.028095494955778122, -0.4663600027561188, 0.10259432345628738, 0.16068235039710999, -0.08792012184858322, -0.30409732460975647, 0.2067851722240448, 0.34598520398139954, -0.37509986758232117, -0.34043076634407043, -0.08911652117967606, 0.28592145442962646, -0.17393940687179565, -0.33414334058761597, 0.17891600728034973, 0.07096141576766968, -0.3455207049846649, 0.1545482873916626, -0.44760411977767944, 0.42699000239372253, 0.009419710375368595, 0.2910207509994507, -0.5830127596855164, 0.29782381653785706, 0.26747995615005493, -0.33012816309928894, -0.23720043897628784, 0.02980123646557331], [-1.4740101099014282, 0.35947945713996887, 0.060797736048698425, 0.0996449887752533, 0.02687297761440277, -0.329394668340683, -0.3564740717411041, -0.1769459843635559, 0.03340794891119003, 0.06299502402544022, 0.10536781698465347, -0.03776036575436592, 0.16788530349731445, 0.05636490508913994, 0.031176423653960228, 0.08823629468679428, 0.10574258118867874, -0.010249917395412922, -0.12724019587039948, 0.18426218628883362, -0.005939485039561987, 0.1930747926235199, -0.7353265285491943, 0.3437841236591339, 0.014125731773674488, 0.19342459738254547, 0.358707994222641, 0.2717989981174469, -0.008749810978770256, 0.4181458652019501, -0.32648321986198425, -0.10361360013484955, 0.203372985124588, -0.3052681088447571, 0.1665252298116684, -0.24665986001491547, 0.3306472599506378, -0.23307770490646362, 0.06165801361203194, -0.1832478791475296, -0.03917308151721954, 0.0435592420399189, 0.08250274509191513, 0.27293893694877625, -0.02620374970138073, -0.20639045536518097, 0.476622998714447, -0.14766398072242737, 0.06027507409453392, 0.24178026616573334, -0.5771773457527161, 0.6183517575263977, -0.286612868309021, 0.2786005735397339, -0.3294815123081207, -0.4832223653793335, -0.051627129316329956, -0.06156125292181969, 0.19390635192394257, 0.2280145287513733, -0.16993878781795502, -0.2195677012205124, 0.45265018939971924, 0.21203184127807617, -0.09694281220436096, -0.06382767856121063, -0.04154201224446297, -0.4767296016216278, 0.22607925534248352, 0.25274911522865295, -0.08240742981433868, -0.14132502675056458, 0.07894977182149887, -0.4618167579174042, 0.020761199295520782, 0.29447969794273376, 0.21528074145317078, -0.0205148383975029, 0.1364857703447342, -0.12108339369297028, -0.05441036820411682, -0.10380928963422775, -0.2679935395717621, 0.27650827169418335, 0.4292418956756592, 0.5353147387504578, 0.08417440205812454, 0.29695814847946167, 0.2195480912923813, -0.33021315932273865, 0.15992188453674316, -0.6505261659622192, 0.13452079892158508, 0.11426912248134613, 0.12760993838310242], [-0.6009588241577148, 0.8509539365768433, 0.023149818181991577, 0.03249077498912811, 0.09132324159145355, 0.2372937947511673, -0.6630212068557739, -0.41941219568252563, -0.06934705376625061, -0.1451970487833023, 0.05141286551952362, 0.19163553416728973, -0.08194810152053833, 0.10600826889276505, 0.18944552540779114, -0.03630103915929794, -0.18897230923175812, 0.16035975515842438, 0.20176546275615692, 0.1142243891954422, 0.007295005954802036, 0.06608126312494278, 0.362545907497406, -0.8777565956115723, 0.326673686504364, -0.20821237564086914, 0.41914552450180054, 0.24030059576034546, -0.3420168459415436, 0.13464687764644623, 0.2734057307243347, -0.29258865118026733, -0.17474859952926636, -0.055766019970178604, 0.16639290750026703, 0.049825072288513184, -0.14159084856510162, 0.35157641768455505, -0.25185465812683105, -0.3576584756374359, 0.2574094235897064, 0.0780247151851654, 0.11260449141263962, -0.02265807054936886, 0.5656395554542542, -0.23624636232852936, 0.4406692087650299, -0.05358785390853882, -0.23551110923290253, 0.29765868186950684, 0.1372402012348175, -0.4505990743637085, -0.7569347620010376, -0.03516550362110138, -0.11635276675224304, -0.2915814518928528, 0.16944321990013123, 0.003203545929864049, -0.22673869132995605, -0.13003553450107574, 0.1555529683828354, -0.27228423953056335, -0.5857363343238831, 0.3341473937034607, -0.01947666145861149, -0.12029773741960526, -0.40052977204322815, 0.03669773042201996, -0.22323152422904968, -0.3397546410560608, -0.21866561472415924, 0.16010704636573792, 0.10671932250261307, -0.04890765994787216, 0.2950836420059204, -0.4474474787712097, 0.20556901395320892, -0.06831744313240051, 0.09491830319166183, -0.28197771310806274, -0.30546969175338745, 0.2540966272354126, 0.43318790197372437, -0.05614575371146202, 0.19594040513038635, -0.07673326134681702, -0.0592532604932785, 0.7358272671699524, 0.018853403627872467, -0.16507978737354279, -0.19420480728149414, 0.06672129780054092, 0.4861445128917694, 0.14438441395759583, -0.1073053628206253], [-1.3044004440307617, 1.0629419088363647, -0.07149329781532288, -0.025160834193229675, 0.033404722809791565, -0.2811715602874756, 0.31135353446006775, 0.011313480325043201, 0.1344856470823288, 0.00891586672514677, 0.05163110792636871, 0.14686676859855652, -0.08429207652807236, 0.06779691576957703, 0.11165215075016022, 0.24079246819019318, -0.16665707528591156, 0.17814479768276215, -0.023188291117548943, -0.016151797026395798, -0.07887297868728638, 0.10797327756881714, 0.3366577923297882, -0.39651885628700256, 0.6322280168533325, 0.11379937082529068, 0.1450445055961609, 0.6275147795677185, 0.4425002336502075, 0.08153621852397919, -0.01148554403334856, -0.23801462352275848, 0.26377126574516296, -0.02272423915565014, 0.08556129783391953, -0.1489858627319336, -0.3068222105503082, 0.11506973206996918, 0.16323792934417725, -0.17840345203876495, -0.008602538146078587, 0.08866161853075027, -0.18783634901046753, -0.05157708376646042, 0.15004877746105194, -0.31235721707344055, -0.07370303571224213, -0.052752505987882614, 0.010686779394745827, -0.31431159377098083, 0.47822484374046326, -0.26817595958709717, -0.21954263746738434, 0.30367612838745117, 0.36768779158592224, -0.011481290683150291, 0.14273174107074738, -0.08472071588039398, 0.576354444026947, -0.15359053015708923, -0.27463141083717346, 0.23933640122413635, 0.042550936341285706, -0.08855267614126205, -0.1471405178308487, 0.15033230185508728, 0.034503478556871414, -0.09134810417890549, 0.17946970462799072, -0.18010641634464264, 0.6225259304046631, -0.20076031982898712, 0.3815697729587555, -0.01835417002439499, 0.062210600823163986, 0.33263903856277466, -0.12886565923690796, 0.4714065194129944, -0.1368144452571869, -0.03421446308493614, 0.24336464703083038, 0.20455880463123322, -0.28502872586250305, 0.44838982820510864, -0.09027916938066483, -0.1657082736492157, -0.13565342128276825, 0.043293632566928864, -0.5273356437683105, -0.0059083933010697365, 0.3373846113681793, 0.5010995864868164, 0.014503354206681252, -0.09533657878637314, -0.013380256481468678], [0.8960509896278381, 0.3841513693332672, -0.07218126207590103, -0.06868208199739456, -0.05369902774691582, -0.24429765343666077, 0.09593255817890167, -1.124406099319458, 0.26473936438560486, 0.029972927644848824, -0.19981719553470612, -0.19810962677001953, -0.05026762932538986, 0.06340249627828598, -0.13535162806510925, 0.3497869074344635, -0.026960836723446846, -0.1884237676858902, -0.0898752510547638, -0.052425019443035126, 0.16761967539787292, -0.02270166575908661, 0.007882312871515751, 0.6887080669403076, -0.3690490424633026, 0.4448535740375519, 0.13868968188762665, 0.2785665988922119, -0.07216758280992508, -0.49235302209854126, -0.25087809562683105, 0.07821828126907349, 0.05349159613251686, 0.059394996613264084, -0.17337365448474884, 0.04940396919846535, -0.22305075824260712, 0.027694378048181534, 0.021275095641613007, -0.038509052246809006, -0.026565490290522575, -0.1747509390115738, -0.2206200212240219, -0.13853220641613007, 0.1939128041267395, -0.012368039228022099, -0.08942990750074387, -0.12859755754470825, -0.05803142860531807, 0.3076227009296417, 0.19711506366729736, -0.12105535715818405, -0.09073006361722946, 0.3775215744972229, -0.6259269714355469, -0.0664229691028595, 0.08551043272018433, 0.08487951010465622, -0.21884037554264069, 0.07093492150306702, 0.20593327283859253, 0.10174286365509033, -0.42083197832107544, -0.2055271416902542, 0.01716349460184574, -0.19264677166938782, -0.08847583085298538, 0.10639046877622604, -0.15709084272384644, 0.3469958007335663, 0.02732772007584572, -0.0865352600812912, 0.0795854702591896, -0.22951920330524445, -0.14569418132305145, -0.07825814932584763, -0.1751871407032013, -0.06085946783423424, 0.043313562870025635, 0.20734870433807373, 0.1436857283115387, 0.14099138975143433, 0.2772763967514038, 0.4191199839115143, -0.08965279906988144, -0.4300267994403839, 0.8553420305252075, -0.13920140266418457, 0.40790829062461853, -0.91951984167099, -0.10459689795970917, 0.2958773672580719, -0.278860479593277, 0.022135553881525993, -0.006736070849001408], [-0.5665514469146729, 0.00552920950576663, 0.014552779495716095, -0.06996678560972214, 0.007009416818618774, 0.9383206963539124, -0.2993451654911041, -0.19953396916389465, 0.25090065598487854, 0.2285299450159073, 0.15298239886760712, 0.038613319396972656, 0.24389247596263885, 0.15572531521320343, 0.05015702545642853, 0.28294920921325684, 0.2927751839160919, 0.16964708268642426, 0.06916926801204681, 0.35015588998794556, 0.21038664877414703, 0.16136057674884796, -0.16587068140506744, -0.38741782307624817, -0.587787389755249, -0.211757630109787, -0.512138307094574, -0.11378754675388336, 0.06591241806745529, 0.07791409641504288, 0.29049307107925415, -0.13427191972732544, 0.2899684011936188, -0.06163132190704346, -0.14043758809566498, -0.14445656538009644, 0.12554973363876343, 0.0727030411362648, 0.1541479080915451, -0.05330831930041313, -0.09121441841125488, 0.053586989641189575, 0.02505754865705967, 0.24673150479793549, 0.37901726365089417, -0.16790232062339783, 0.25887438654899597, 0.15002483129501343, 0.04682697728276253, 0.5666838884353638, 0.26310211420059204, -0.057068515568971634, -0.19436737895011902, 0.6390347480773926, -0.17399920523166656, -0.07920964807271957, -1.129456877708435, -0.34571272134780884, -0.1715608537197113, -0.19810380041599274, 0.012397817336022854, 0.20369994640350342, -0.3798394203186035, 0.455618679523468, 0.058346137404441833, -0.11279336363077164, 0.06693325191736221, 0.06455960124731064, 0.03338107466697693, 0.24311648309230804, -0.018723687157034874, 0.007072146516293287, -0.0396457239985466, 0.14359097182750702, 0.14126653969287872, 0.5626499652862549, 0.25674372911453247, 0.17846769094467163, -0.38232240080833435, 0.03674578666687012, 0.34670084714889526, 0.16783244907855988, -0.2366432547569275, -0.22869211435317993, 0.09107454866170883, 1.2379153966903687, -0.6070550084114075, 1.1979819536209106, -0.3236581087112427, 0.6131682395935059, -0.2550491392612457, 0.5693818926811218, -0.649178147315979, 0.45394274592399597, -0.4092964828014374], [0.5962343811988831, -0.3631124496459961, 0.07050560414791107, 0.02426193654537201, -0.011987105011940002, -0.10918163508176804, 0.6746984124183655, -1.12571120262146, 0.04707184433937073, -0.1528424620628357, -0.1164235919713974, -0.07554829120635986, -0.09066689759492874, -0.043217733502388, -0.1638578176498413, 0.07374626398086548, -0.2425340861082077, -0.2892562747001648, -0.07425028085708618, -0.025301827117800713, -0.13358111679553986, -0.11593960225582123, -0.6532878279685974, -0.22375385463237762, 0.36583787202835083, -0.05871116742491722, 0.44426295161247253, -0.14176885783672333, -0.5304131507873535, -0.0973929911851883, -0.28661713004112244, 0.07577294111251831, -0.136630579829216, -0.1114719957113266, -0.0895567536354065, 0.07538632303476334, -0.11481381952762604, -0.349712073802948, -0.09198272973299026, -0.11705318838357925, -0.14961594343185425, 0.1562807261943817, 0.04781107231974602, -0.14978866279125214, -0.04176987335085869, -0.006880353670567274, 0.14961886405944824, -0.4195035398006439, 0.01424768753349781, -0.06503671407699585, -0.7630417943000793, 0.486635684967041, -0.1431175321340561, -0.12967456877231598, -0.06407294422388077, 0.07782463729381561, 0.039072323590517044, 0.03419474512338638, 0.03666071593761444, -0.08993130177259445, -0.29357463121414185, -0.053946997970342636, -0.17096824944019318, -0.28053519129753113, -0.3477992117404938, 0.08394448459148407, -0.338798850774765, -0.4005918502807617, 0.2099715918302536, -0.6053153872489929, -0.23785105347633362, 0.01462235115468502, -0.07972512394189835, -0.07793684303760529, -0.061961088329553604, -0.1375676840543747, 0.12107060849666595, -0.060002248734235764, -0.0760984793305397, 0.20363657176494598, 0.0652235746383667, -0.15793226659297943, -0.09827423840761185, 0.13494601845741272, -0.08114795386791229, 0.05878837779164314, -0.5106081962585449, 0.03833790123462677, 0.4658002555370331, -0.2343587726354599, 0.07257972657680511, -0.48896920680999756, 0.7786149978637695, -0.49592718482017517, 0.17180326581001282], [0.42185837030410767, -0.30104246735572815, -0.09564554691314697, 0.03305710852146149, 0.009400978684425354, -0.3271560072898865, 0.7298804521560669, 0.9860058426856995, -0.2723888158798218, -0.031926706433296204, -0.19641225039958954, -0.06585026532411575, -0.30330926179885864, -0.09961238503456116, -0.15070465207099915, -0.08960290998220444, -0.05517391115427017, -0.24637556076049805, 0.01859753578901291, -0.2198629081249237, -0.09460832178592682, -0.2850939929485321, -0.4292070269584656, 0.620116651058197, 0.26649990677833557, 0.023493429645895958, 0.17431408166885376, -0.5249249339103699, 0.5532261729240417, 0.36266961693763733, -0.32417550683021545, 0.07432155311107635, -0.22203733026981354, 0.07612008601427078, 0.12953785061836243, -0.04721744358539581, 0.11880813539028168, -0.37549617886543274, 0.09134263545274734, -0.16930200159549713, 0.19084107875823975, 0.0951981246471405, 0.17927400767803192, 0.0035850813146680593, -0.3141881823539734, 0.12471490353345871, -0.21165916323661804, 0.11282344907522202, -0.1260899156332016, -0.372373104095459, -0.14473529160022736, 0.15536284446716309, 0.1733524650335312, 0.6945115327835083, -0.0724462941288948, -0.15393885970115662, 0.6256460547447205, 0.5361288785934448, -0.33356088399887085, -0.09703958034515381, -0.11381117254495621, 0.4265759587287903, 0.6746595501899719, -0.08824456483125687, -0.38618046045303345, 0.2970173954963684, -0.016253098845481873, 0.18424750864505768, -0.11742698401212692, -0.464120477437973, -0.3539106845855713, 0.0743752121925354, 0.3391915559768677, -0.22874440252780914, -0.08833161741495132, 0.03039170615375042, -0.04196806624531746, 0.14792677760124207, -0.1495194286108017, 0.11607595533132553, 0.18960896134376526, 0.5733499526977539, 0.18589358031749725, 0.03404368832707405, 0.3417917788028717, -0.2436189204454422, 0.18013983964920044, -1.3294432163238525, 0.7023299336433411, -0.36080625653266907, 0.5788342356681824, -0.20243635773658752, -0.2388802021741867, -0.12203695625066757, -0.04303613305091858], [-0.011554213240742683, 0.02517634630203247, 0.033313363790512085, 0.09693267941474915, -0.0010820180177688599, 0.4147365987300873, 0.5571396350860596, -0.0008643681067042053, 0.28540661931037903, -0.061391450464725494, -0.025995848700404167, -0.06760179251432419, 0.02180292457342148, -0.024952098727226257, -0.12475211918354034, 0.31856778264045715, 0.024132395163178444, -0.13727453351020813, -0.1472194343805313, -0.13702422380447388, -0.02614768035709858, -0.023237232118844986, 0.07900477200746536, 0.6323522329330444, 0.3307351768016815, 0.49154365062713623, -0.21743066608905792, 0.5839704275131226, 0.28645139932632446, -0.06843949854373932, -4.002171044703573e-05, -0.22611507773399353, -0.03812416270375252, 0.14650672674179077, -0.3168306052684784, -0.15491053462028503, -0.08938536792993546, -0.020145101472735405, -0.02472612075507641, -0.23763078451156616, 0.0711861327290535, -0.09676479548215866, -0.03372068703174591, -0.13717706501483917, 0.011904277838766575, 0.1809387505054474, 0.17358145117759705, -0.041883185505867004, -0.06009886413812637, -0.05587415397167206, -0.42856815457344055, 0.25850799679756165, -0.16796071827411652, -0.33692440390586853, -0.13082313537597656, -0.09809032827615738, 0.12082955986261368, -0.18846753239631653, 0.056035321205854416, 0.19709497690200806, 0.5629807710647583, -0.06972292065620422, 0.30918025970458984, -0.17861217260360718, -0.0018590418621897697, -0.37237581610679626, -0.4216075539588928, -0.09404098987579346, 0.05633055046200752, -0.16089409589767456, 0.4558223783969879, -0.4785993695259094, 0.16870759427547455, -0.5719082951545715, 0.02618354931473732, -0.36742398142814636, -0.26108258962631226, -0.025256676599383354, 0.5172849893569946, -0.2173231691122055, 0.28387075662612915, 0.8718553781509399, -0.06772001087665558, 0.4250633120536804, 0.4263348877429962, -1.4055923223495483, 1.1170682907104492, -1.5997447967529297, 0.7993767261505127, -0.2395022064447403, 0.0804271474480629, 0.12175089865922928, 0.15604647994041443, -0.2997877597808838, 0.0691169872879982], [-0.231265589594841, 0.46044790744781494, -0.008331947028636932, -0.033368125557899475, 0.06672655045986176, 0.599687397480011, -0.40814530849456787, -0.9166029691696167, 0.3139418959617615, 0.10226009786128998, 0.20063148438930511, -0.03881801292300224, 0.04290679469704628, 0.026701809838414192, -0.006687600165605545, 0.41506892442703247, -0.005183614790439606, 0.14449293911457062, 0.026030832901597023, -0.04880234971642494, -0.021803734824061394, 0.011693068780004978, 0.08834938704967499, 0.2966238856315613, 0.08416111767292023, 0.30788329243659973, 0.6396145820617676, -0.3667200803756714, -0.7251906991004944, 0.00037899427115917206, 0.09714818745851517, 0.03938665613532066, -0.1886233389377594, 0.10795436054468155, -0.07555804401636124, 0.3069223463535309, 0.09336486458778381, -0.036030784249305725, -0.056890808045864105, 0.13610656559467316, -0.2105097770690918, 0.296590656042099, 0.214320570230484, -0.1993795931339264, -0.2644973695278168, 0.20527464151382446, 0.3812341094017029, 0.043695345520973206, 0.2760314643383026, 0.1187342181801796, -0.006355465855449438, 0.25169864296913147, -0.18445537984371185, -0.3281395733356476, -0.29839709401130676, -0.7393003702163696, 0.5850510597229004, -0.25472766160964966, -0.15288308262825012, -0.6335015892982483, 0.017085112631320953, 0.27941545844078064, -0.2171933650970459, -0.38597431778907776, -0.12043362110853195, 0.06798471510410309, -0.2367539256811142, 0.008038503117859364, -0.2732955515384674, -0.09667524695396423, 0.018959950655698776, 0.0750913918018341, 0.2557908594608307, -0.1399410367012024, -0.03465697541832924, -0.15696536004543304, 0.4156079590320587, 0.26252225041389465, -0.14545421302318573, -0.06751813739538193, -0.5336453914642334, -0.011413415893912315, -0.24454280734062195, 0.04169343039393425, -0.6361300349235535, 0.4972726106643677, 0.39309194684028625, 1.1393492221832275, -0.5025432109832764, 0.32888275384902954, -0.3015958070755005, -0.3886624574661255, -0.047799255698919296, 0.4554603397846222, -0.15453499555587769], [-1.3722745180130005, 0.38512712717056274, -0.04715605080127716, 0.08548398315906525, -0.05606195703148842, 0.3009495139122009, 0.026480229571461678, -1.9605871438980103, 0.34638890624046326, 0.012048712931573391, -0.14735475182533264, 0.20196887850761414, 0.0604257695376873, 0.04210583493113518, -0.036683086305856705, 0.3279934227466583, -0.027173962444067, -0.05737686902284622, 0.3878658413887024, -0.09949523955583572, 0.16372045874595642, 0.1497013419866562, 0.2525414228439331, -0.04272358492016792, 0.1468765139579773, 0.34884750843048096, 0.40090781450271606, 0.16848428547382355, 0.4120135009288788, -0.255802720785141, -0.06684478372335434, -0.20928658545017242, -0.09324264526367188, -0.1309002935886383, -0.029781503602862358, -0.15049992501735687, -0.5348057150840759, 0.0981801226735115, -0.15203340351581573, -0.15991777181625366, -0.031707100570201874, 0.1223190650343895, -0.1324782371520996, -0.21137118339538574, 0.1307128369808197, -0.2171444594860077, -0.23091210424900055, 0.3446056544780731, 0.002951262518763542, -0.20622245967388153, 0.426225870847702, 0.46016401052474976, -0.27001824975013733, -0.018091941252350807, 0.30732572078704834, 0.005149556323885918, 0.2569120526313782, 0.03882278874516487, -0.09220550954341888, -0.32858774065971375, -0.019520612433552742, -0.2510351538658142, 0.40215587615966797, 0.18739229440689087, 0.041067808866500854, 0.0810520276427269, 0.32332542538642883, 0.485212117433548, 0.04398684203624725, -0.9225655794143677, 0.4265844225883484, 0.02519237995147705, -0.11096806824207306, 0.4911203682422638, 0.15823154151439667, 0.09625788033008575, -0.05820685997605324, -0.10098353028297424, -0.19196653366088867, -0.1334402859210968, -0.273041307926178, 0.2954234480857849, 0.09197147190570831, -0.3148116171360016, 0.170254647731781, 0.15518076717853546, -0.1831253170967102, -0.0143131660297513, 0.24115175008773804, 0.06263673305511475, 0.36877092719078064, 0.11943192780017853, 0.1650913655757904, -0.13221535086631775, 0.07363348454236984], [-0.580017626285553, 0.0925256758928299, -0.015910491347312927, 0.05754944682121277, 0.08085916936397552, -0.08883886784315109, 0.5119166970252991, 0.43635106086730957, 0.04275105893611908, -0.025871245190501213, -0.014827746897935867, -0.018145810812711716, -0.11919290572404861, -0.105614073574543, -0.16949450969696045, -0.0043703289702534676, -0.011257302016019821, -0.11365073174238205, -0.05821153521537781, 0.034235429018735886, -0.06331492960453033, -0.03189997747540474, -0.0754677951335907, -0.4192076027393341, -0.02422853372991085, -0.2435760349035263, -0.13183806836605072, 0.26245465874671936, 0.5700452923774719, -0.24457764625549316, 0.15741704404354095, -0.06514761596918106, -0.13172544538974762, 0.22740282118320465, -0.11946790665388107, 0.010397152043879032, 0.057382676750421524, -0.05231722444295883, -0.0003159585176035762, 0.15431742370128632, -0.16835135221481323, -0.24488987028598785, -0.1455782800912857, 0.12297319620847702, -0.052350591868162155, -0.11963360011577606, -0.10312622785568237, 0.09755965322256088, -0.05959990248084068, -0.20908452570438385, 0.2536153197288513, -0.53089839220047, 0.20057961344718933, 0.5156804323196411, -0.8692288994789124, 0.24967578053474426, -0.09742999821901321, -0.5150314569473267, 0.2170601636171341, 0.23654820024967194, -0.05067475140094757, -0.0786973312497139, 0.2486409693956375, -0.2798067629337311, -0.4358709752559662, 0.2316240817308426, -0.042344145476818085, -0.09358672052621841, 0.5027377009391785, -0.027063243091106415, 0.26719483733177185, 0.4683143198490143, 0.05609207972884178, -0.23076024651527405, -0.03115292266011238, -0.00020783135551027954, -0.14823688566684723, -0.042925529181957245, 0.3064644932746887, -0.03067442588508129, -0.005112274084240198, -0.39148804545402527, 0.5435150265693665, -0.020690301433205605, 0.15665438771247864, 0.05269402265548706, 0.4105958938598633, -1.2456912994384766, 0.37801170349121094, 0.4696308970451355, 0.08019588142633438, 0.05351576954126358, -0.41801896691322327, -0.2648191452026367, 0.5913161039352417], [0.32576224207878113, -0.3018280267715454, -0.04830349236726761, -0.03623782843351364, 0.08447834849357605, -0.5920214653015137, -0.4288918972015381, -0.5400936603546143, -0.1424897313117981, 0.18280747532844543, -0.056737322360277176, -0.18966947495937347, -0.08709091693162918, -0.20666514337062836, -0.173316091299057, -0.01533316820859909, 0.0915345624089241, 0.0003880447766277939, -0.024223675951361656, -0.07062586396932602, -0.23649732768535614, -0.04292809218168259, -0.16753943264484406, -0.19976891577243805, -0.28212037682533264, 0.7286569476127625, -0.0790882557630539, 0.43632104992866516, -0.6263461112976074, 0.0127430260181427, 0.07291491329669952, -0.07639481127262115, -0.122282475233078, 0.15248288214206696, 0.2547614574432373, 0.28388160467147827, -0.04588521271944046, -0.05482480674982071, -0.10790810734033585, -0.020336035639047623, 0.10707487910985947, 0.10889576375484467, -0.06768738478422165, -0.012930305674672127, -0.08497460186481476, -0.12059177458286285, -0.2571569085121155, -0.32728907465934753, -0.30278104543685913, -0.3010416328907013, -0.12888620793819427, -0.03249605372548103, -0.4795571267604828, -0.3325079083442688, 0.04779371619224548, -0.06869285553693771, 0.4005930423736572, 0.2613362669944763, -0.41519537568092346, 0.29310861229896545, 0.09647232294082642, 0.07863903790712357, 0.014029493555426598, -0.12008455395698547, -0.006021317560225725, -0.3610938787460327, -0.027104007080197334, 0.09106545895338058, 0.08846177905797958, 0.32448282837867737, 0.24670471251010895, 0.1540624350309372, 0.24877946078777313, 0.15480494499206543, 0.039267826825380325, -0.00887786503881216, -0.3343745768070221, -0.20579195022583008, 0.1674753725528717, -0.18026699125766754, 0.18614614009857178, -0.4122799336910248, 0.23525485396385193, -0.11341475695371628, 0.02865055948495865, -0.6055291891098022, 0.28461775183677673, -1.3157241344451904, 0.7827662229537964, -0.49320393800735474, -0.040503621101379395, 0.01379417721182108, 0.654018759727478, -0.12499310076236725, -0.29707685112953186], [-0.5220881700515747, 0.06406214833259583, 0.007123440504074097, 0.051242485642433167, 0.05710248649120331, -0.15667210519313812, 0.01969471387565136, -0.3256884217262268, 0.16793997585773468, -0.17028948664665222, -0.06951142102479935, 0.13796846568584442, 0.004355939105153084, -0.027426201850175858, -0.07113390415906906, 0.04485669732093811, -0.20308274030685425, 0.04807295277714729, -0.034369971603155136, -0.06565523147583008, -0.014432549476623535, -0.09801412373781204, -0.5327819585800171, -0.06543715298175812, -0.6671760678291321, -0.3491211235523224, -0.15952366590499878, -0.009149626828730106, -0.3671136498451233, -0.016873501241207123, -0.08163011819124222, 0.03063228912651539, 0.18567229807376862, -0.005089202895760536, 0.020641349256038666, 0.19371405243873596, 0.0912322923541069, -0.08903546631336212, 0.041401371359825134, 0.26003938913345337, 0.008123849518597126, 0.18391329050064087, 0.33269062638282776, -0.011580942198634148, 0.11867544054985046, -0.03789371997117996, -0.16144296526908875, -0.020102817565202713, -0.46368640661239624, -0.3080945611000061, 0.048822663724422455, 0.06803514808416367, -0.22026890516281128, 0.6074853539466858, -0.11326894164085388, 0.0948183462023735, 0.21632540225982666, -0.44157689809799194, -0.13641288876533508, -0.13031861186027527, -0.8398129343986511, -0.11881161481142044, -0.11866714060306549, -0.3716888427734375, 0.04936327785253525, -0.034722909331321716, -0.8152384757995605, -0.37519392371177673, 0.035890694707632065, -0.050007566809654236, 0.26567551493644714, 0.2396833449602127, -0.2154761254787445, 0.5308746099472046, 0.1922427862882614, -0.15818239748477936, 0.20168597996234894, -0.19157561659812927, -0.250506192445755, 0.43985962867736816, -0.0872705951333046, 0.5564916729927063, -0.12805292010307312, -0.07011248171329498, -0.2008936107158661, 0.1694200038909912, -0.41581687331199646, -0.0004921561921946704, -0.39356598258018494, 0.685556948184967, 0.3569272458553314, 0.487068772315979, -0.084830641746521, -0.16165925562381744, -0.23545630276203156], [0.1735219955444336, 0.3465653657913208, -0.038856133818626404, 0.018546506762504578, -0.0053558871150016785, -0.003780250670388341, 0.3875410258769989, 1.0550130605697632, -0.13789518177509308, 0.4095247685909271, -0.06509864330291748, -0.1743745654821396, -0.243730828166008, -0.14633683860301971, -0.21624161303043365, -0.298610657453537, 0.26932570338249207, -0.14179816842079163, -0.16009466350078583, -0.16760699450969696, -0.06691835075616837, -0.32635200023651123, 0.275177538394928, -0.24071043729782104, -0.4454665184020996, 0.1709088236093521, -0.15589278936386108, -0.2915302813053131, 0.12918101251125336, 0.030824366956949234, -0.09689487516880035, 0.014405184425413609, 0.130404531955719, 0.12881618738174438, -0.052014440298080444, 0.13838210701942444, 0.08640629798173904, -0.06710080802440643, 0.1429693102836609, 0.12737521529197693, 0.03806007280945778, 0.0879969522356987, 0.1056215763092041, 0.08318936079740524, -0.04096769541501999, 0.017392996698617935, -0.4399757385253906, -0.006179521791636944, -0.0787409171462059, 0.047918498516082764, 0.6822317242622375, -0.16593366861343384, -0.059641316533088684, -0.32010769844055176, -0.11301296949386597, -0.08879516273736954, -0.06943152844905853, -0.06133826822042465, -0.20339471101760864, -0.23942428827285767, 0.1392890214920044, 0.6003487706184387, -0.09666198492050171, 0.23148195445537567, -0.14536531269550323, 0.017470214515924454, -0.14052696526050568, 0.08610273897647858, -0.4217686951160431, 0.3524233400821686, 0.11232160031795502, -0.5025503635406494, -0.20907434821128845, -0.1136760413646698, -0.028606396168470383, 0.10889932513237, -0.6553563475608826, -0.2683357894420624, -0.14685997366905212, 0.33304500579833984, -0.10118266940116882, -0.1348109245300293, 0.13303111493587494, 0.06463328748941422, 0.35270461440086365, -0.5086218118667603, 0.2316819131374359, 0.15045729279518127, -0.5637685060501099, -0.047050029039382935, -0.24382999539375305, 0.24390210211277008, -0.7964649796485901, 0.5207919478416443, -0.13613145053386688], [0.27762240171432495, 0.5104920268058777, -0.06438083946704865, -0.10192612558603287, 0.017017394304275513, 0.6205428838729858, -0.39016154408454895, -0.7532186508178711, 0.14155761897563934, -0.052582889795303345, 0.041837178170681, 0.013630537316203117, 0.05037940293550491, 0.07130908966064453, -0.02336510829627514, 0.16081346571445465, 0.05509428679943085, 0.014970011077821255, 0.0814683809876442, 0.049445293843746185, -0.02276434935629368, 0.009423511102795601, 0.45687463879585266, -0.31736108660697937, 0.24540892243385315, 0.25406917929649353, 0.04422920197248459, 0.12426456063985825, -0.29245173931121826, -0.15582311153411865, -0.005439251195639372, 0.02800900675356388, -0.06972894817590714, -0.04044506698846817, -0.1462438851594925, 0.24470339715480804, -0.3097660541534424, 0.0010527491103857756, -0.08835454285144806, -0.08487296104431152, -0.024077285081148148, -0.10299831628799438, -0.559628427028656, -0.11924111098051071, -0.025915540754795074, 0.2227630615234375, -0.22129197418689728, 0.0992739275097847, 0.3026464879512787, 0.25220417976379395, 0.11227525025606155, -0.050856634974479675, 0.5014038681983948, -0.20750975608825684, -0.3682629466056824, -0.10444365441799164, -0.46553751826286316, -0.18986305594444275, 0.03305104374885559, -0.5550931692123413, -0.26649245619773865, -0.08514683693647385, -0.13337847590446472, -0.1283310353755951, 0.16078433394432068, -0.08938607573509216, 0.005931686609983444, 0.0633380264043808, -0.24862690269947052, 0.3273875117301941, -0.07858308404684067, 0.3539956510066986, 0.058265794068574905, -0.12549740076065063, 0.06857011467218399, 0.11247001588344574, 0.17840032279491425, 0.48057833313941956, -0.14592373371124268, -0.052901916205883026, 0.04206882417201996, -0.22825752198696136, 0.470137357711792, -0.5783150792121887, 0.19690996408462524, 0.7233181595802307, -0.4335689842700958, 1.1510080099105835, -0.091301329433918, -0.4053921103477478, -0.31772342324256897, -0.37949755787849426, 0.20202383399009705, -0.15439757704734802, 0.0325915664434433], [0.1366831660270691, 0.35777032375335693, -0.011938244104385376, -0.030863970518112183, -0.0288362056016922, 0.019227229058742523, -0.5279126167297363, -0.4551548957824707, 0.18996089696884155, 0.06746017932891846, 0.01756078191101551, 0.12118753045797348, 0.0049580237828195095, -0.05469539761543274, -0.07821115851402283, 0.21611249446868896, -0.0276710856705904, -0.10041282325983047, 0.24634002149105072, 0.04649798572063446, -0.19007858633995056, 0.0626324862241745, -0.381477415561676, -0.024218503385782242, 0.4184812903404236, 0.29935508966445923, -0.3632582426071167, 0.18338561058044434, -0.5403521656990051, -0.16823190450668335, -0.10042506456375122, -0.1440042108297348, 0.09572295844554901, 0.13941366970539093, -0.0023571844212710857, 0.04477427899837494, -0.12487135827541351, 0.006317860912531614, -0.2171851545572281, 0.117636539041996, 0.13273940980434418, 0.02694109082221985, -0.06438151746988297, -0.11618649959564209, -0.07384216040372849, 0.10984241217374802, -0.14036430418491364, -0.24069222807884216, 0.36179137229919434, 0.07569433003664017, 0.12119107693433762, -0.27883780002593994, 0.23543179035186768, -0.4793457090854645, -0.3569847643375397, -0.0679294615983963, 0.03261939808726311, -0.14931567013263702, -0.26482006907463074, -0.13357672095298767, -0.43105873465538025, -0.14068572223186493, -0.09393282234668732, -0.07202047109603882, -0.04836732894182205, -0.2108849138021469, 0.03955572471022606, -0.007928146049380302, -0.2483312487602234, -0.5896541476249695, -0.33888328075408936, 0.5284510850906372, 0.07092177122831345, 0.15313126146793365, 0.008958395570516586, 0.03631268069148064, 0.27424320578575134, 0.2609849274158478, -0.021272283047437668, 0.1540137082338333, 0.2803270220756531, -0.10061918944120407, 0.15272779762744904, 0.14651887118816376, 0.1302851438522339, 1.0110194683074951, -0.11229633539915085, -0.04957439377903938, 0.4913797676563263, 0.2263980656862259, -0.036545515060424805, 0.24449700117111206, -0.10437168926000595, 0.1719719022512436, -0.027492163702845573], [-0.5667614340782166, 0.4382646977901459, -0.028721190989017487, -0.04036335274577141, 0.07016146183013916, -0.2608535587787628, -0.05678784102201462, 1.9049056768417358, 0.35865673422813416, 0.30120402574539185, -0.09892618656158447, -0.1624239981174469, -0.114508718252182, -0.12074008584022522, -0.2021748125553131, 0.37038275599479675, 0.27506107091903687, 0.02671811357140541, -0.16787001490592957, -0.1168307363986969, -0.21837717294692993, -0.07565068453550339, 0.03760985657572746, -0.6204877495765686, 0.15592417120933533, 0.0032666760962456465, -0.44994765520095825, 0.40918198227882385, -0.00808708742260933, -0.544235110282898, 0.18798604607582092, 0.1315324604511261, 0.05606633424758911, -0.09226510673761368, 0.2049787938594818, 0.053121790289878845, -0.29112061858177185, 0.303703248500824, 0.14756061136722565, -0.061112288385629654, 0.0992143303155899, 0.07608717679977417, -0.19760042428970337, 0.4807470142841339, 0.01894376613199711, -0.32000598311424255, -0.21661467850208282, -0.18776433169841766, 0.22079528868198395, 0.10311594605445862, -0.7451330423355103, 0.32431769371032715, 0.26768216490745544, -0.01562822237610817, 0.6236010789871216, -1.0099679231643677, 0.22577953338623047, 0.41958513855934143, -0.5078810453414917, 0.044358089566230774, 0.4170268177986145, 0.2483869045972824, 0.1689806431531906, -0.027433104813098907, -0.2651352286338806, -0.009846754372119904, 0.19720812141895294, 0.10916730761528015, -0.08585584163665771, -0.1697288453578949, -0.22846198081970215, 0.2654045820236206, 0.40303879976272583, 0.12315905094146729, -0.03741578012704849, -0.7158750295639038, 0.21236391365528107, -0.26345354318618774, 0.16781146824359894, -0.05167904496192932, 0.04416457563638687, -0.5149989128112793, -0.009335885755717754, 0.2741389870643616, 0.14321480691432953, -0.6274163126945496, -0.00729690445587039, -0.534674882888794, -0.05701116845011711, -0.5795198082923889, -0.24079222977161407, 0.002600333420559764, 0.10753710567951202, 0.979269802570343, -0.3621746301651001], [-0.06886684149503708, 0.1867183893918991, -0.06309087574481964, -0.07539916038513184, -0.09667865931987762, -0.01158096082508564, 0.198475643992424, 0.3138572871685028, -0.1450856328010559, -0.045264456421136856, -0.02979031763970852, -0.03700071573257446, -0.1564745008945465, -0.1526937484741211, 0.0007072040461935103, -0.17442694306373596, -0.10312928259372711, -0.13856635987758636, -0.16068291664123535, -0.05730712041258812, -0.04940866306424141, -0.07681962847709656, 0.17212273180484772, -0.21080271899700165, 0.051543619483709335, 0.07658286392688751, 0.25136327743530273, -0.052067551761865616, -0.05474891886115074, -0.01905490830540657, -0.025302991271018982, -0.04177673161029816, -0.005934922024607658, -0.09273600578308105, -0.022963540628552437, 0.0701504647731781, -0.07113099843263626, 0.02878285013139248, -0.14170421659946442, -0.07927680015563965, -0.06111259385943413, 0.007470889016985893, -0.05355057492852211, -0.14461727440357208, -0.17432650923728943, -0.1565842181444168, -0.10558275878429413, 0.12474215775728226, -0.008064099587500095, -0.3140553832054138, 0.6218072175979614, -0.23078539967536926, 0.5692164301872253, 0.11538122594356537, 0.18566946685314178, -0.4459536373615265, 0.2051468789577484, 0.34065890312194824, -0.3706674873828888, -0.5754059553146362, -0.030591603368520737, -0.21145901083946228, 0.3179531395435333, -0.44335708022117615, -0.14484244585037231, 0.3326610326766968, -0.06432722508907318, 0.008348876610398293, -0.1050485223531723, 0.006655049975961447, -0.005145940463989973, -0.18097315728664398, 0.08440147340297699, -0.07054264098405838, -0.04072815179824829, -0.5328191518783569, 0.05404290184378624, -0.3180253207683563, 0.7532822489738464, 0.25255101919174194, 0.034990400075912476, 0.5166375041007996, -0.2272627204656601, 0.2097219079732895, 0.07271915674209595, -1.1617857217788696, 0.8452470302581787, -1.0754971504211426, 0.5742844939231873, 0.21640388667583466, -0.36771681904792786, 0.09746571630239487, 0.04545403644442558, -0.9897744655609131, 0.0922020822763443], [0.2818801701068878, 0.14286267757415771, -0.0015961825847625732, 0.027982905507087708, 0.032969892024993896, -0.3284745216369629, -0.34461119771003723, -0.5934571027755737, 0.17772828042507172, 0.07391619682312012, -0.15383881330490112, 0.02113373577594757, -0.12932227551937103, -0.01868097484111786, -0.05002950504422188, 0.16160519421100616, -0.04493216425180435, -0.17519551515579224, 0.01671609841287136, -0.004343092441558838, -0.02981950156390667, 0.06051304191350937, 0.2572510242462158, -0.553070604801178, 0.291830450296402, 0.3624575138092041, -0.027639681473374367, -0.1788364201784134, 0.43617522716522217, -0.16190528869628906, -0.13081097602844238, -0.0010770084336400032, 