{"model_type": "MarioMLP", "state_dict": {"net.0.weight": [[0.03328029066324234, 0.13220852613449097, -0.04166455566883087, 0.06851769983768463, -0.04215221852064133, 0.3146209418773651, 0.028689423575997353, 0.07432655990123749, -0.10479584336280823, 0.007081090472638607, -0.0812213346362114, -0.07646303623914719, -0.0077887787483632565, 0.08870937675237656, 0.08306202292442322, -0.013418189249932766, -0.04859846457839012, 0.00044954594341106713, 0.026519738137722015, -0.08910106122493744, -0.031197817996144295, -0.006230172701179981, -0.0696382075548172, 0.008963217958807945, -0.1240244060754776, 0.051033880561590195, -0.3115828335285187, -0.1719377040863037, 0.11203545331954956, -0.05905740335583687, 0.15504594147205353, -0.08122901618480682, -0.014777664095163345, -0.01984608732163906, -0.019321180880069733, 0.1304808109998703, 0.1672370433807373, -0.053827762603759766, 0.10177753865718842, -0.14431411027908325, 0.07098590582609177, -0.0729566290974617, -0.029246821999549866, -0.09372379630804062, 0.2842397093772888, 0.057987820357084274, -0.004326109774410725, -0.021057914942502975, -0.019077852368354797, 0.026191258803009987, -0.057428061962127686, -0.022829636931419373, -0.0023370040580630302, -0.11462989449501038, 0.07225673645734787, 0.06910032033920288, 0.11502484977245331, 0.00105723412707448, 0.06881476938724518, 0.01270432397723198, -0.027596687898039818, 0.16933277249336243, 0.16053467988967896, -0.09950565546751022, 0.06633445620536804, -0.031120045110583305, -0.1788194477558136, 0.19229386746883392, -0.3265252709388733, 0.1308419555425644, -0.05805940181016922, -0.12291045486927032, -0.060931235551834106, -0.1773051917552948, -0.08410025388002396, -0.09174545109272003, -0.09795719385147095, 0.05641660839319229, -0.13660533726215363, 0.1016053557395935, 0.09214679896831512, 0.049400798976421356, 0.08255460113286972, 0.02095847763121128, 0.008684579282999039, -0.20379970967769623, 0.06402156502008438, 0.13060390949249268, -0.022568760439753532, 0.052669744938611984, -0.18917006254196167, -0.0412415973842144, 0.06818848848342896, -0.1820727437734604, -0.08330006897449493, -0.018482381477952003, 0.185836061835289, 0.059822190552949905, 0.11951097100973129, -0.041554421186447144, -0.10395345836877823, -0.08730228245258331, -0.13962318003177643, -0.08712714165449142, -0.19199347496032715, 0.01476026140153408, -0.17624923586845398], [0.24906258285045624, 0.2907668650150299, 0.08929581940174103, 0.03048020601272583, -0.05312380939722061, 0.15799348056316376, -0.0009272616589441895, 0.08698561042547226, 0.07291463017463684, -0.05292798951268196, 0.03365984186530113, 0.04330410435795784, -0.03652198612689972, 0.05422574654221535, 0.05797029659152031, -0.0016814681002870202, -0.08658072352409363, 0.1138354167342186, -0.07015891373157501, -0.062387872487306595, -0.09443874657154083, -0.08891583234071732, -0.11102870851755142, -0.05961400270462036, 0.18388834595680237, 0.02022557519376278, 0.14043167233467102, -0.12146207690238953, 0.15576672554016113, 0.13495676219463348, -0.07397820055484772, -0.005575604271143675, 0.08222519606351852, 0.07596607506275177, -0.006874142214655876, 0.02694411389529705, -0.05823227018117905, -0.09767128527164459, -0.11044950038194656, -0.027174759656190872, 0.022819392383098602, -0.019960224628448486, 0.0027120462618768215, -0.03223806992173195, -0.3186137080192566, 0.0037118245381861925, -0.007672612089663744, 0.04997428134083748, 0.08340433239936829, -0.032687798142433167, -0.037381429225206375, -0.09142756462097168, 0.032092973589897156, -0.2393968403339386, -0.12858723104000092, 0.03204837813973427, 0.11537870019674301, 0.1383838653564453, -0.04432206228375435, -0.013834528625011444, 0.10403002798557281, -0.08513125777244568, -0.07540689408779144, -0.006910428404808044, 0.1886112093925476, 0.026181604713201523, -0.10735942423343658, -0.011141665279865265, -0.046671416610479355, -0.1977897584438324, -0.044542811810970306, -0.1033361479640007, 0.040947310626506805, -0.10349337756633759, 0.05904601886868477, -0.01893572509288788, -0.05296580493450165, 0.22349217534065247, 0.0032009948045015335, -0.12860065698623657, -0.08376194536685944, -0.08681479841470718, -0.031529564410448074, 0.06634284555912018, -0.2210073620080948, 0.05254671350121498, 0.09723786264657974, -0.13003309071063995, 0.08355153352022171, -0.027607129886746407, -0.0814070776104927, 0.07462196797132492, -0.08439195156097412, -0.025086814537644386, 0.11391205340623856, 0.19425596296787262, 0.13167092204093933, -0.05331937596201897, -0.06395499408245087, 0.11805624514818192, 0.1988307684659958, 0.040147531777620316, -0.028717003762722015, -0.01976793073117733, -0.09307380020618439, 0.18225349485874176, 0.13423989713191986], [-0.12203437089920044, 0.487802118062973, -0.07561240345239639, 0.08661708235740662, 0.010664776898920536, -0.1353921890258789, -0.022927265614271164, -0.020201142877340317, -0.1609930545091629, 0.14181162416934967, 0.01447852049022913, -0.06937865167856216, 0.014807484112679958, -0.06480520218610764, -0.07881811261177063, 0.06251942366361618, 0.012431359849870205, 0.05226225033402443, 0.12570321559906006, 0.047563955187797546, -0.04314539581537247, -0.001918709953315556, 0.023897137492895126, 0.07606879621744156, 0.07973204553127289, -0.08705081790685654, -0.05394820123910904, -0.19622349739074707, -0.03205486387014389, 0.11393362283706665, -0.11999954283237457, -0.07370392978191376, 0.012728331610560417, -0.10070975869894028, 0.023417938500642776, 0.11526331305503845, -0.013202853500843048, 0.11649931967258453, 0.0025882478803396225, 0.05759580805897713, -0.16193802654743195, 0.04064933955669403, -0.15310533344745636, -0.14181971549987793, 0.10490387678146362, 0.06161461025476456, -0.0038617467507719994, -0.05427012965083122, 0.06379847228527069, -0.17428819835186005, -0.04338116571307182, -0.12209691852331161, -0.08003678172826767, 0.29782116413116455, 0.07146678119897842, 0.04847061261534691, 0.04255777597427368, 0.014200888574123383, 0.029116814956068993, -0.061072107404470444, 0.029784271493554115, 0.2828656733036041, -0.013040216639637947, 0.04935307428240776, -0.04056479409337044, -0.12172933667898178, 0.15815024077892303, 0.09292350709438324, -0.30500486493110657, 0.04216775298118591, -0.14463850855827332, -0.028645658865571022, 0.042321376502513885, -0.14185790717601776, -0.10158780217170715, -0.06182459741830826, -0.06567095965147018, -0.1222791075706482, 0.18851447105407715, 0.05021904408931732, 0.25051552057266235, -0.21709394454956055, 0.02040470950305462, 0.07632069289684296, 0.037566039711236954, 0.16273565590381622, -0.04959513992071152, -0.06159847602248192, -0.1391655057668686, -0.09156444668769836, 0.15703096985816956, -0.006986335385590792, -0.1366460919380188, -0.13303224742412567, 0.01659446582198143, -0.06850962340831757, 0.11484218388795853, 0.042573463171720505, 0.03060661256313324, 0.05204179883003235, 0.042550425976514816, 0.23037536442279816, 0.016560040414333344, 0.017871685326099396, 0.04000096768140793, 0.5277143120765686, 0.3132280111312866], [-0.13424159586429596, 0.06055181846022606, -0.09255101531744003, 0.07189416885375977, 0.08742929995059967, 0.15689411759376526, 0.10317959636449814, -0.07189518213272095, -0.05517715588212013, -0.045978158712387085, 0.012442078441381454, 0.057418737560510635, 0.045854829251766205, -0.07529859989881516, -0.03240160644054413, 0.10672207921743393, -0.04962333291769028, -0.29134702682495117, 0.04070871323347092, -0.01871417835354805, 0.08009092509746552, 0.09689940512180328, 0.12196872383356094, -0.0809372067451477, 0.06790175288915634, 0.0264571625739336, -0.018580134958028793, -0.16981200873851776, -0.1953641027212143, -0.2030671387910843, -0.06344234198331833, -0.04125804826617241, 0.08584301918745041, 0.03189466893672943, 0.07912055402994156, 0.0979902595281601, -0.10525327920913696, 0.12464124709367752, -0.0014191269874572754, -0.09420829266309738, 0.06066755950450897, -0.02279776521027088, -0.06757451593875885, 0.003887295490130782, 0.10775359719991684, -0.06659729778766632, 0.05319616571068764, 0.07704733312129974, 0.10510361939668655, -0.10351619869470596, 0.03907487168908119, -0.06671368330717087, 0.04907606542110443, -0.0019748774357140064, -0.01412899512797594, -0.030324699357151985, -0.004204547498375177, 0.04613886773586273, -0.011642532423138618, -0.026247430592775345, 0.01862870529294014, 0.057341672480106354, 0.10642117261886597, 0.032971128821372986, -0.044046226888895035, -0.19359855353832245, -0.05563819035887718, -0.03231183812022209, 0.006571104750037193, 0.032412029802799225, 0.1497351974248886, 0.34119394421577454, -0.09625520557165146, -0.030582638457417488, -0.18196697533130646, -0.10291162878274918, -0.11491961032152176, -0.024738892912864685, -0.09141477942466736, 0.15725094079971313, -0.4675233066082001, 0.024399645626544952, -0.07690617442131042, 0.17710725963115692, 0.00631085317581892, -0.0012970317620784044, 0.20086221396923065, -0.22898660600185394, -0.2697116434574127, -0.005444828886538744, 0.1163083091378212, -0.014269831590354443, -0.2669222056865692, 0.12005463987588882, 0.13587726652622223, 0.15284021198749542, -0.012168007902801037, 0.11956267803907394, -0.015292009338736534, 0.004701083991676569, 0.27863484621047974, 0.16717183589935303, 0.023805905133485794, 0.049416620284318924, 0.02333722822368145, -0.031003547832369804, -0.2808564007282257], [-0.23772969841957092, 0.08886726945638657, 0.09392496943473816, 0.05954694747924805, -0.08234215527772903, 0.08761455118656158, 0.027157772332429886, 0.01758059859275818, 0.050147417932748795, 0.018185030668973923, 0.0023719994351267815, -0.0007834307616576552, 0.08090011030435562, -0.06665211915969849, 0.061888188123703, -0.04595715180039406, -0.06469130516052246, -0.06261708587408066, 0.06015663966536522, -0.0011364322854205966, -0.024087021127343178, -0.11445750296115875, -0.03300335630774498, 0.08593448996543884, -0.06302490085363388, -0.011414545588195324, 0.022360557690262794, -0.16766786575317383, -0.05530710145831108, -0.11305366456508636, -0.020722705870866776, 0.1899464726448059, 0.030550530180335045, -0.1114308089017868, -0.06381474435329437, -0.00520751066505909, 0.03785648196935654, -0.05778467282652855, -0.07173178344964981, -0.03213667869567871, -0.02664002776145935, 0.0663432702422142, -0.014143580570816994, 0.03504769876599312, -0.1715758591890335, 0.08930105715990067, -0.17948128283023834, -0.004438586533069611, 0.016077905893325806, -0.03861682862043381, 0.10754570364952087, -0.05768958106637001, -0.09524737298488617, 0.013948192819952965, -0.027643989771604538, 0.0833546444773674, -0.07302895933389664, -0.1270730197429657, 0.083434097468853, 0.11515188217163086, 0.09380267560482025, 0.04723484441637993, 0.22775645554065704, 0.0406399704515934, 0.05983175337314606, -0.005355322267860174, 0.11061149090528488, -0.0015092100948095322, -0.25874683260917664, 0.07600139081478119, -0.14958269894123077, -0.19132409989833832, 0.04589037969708443, 0.18485209345817566, 0.1763715296983719, -0.05834377557039261, 0.14411181211471558, -0.16564321517944336, 0.1050676628947258, -0.038439203053712845, 0.12004370987415314, -0.1539633870124817, -0.07957524061203003, -0.01568576879799366, 0.01617118902504444, 0.001990635646507144, -0.08550476282835007, 0.2613958418369293, 0.15078498423099518, 0.07876458764076233, 0.15463696420192719, -0.13510049879550934, -0.050678882747888565, 0.07970533519983292, 0.08523412048816681, -0.026423942297697067, -0.10607096552848816, 0.08617899566888809, 0.036936670541763306, -0.10234218090772629, -0.009286059997975826, 0.17941975593566895, 0.03959274664521217, 0.0018364640418440104, -0.06348052620887756, 0.13220848143100739, -0.36477532982826233], [0.3674619793891907, 0.1009351834654808, -0.05042190104722977, -0.026882074773311615, -0.05028596892952919, -0.040632154792547226, -0.010405675508081913, -0.0768435075879097, -0.12391728162765503, 0.057433053851127625, -0.01223395299166441, -0.08144845813512802, 0.04528829827904701, -0.06529727578163147, -0.02954873815178871, -0.031604886054992676, 0.09433083981275558, 0.1148572638630867, -0.09551446884870529, 0.02864363044500351, 0.053798116743564606, -0.08577072620391846, 0.014131330884993076, -0.05155227333307266, -0.047437842935323715, -0.05623466894030571, -0.06458797305822372, 0.04807388037443161, -0.05572904273867607, -0.0867907702922821, -0.047513727098703384, 0.09253402799367905, -0.04894112050533295, -0.0939875915646553, 0.0725059062242508, -0.06677950918674469, 0.03819984942674637, -0.12316101789474487, 0.03645169362425804, -0.05142073705792427, 0.022993303835392, 0.0019129751017317176, -0.012833437882363796, -0.014694670215249062, 0.08427967131137848, -0.11634153127670288, -0.07390903681516647, 0.04322633147239685, 0.007892192341387272, 0.0038590789772570133, 0.0836908146739006, 0.05883977562189102, -0.017570771276950836, 0.16247893869876862, -0.14577452838420868, 0.06095011532306671, -0.06669346988201141, -0.09132199734449387, -0.24932731688022614, -0.08795091509819031, -0.05144039914011955, 0.07947970181703568, -0.1217884048819542, 0.038257699459791183, -0.14804407954216003, -0.11147551238536835, 0.14681310951709747, -0.15200845897197723, -0.03433945029973984, -0.07817249745130539, -0.011314005590975285, 0.05072690546512604, -0.05210746079683304, 0.011087127961218357, 0.007288894150406122, 0.12877137959003448, -0.09456431120634079, -0.06733567267656326, 0.0007949139107950032, 0.1185106709599495, 0.13615384697914124, 0.008213568478822708, -0.03590530529618263, -0.1688382923603058, -0.053251564502716064, 0.19653713703155518, -0.34381216764450073, -0.10251817852258682, 0.14246229827404022, -0.016662701964378357, 0.1820525825023651, -0.139281764626503, 0.18422242999076843, -0.2087993323802948, 0.07763639837503433, -0.13829463720321655, -0.061248160898685455, 0.0985628217458725, 0.027501780539751053, 0.13664260506629944, 0.1523187905550003, 0.05523371323943138, 0.10584661364555359, -0.08517763018608093, -0.056646719574928284, 0.13095135986804962, 0.19543933868408203], [-0.0821136087179184, -0.010029377415776253, -0.024078190326690674, 0.03203178942203522, -0.05885057523846626, 0.1224055290222168, 0.011159961111843586, 0.12566940486431122, 0.125194251537323, 0.005135038867592812, 0.05159594491124153, 0.04058949276804924, 0.05103962868452072, 0.013385831378400326, 0.010202422738075256, -0.008543933741748333, 0.0017440707888454199, 0.08560637384653091, 0.127491757273674, -0.014612188562750816, -0.04396100342273712, 0.06273919343948364, 0.017570868134498596, 0.023001546040177345, -0.01123709138482809, 0.047615934163331985, -0.06944175064563751, 0.11635550856590271, 0.055176764726638794, -0.02095245197415352, 0.04896317422389984, -0.053417135030031204, 0.10953251272439957, -0.008356062695384026, -0.07237350195646286, 0.08610621094703674, 0.1424705684185028, -0.011724683456122875, -0.06907522678375244, -0.07370280474424362, -0.09942934662103653, -0.0738702118396759, -0.05783673748373985, -0.026793699711561203, -0.14392046630382538, -0.01148146390914917, -0.08746571093797684, -0.030924316495656967, 0.03430064395070076, -0.12780289351940155, 0.03790704905986786, -0.07968221604824066, -0.07789383083581924, -0.12481998652219772, 0.05021696910262108, -0.0763716995716095, -0.08182253688573837, 0.036855340003967285, 0.041705477982759476, -0.025468535721302032, -0.1796453893184662, 0.02444462478160858, 0.16113491356372833, -0.08113456517457962, -0.1788804829120636, -0.013014618307352066, 0.20438824594020844, 0.20215317606925964, -0.10698457062244415, 0.02708609588444233, 0.03534229099750519, -0.05009079724550247, -0.016470523551106453, 0.11687083542346954, -0.023543721064925194, -0.06989144533872604, 0.0742807537317276, -0.11232779175043106, 0.23614399135112762, -0.09881655871868134, -0.009323478676378727, -0.0030820006504654884, -0.12350604683160782, -0.031643159687519073, 0.0405442900955677, 0.07717316597700119, 0.061949390918016434, -0.03477346524596214, 0.15156123042106628, 0.17030476033687592, 0.001477836281992495, -0.016605405136942863, -0.047239791601896286, -0.26633235812187195, -0.09064177423715591, -0.003899656469002366, -0.17517246305942535, 0.030077122151851654, -0.04156050831079483, 0.062439508736133575, -0.09065625071525574, 0.11942010372877121, 0.10290069133043289, -0.008026063442230225, 0.08439940214157104, -0.25854748487472534, -0.3129065930843353], [-0.3742687404155731, 0.11266562342643738, 0.08851167559623718, -0.0730573982000351, 0.03882444277405739, 0.06664542853832245, 0.03041844815015793, -0.05871371179819107, -0.0033997916616499424, 0.07683496177196503, -0.0749969556927681, -0.16800332069396973, 0.06499407440423965, 0.015979377552866936, 0.06268379837274551, 0.04010241478681564, -0.04187764972448349, -0.20254471898078918, 0.02527035027742386, -0.040965735912323, 0.10291493684053421, 0.06682855635881424, 0.04711156710982323, -0.01539025641977787, -0.15651972591876984, 0.04449334368109703, -0.05382782593369484, -0.08765847980976105, 0.2721927762031555, 0.05586674064397812, -0.09888968616724014, -0.12444843351840973, -0.0909155011177063, 0.05640299245715141, 0.0591290183365345, -0.15781641006469727, -0.1289905309677124, -0.1548638641834259, 0.1206967681646347, -0.030362090095877647, -0.02391793392598629, -0.02064255066215992, 0.06088296324014664, 0.08666698634624481, 0.12077539414167404, -0.12817710638046265, -0.05947759747505188, 0.033838432282209396, 0.010522663593292236, -0.06994091719388962, -0.01199169922620058, -0.02256029285490513, -0.002318312181159854, -0.03866007179021835, 0.0674877017736435, 0.043523892760276794, 0.06710990518331528, 0.029488708823919296, -0.048024535179138184, -0.07829274237155914, -0.19821836054325104, -0.08504112809896469, 0.11448498070240021, -0.08770840615034103, -0.05471926927566528, 0.06150816008448601, -0.22458522021770477, 0.06431518495082855, -0.06635855883359909, 0.008481177501380444, -0.004948000889271498, -0.1490096151828766, 0.22989104688167572, 0.17869453132152557, -0.0756443589925766, -0.2624633312225342, 0.01480088196694851, 0.11279115825891495, 0.05157948657870293, 0.02551323175430298, -0.05330679565668106, 0.14814642071723938, 0.09215408563613892, 0.061401549726724625, -0.28914356231689453, 0.29083460569381714, -0.18017269670963287, 0.0636821985244751, -0.0878252238035202, 0.16359999775886536, -0.056170426309108734, 0.005889082793146372, -0.027616484090685844, 0.03611552342772484, 0.08033809065818787, -0.030985942110419273, 0.1295827478170395, 0.11537562310695648, 0.016160259023308754, 0.010218052193522453, -0.0064129577949643135, -0.014371227473020554, -0.06197478994727135, 0.04037968069314957, -0.09812237322330475, 0.2361702024936676, 0.061435848474502563], [-0.15705332159996033, 0.20577415823936462, -0.05727708339691162, -0.07370120286941528, 0.032630372792482376, 0.1417096108198166, 0.04493343457579613, 0.02393370494246483, 0.1413966864347458, 0.034955788403749466, -0.021261705085635185, -0.1806178241968155, 0.05998466908931732, 0.0724029392004013, 0.07460849732160568, -0.016499390825629234, 0.033915746957063675, 0.02215522900223732, 0.0492246113717556, -0.037970516830682755, -0.027323761954903603, 0.011416279710829258, 0.10448679327964783, 0.0530061349272728, -0.1754828542470932, -0.05290175601840019, 0.08043153584003448, 0.07221995294094086, 0.05059858784079552, 0.17461971938610077, -0.06091352552175522, -0.04946282505989075, 0.047042857855558395, 0.017752304673194885, 0.015535742975771427, 0.11545971781015396, 0.014095460996031761, -0.1101817935705185, 0.06928320974111557, -0.08286373317241669, -0.030016236007213593, -0.04650256037712097, 0.06931965053081512, 0.08686337620019913, -0.01979144662618637, -0.03996892645955086, 0.00549793615937233, -0.041954461485147476, 0.07515711337327957, -0.09832248836755753, -0.0022807528730481863, -0.011059008538722992, -0.037355706095695496, 0.10049650073051453, 0.014774709939956665, -0.02001335099339485, -0.12400771677494049, -0.2268490344285965, 0.17081622779369354, 0.03274168446660042, 0.09740346670150757, -0.2698102295398712, -0.14757151901721954, 0.23958921432495117, -0.1455574333667755, 0.09286089241504669, 0.16650702059268951, -0.2023783028125763, -0.0962018072605133, 0.06288255751132965, -0.14050422608852386, -0.06703375279903412, -0.022858673706650734, 0.02827644906938076, 0.26215171813964844, -0.07288069278001785, 0.025178249925374985, 0.10292094945907593, -0.15142005681991577, 0.035160355269908905, 0.3450983762741089, -0.06282057613134384, 0.05744686350226402, -0.1472053825855255, 0.027033329010009766, -0.003207838162779808, -0.029840175062417984, 0.09581514447927475, 0.2830033302307129, -0.12501463294029236, -0.16990002989768982, -0.10961572080850601, -0.20348042249679565, 0.08310697227716446, 0.0791177824139595, 0.03477443382143974, -0.013983899727463722, -0.05258205905556679, -0.1000141128897667, -0.009902136400341988, 0.06996981799602509, 0.04130053147673607, -0.07140912860631943, 0.2294313609600067, -0.11626289784908295, 0.28160780668258667, -0.50518399477005], [-0.03417615219950676, 0.07642588764429092, 0.07733632624149323, -0.00981060415506363, 0.006423335988074541, 0.10316316038370132, -0.008356365375220776, 0.07542968541383743, 0.11013449728488922, -0.10730212181806564, 0.005753615405410528, -0.016336871311068535, 0.003578741801902652, -0.0071169538423419, -0.06631836295127869, -0.0541253462433815, -0.050009507685899734, -0.1883808821439743, 0.04244774580001831, 0.021803082898259163, -0.06220758333802223, 0.02257077395915985, 0.046897076070308685, -0.05153549835085869, 0.03709811344742775, -0.034726809710264206, 0.0012129860697314143, -0.13221634924411774, -0.15497685968875885, -0.07626915723085403, 0.057243797928094864, -0.13214117288589478, -0.1362510770559311, 0.017749739810824394, -0.03634485974907875, 0.003840086283162236, -0.04494954273104668, -0.0711660087108612, -0.05805326998233795, 0.05383017286658287, 0.027661021798849106, 0.03683551400899887, -0.04324794188141823, -0.03709001839160919, -0.17860034108161926, -0.08994707465171814, -0.04104176163673401, 0.09057912230491638, 0.025735707953572273, 0.00356575776822865, 0.02512683905661106, -0.0471409372985363, -0.15445668995380402, -0.18805742263793945, -0.02401098795235157, -0.021992243826389313, 0.06204914301633835, 0.036188721656799316, 0.015425870195031166, 0.04287075251340866, 0.028758661821484566, -0.01135318074375391, -0.14532694220542908, 0.10959738492965698, -0.022695960476994514, -0.12911714613437653, 0.12413009256124496, 0.14121831953525543, 0.0869644433259964, 0.12056004256010056, -0.053128354251384735, 0.03383210673928261, -0.09924425929784775, 0.033994898200035095, 0.10498026758432388, -0.029513772577047348, 0.045868728309869766, -0.02131067030131817, -0.07126500457525253, 0.04643581062555313, 0.038582693785429, 0.14783240854740143, -0.009423024952411652, -0.025910284370183945, 0.041170354932546616, 0.015034758485853672, -0.11470944434404373, -0.12743987143039703, -0.018764935433864594, 0.016874538734555244, 0.12377993017435074, -0.010571914725005627, -0.1539362519979477, 0.11964820325374603, 0.037673432379961014, 0.04257228970527649, -0.12339912354946136, 0.2274930775165558, -0.10057373344898224, -0.0015650317072868347, 0.16041773557662964, -0.014098781161010265, 0.02332645282149315, 0.07710600644350052, 0.052990272641181946, -0.09484850615262985, -0.17212530970573425], [-0.1898013800382614, 0.042350608855485916, -0.06451389938592911, 0.04328751564025879, 0.015920856967568398, -0.12064899504184723, 0.03498886525630951, -0.002279095584526658, -0.1699247658252716, -0.015736892819404602, -0.10633568465709686, -0.015639737248420715, -0.05724458023905754, -0.06253060698509216, -0.04802694916725159, -0.016899889335036278, -0.10005942732095718, 0.18818238377571106, 0.004625936038792133, 0.07602939754724503, 0.07205821573734283, 0.009121833369135857, -0.05411265045404434, -0.032867077738046646, 0.08871351927518845, -0.08450447767972946, -0.09571904689073563, 0.05611870810389519, -0.07250966876745224, 0.05152013152837753, 0.04544404521584511, 0.13153325021266937, 0.0551726259291172, 0.046118203550577164, -0.0779966339468956, -0.1566080003976822, -0.05363068729639053, 0.13498488068580627, -0.041129570454359055, -0.02959093637764454, -0.26103517413139343, -0.01609925739467144, -0.05467613413929939, 0.016935987398028374, 0.12453457713127136, 0.0320618711411953, 0.026756908744573593, -0.10975626111030579, -0.19624023139476776, 0.10553337633609772, 0.04784642532467842, 0.030468979850411415, 0.007759146858006716, -0.2042432427406311, -0.13655784726142883, -0.043930232524871826, -0.1739681214094162, 0.044717516750097275, 0.032108280807733536, -0.0032437376212328672, 0.03773389384150505, -0.03778964653611183, -0.10058408975601196, -0.05021051689982414, 0.13251619040966034, -0.06346812844276428, 0.055376604199409485, -0.12680411338806152, 0.007395863998681307, -0.2877916395664215, 0.10142793506383896, -0.2134070247411728, 0.11450809240341187, 0.1327620893716812, 0.01134458091109991, -0.12069965898990631, 0.05690274015069008, 0.0010084991808980703, -0.17345768213272095, -0.002058112993836403, -0.044846370816230774, -0.11143815517425537, -0.059695787727832794, -0.015458923764526844, 0.11918734014034271, -0.07816102355718613, 0.10779450833797455, 0.10198284685611725, -0.06050308048725128, 0.08661907911300659, -0.0708933174610138, 0.14649689197540283, 0.17052561044692993, 0.09956580400466919, -0.03952362760901451, 0.16863851249217987, 0.20128801465034485, 0.06186426430940628, -0.05957295745611191, -0.10607347637414932, -0.02741118334233761, -0.038312800228595734, -0.0162823386490345, 0.016832388937473297, -0.031077412888407707, -0.3178161382675171, -0.23864281177520752], [-0.4850921332836151, 0.10448464751243591, -0.03833949193358421, -0.05566597357392311, -0.07677597552537918, -0.02636115625500679, -0.029057428240776062, 0.07489202171564102, 0.06257861852645874, 0.0704449862241745, -0.041379086673259735, 0.008158515207469463, 0.016316745430231094, 0.000563587062060833, -0.0017427047714591026, -0.07733587175607681, -0.08526622503995895, -0.011815047822892666, -0.06923302263021469, 0.049240417778491974, -0.10856106877326965, 0.06156919524073601, -0.04890736564993858, -0.057321012020111084, -0.12856988608837128, 0.10787548869848251, 0.0985705554485321, 0.11912000179290771, 0.0676862820982933, -0.1059882864356041, -0.12126424908638, 0.006423046812415123, -0.04286795109510422, 0.06303803622722626, -0.11363513767719269, -0.041160840541124344, -0.034819647669792175, 0.05005314201116562, 0.0863669216632843, 0.10048554837703705, 0.026195557788014412, -0.0012088869698345661, 0.014267065562307835, -0.11873006075620651, 0.010515036061406136, -0.11892174929380417, -0.06778796762228012, 0.00971338339149952, 0.04345559701323509, 0.15875528752803802, -0.08859425038099289, -0.03059472143650055, 0.00044371566036716104, -0.09203305095434189, -0.0016268434701487422, -0.0002195890701841563, 0.023935718461871147, 0.03249063715338707, -0.004615472629666328, -0.04450618475675583, 0.10675639659166336, 0.14862382411956787, 0.10607236623764038, -0.07335423678159714, 0.006592756137251854, 0.0077893114648759365, 0.005059757735580206, 0.05872334539890289, 0.21466265618801117, -0.04545089974999428, -0.004991175141185522, 0.11897113174200058, -0.049587182700634, -0.0016906580422073603, 0.12971171736717224, -0.055082909762859344, 0.017461294308304787, -0.07632014900445938, 0.1888425201177597, -0.1256817877292633, 0.1503297984600067, -0.06848805397748947, -0.08475149422883987, 0.06379418820142746, -0.006486051250249147, -0.2327299863100052, -0.061003439128398895, -0.16824652254581451, -0.1216404139995575, -0.08355817198753357, 0.02095199190080166, 0.06820729374885559, -0.15674133598804474, -0.24828387796878815, 0.036071062088012695, 0.002949886489659548, -0.10033117979764938, -0.00367478234693408, 0.2311992645263672, 0.04356325417757034, 0.0383162759244442, 0.07017024606466293, -0.09005577862262726, 0.040318459272384644, -0.07885751873254776, 0.1534540355205536, 0.04136377573013306], [0.01179481390863657, -0.1762687861919403, -0.05987096205353737, -0.02952667325735092, 0.05014358088374138, -0.08453703671693802, -0.04002290591597557, 0.14739671349525452, 0.10492811352014542, 0.05373877286911011, -0.0337907038629055, -0.09778351336717606, -0.02883898839354515, 0.036864086985588074, 0.03942853584885597, -0.020787764340639114, -0.020944863557815552, -0.1910860389471054, 0.03450661897659302, 0.05335249751806259, 0.023443663492798805, 0.018632005900144577, -0.08764045685529709, 0.029732828959822655, -0.24370518326759338, -0.06860153377056122, -0.20018567144870758, 0.006668172776699066, -0.15176916122436523, 0.11106060445308685, 0.15885545313358307, 0.054546721279621124, 0.047003548592329025, 0.033074431121349335, -0.03959629684686661, 0.19893918931484222, 0.06708034127950668, 0.024279838427901268, 0.03306251019239426, 0.06752977520227432, 0.09492096304893494, 0.013740827329456806, 0.06515813618898392, -0.030159275978803635, 0.06517991423606873, -0.019069647416472435, -0.031625181436538696, 0.056492794305086136, -0.06180047243833542, -0.06583419442176819, -0.049965206533670425, 0.016531718894839287, -0.033983319997787476, -0.08669794350862503, -0.06672278791666031, -0.0162550900131464, -0.013259300030767918, 0.07963306456804276, 0.020822051912546158, -0.040444813668727875, 0.02596828155219555, -0.055571675300598145, -0.16688160598278046, 0.007456649094820023, 0.12605752050876617, 0.2142973095178604, 0.025092540308833122, -0.34837275743484497, 0.15708383917808533, -0.04238378256559372, -0.12108998745679855, 0.11567564308643341, 0.033875174820423126, 0.03913525491952896, -0.06130817160010338, 0.10834837704896927, -0.12429787963628769, 0.11696801334619522, -0.05152617767453194, 0.04022550582885742, 0.30398041009902954, -0.005815557669848204, -0.10097142308950424, -0.17642737925052643, -0.06214939057826996, 0.09792789071798325, -0.02624630369246006, -0.18411411345005035, -0.22844266891479492, 0.32201507687568665, 0.13669437170028687, -0.10043796896934509, -0.009575988166034222, 0.06605438143014908, -0.029727309942245483, 0.1279219537973404, 0.10310046374797821, -0.029471173882484436, 0.075746089220047, 0.06499852240085602, -0.05729643255472183, -0.224223792552948, 0.07313962280750275, 0.02652149088680744, 0.08004683256149292, 0.1816847324371338, 0.08529111742973328], [-0.008734775707125664, 0.19628581404685974, -0.007584437727928162, 0.01911339908838272, -0.06616652756929398, 0.11104895919561386, 0.04557620733976364, 0.021798865869641304, -0.0749359279870987, 0.02089383453130722, -0.08349902182817459, 0.04530799016356468, 0.09804042428731918, -0.001783882500603795, -0.05112900212407112, 0.08688095211982727, 0.012851850129663944, 0.005241937469691038, 0.047451652586460114, -0.0747305378317833, -0.06471282243728638, -0.08477458357810974, -0.02370535396039486, -0.018577594310045242, 0.13453882932662964, 0.1834644228219986, -0.002872750163078308, 0.005802989471703768, -0.01704500988125801, 0.052193958312273026, 0.06499650329351425, 0.011996962130069733, 0.03320703282952309, 0.009813878685235977, -0.018153801560401917, -0.07499846071004868, 0.12115124613046646, -0.08107510954141617, -0.09159107506275177, -0.04331701248884201, 0.036500539630651474, -0.025839490815997124, -0.08187835663557053, -0.009856762364506721, -0.18606306612491608, -0.02618618868291378, -0.01627911813557148, -0.033965133130550385, 0.03711126372218132, -0.05871431902050972, -0.05555951967835426, -0.08023566752672195, -0.06298600882291794, 0.011840254999697208, -0.02366097830235958, 0.03108144737780094, -0.21215756237506866, -0.04197227582335472, -0.04669768363237381, 0.038367144763469696, -0.08414733409881592, -0.2795298099517822, -0.15347987413406372, -0.1694369614124298, 0.019458679482340813, -0.07524462789297104, 0.043463777750730515, -0.1552770733833313, -0.002050264971330762, -0.1451042741537094, -0.11548668146133423, -0.034582000225782394, -0.12709683179855347, -0.09156142920255661, 0.051003556698560715, -0.1311931014060974, -0.2582138776779175, 0.017589692026376724, -0.004124926868826151, -0.1584419459104538, 0.21490517258644104, 0.004600186832249165, 0.09697654098272324, 0.0019470462575554848, -0.13908539712429047, -0.022663606330752373, -0.060407549142837524, -0.1094675064086914, -0.02233235538005829, 0.050969306379556656, 0.005765185225754976, -0.09755373746156693, -0.0695180669426918, -0.10266885161399841, 0.032555803656578064, -0.01456226035952568, -0.010285339318215847, -0.08817539364099503, -0.08838033676147461, 0.11240445077419281, 0.07809719443321228, -0.0987359806895256, -0.02781561389565468, -0.0063110110349953175, 0.16937291622161865, 0.030056366696953773, -0.1426728069782257], [-0.050119150429964066, 0.28131547570228577, 0.06497003138065338, -0.03215692937374115, -0.03535464033484459, -0.2506730556488037, 0.031613875180482864, 0.0147605761885643, 0.14222636818885803, 0.0683339536190033, 0.05573364347219467, -0.0048959567211568356, -0.05192126706242561, 0.012303206138312817, 0.09549553692340851, 0.014168748632073402, 0.08061159402132034, 0.08533944934606552, 0.07669755071401596, 0.030109724029898643, -0.03750547021627426, -0.042333923280239105, 0.026378262788057327, 0.0002544193994253874, -0.01729855127632618, 0.15882451832294464, 0.13492713868618011, -0.0923629030585289, -0.08859242498874664, -0.08541344106197357, 0.08770958334207535, 0.054435644298791885, 0.1028924435377121, 0.003022140357643366, 0.04060116782784462, 0.08842478692531586, -0.003206552704796195, 0.05913737788796425, 0.014052005484700203, -0.05561903864145279, 0.012626399286091328, -0.018637217581272125, 0.08748482912778854, 0.08155699074268341, 0.1733824461698532, 0.12238021194934845, -0.027729332447052002, -0.044306714087724686, 0.07595325261354446, -0.0315781868994236, 0.06756648421287537, 0.05361330136656761, 0.04075564071536064, 0.209663987159729, -0.0737341120839119, 0.010012640617787838, -0.14255587756633759, 0.05208871513605118, -0.08419985324144363, -0.05745403468608856, 0.011976383626461029, -0.24696952104568481, 0.012864150106906891, 0.07247032970190048, 0.11714239418506622, 0.03288952261209488, -0.09457185119390488, 0.02697717770934105, -0.001985542941838503, 0.022618740797042847, 0.0623193196952343, -0.05034598335623741, -0.007528195157647133, -0.07027693837881088, 0.05013881251215935, -0.1359190195798874, -0.06489899009466171, -0.031471386551856995, -0.11839843541383743, 0.055948346853256226, -0.07033251225948334, -0.04395710676908493, 0.07904679328203201, 0.08143284171819687, 0.0017609758069738746, -0.1035626158118248, -0.13732071220874786, -0.05786042660474777, -0.06455981731414795, 0.17643125355243683, -0.023931432515382767, -0.10905105620622635, 0.08079007267951965, 0.07070686668157578, -0.2990674376487732, -0.18120934069156647, -0.09309826046228409, 0.08821707963943481, -0.0774243101477623, -0.012023583054542542, -0.03951692953705788, 0.03446102887392044, 0.11865756660699844, -0.0031099002808332443, 0.01432059332728386, 0.21578562259674072, -0.05249672383069992], [-0.4391622245311737, 0.04369074106216431, -0.06689423322677612, 0.0821135938167572, -0.044490087777376175, 0.21645796298980713, -0.002777405781671405, 0.12394111603498459, 0.13395360112190247, 0.09912367910146713, 0.07017455250024796, 0.0504760704934597, -0.114820696413517, 6.586220843018964e-05, -0.018721383064985275, 0.04958349093794823, 0.046681925654411316, 0.1324874460697174, 0.04822568595409393, 0.048858530819416046, 0.10804463177919388, 0.09320376813411713, -0.07522595673799515, 0.059873443096876144, -0.11087552458047867, 0.03687874972820282, 0.15663409233093262, -0.058456096798181534, 0.06625498831272125, -0.2962801456451416, -0.08015308529138565, -0.06522466987371445, 0.051959965378046036, -0.0032514198683202267, -0.14255695044994354, 0.04797917231917381, -0.03360975161194801, 0.06857317686080933, 0.1300944834947586, -0.04413033649325371, 0.009037796407938004, 0.05277464538812637, 0.07863106578588486, -0.1587265133857727, 0.09573651105165482, -0.01707984134554863, 0.03722267970442772, 0.016344759613275528, 0.17744863033294678, 0.12428717315196991, -0.06709875166416168, 0.017139624804258347, -0.10100769996643066, 0.021239377558231354, 0.003755714511498809, 0.055043160915374756, 0.09961722046136856, 0.13485240936279297, 0.042823322117328644, 0.003643952077254653, -0.20944085717201233, 0.032286934554576874, 0.02034788951277733, -0.07228590548038483, 0.12904246151447296, -0.06862324476242065, -0.1086806133389473, -0.0037644419353455305, -0.021305663511157036, 0.017209479585289955, 0.01800268515944481, 0.09919363260269165, 0.023494631052017212, -0.022429415956139565, -0.076509490609169, 0.00038530866731889546, -0.008898500353097916, -0.05753925442695618, 0.08378253132104874, 0.08822862058877945, -0.15505824983119965, -0.041415080428123474, -0.29592424631118774, -0.14995034039020538, 0.019478432834148407, -0.12452731281518936, 0.15169160068035126, 0.11306705325841904, -0.008993618190288544, -0.43631646037101746, 0.12153562903404236, -0.16790111362934113, -0.163211852312088, -0.1583322435617447, -0.12038888037204742, -0.13802021741867065, 0.1274966299533844, 0.09855463355779648, 0.07911797612905502, -0.09575949609279633, 0.09438273310661316, 0.08237714320421219, -0.09237219393253326, -0.12487755715847015, -0.09277085214853287, 0.11460182815790176, -0.19640250504016876], [0.05531621351838112, 0.008797382935881615, 0.05086047947406769, 0.05907188355922699, -0.044191401451826096, -0.22668440639972687, 0.11309834569692612, -0.0568300224840641, 0.07790262252092361, 0.022417763248085976, 0.047081317752599716, 0.08109061419963837, 0.020373256877064705, -0.07284378260374069, 0.009188338182866573, -0.04238028824329376, -0.008157930336892605, -0.00941389612853527, 0.08112034201622009, -0.06935106962919235, 0.0900459960103035, 0.008588260039687157, 0.01062016747891903, -0.08821292221546173, -0.42766737937927246, 0.18679283559322357, 0.04040520265698433, 0.13047513365745544, -0.09077078849077225, 0.031338080763816833, 0.16985251009464264, 0.11508607119321823, -0.006783694960176945, -0.083301842212677, -0.045229874551296234, 0.15096785128116608, -0.09395921230316162, -0.0494554303586483, 0.0005166413029655814, 0.07168687134981155, -0.04073790833353996, -0.026653647422790527, -0.06698637455701828, -0.13994918763637543, 0.22837309539318085, -0.009196666069328785, -0.06301804631948471, -0.09203582257032394, -0.005400481168180704, 0.0559786781668663, 0.07311837375164032, 0.07010778039693832, -0.009718839079141617, -0.1210583969950676, -0.044969744980335236, -0.054556094110012054, 0.017232928425073624, -0.06374102085828781, -0.07017023861408234, 0.135419562458992, 0.01465055625885725, 0.21293501555919647, -0.2722920775413513, -0.03543221205472946, -0.30057910084724426, 0.15438047051429749, -0.09208391606807709, 0.1263217329978943, 0.0960812047123909, 0.21629980206489563, 0.11244198679924011, -0.015115405432879925, 0.0699724555015564, -0.06921965628862381, 0.06804759055376053, -0.03983202576637268, 0.17262548208236694, 0.07329965382814407, 0.048983123153448105, -0.20733654499053955, -0.03543924167752266, 0.2886810898780823, 0.004447629675269127, -0.07018295675516129, 0.03387165069580078, 0.05190737918019295, -0.02496805228292942, 0.043693117797374725, 0.05970070883631706, -0.009306234307587147, -0.24993892014026642, -0.08027446269989014, 0.21347688138484955, -0.048600971698760986, 0.12253960222005844, -0.021674513816833496, -0.10963030159473419, -0.18172869086265564, 0.016666727140545845, 0.060923751443624496, -0.03304678946733475, -0.011832015588879585, -0.0852469876408577, -0.10769589990377426, -0.20566318929195404, 0.4492552876472473, -0.1591627299785614], [0.1488860696554184, 0.1777147799730301, 0.04267704486846924, 0.07598617672920227, -0.1284267157316208, 0.11764582246541977, -0.09911948442459106, -0.14640788733959198, 0.02187305875122547, -0.04200475290417671, 0.007727670017629862, -0.0415031723678112, -0.12660229206085205, -0.0931478962302208, -0.1654558926820755, -0.08932945132255554, -0.12072984874248505, -0.014058764092624187, -0.06907358765602112, -0.09455768018960953, -0.15730629861354828, -0.03932753577828407, -0.028759434819221497, -0.1052241325378418, 0.12754330039024353, 0.05927497521042824, -0.010482506826519966, 0.13271266222000122, 0.03160814940929413, -0.10237762331962585, -0.16054923832416534, -0.15381374955177307, 0.003337585600093007, 0.004851360805332661, -0.08861095458269119, -0.022294610738754272, -0.12572479248046875, -0.15153264999389648, -0.0606064572930336, -0.03423554450273514, -0.10237807035446167, -0.13453280925750732, 0.029531221836805344, 0.07422169297933578, 0.12493867427110672, -0.1267801970243454, -0.11215686798095703, -0.023136204108595848, -0.008356734178960323, -0.0014015036867931485, -0.030232073739171028, 0.018815862014889717, -0.05295907333493233, 0.1696799248456955, -0.055239275097846985, -0.004076699260622263, -0.09113875776529312, -0.032488975673913956, -0.1473846286535263, -0.16850800812244415, 0.007222635205835104, 0.16310670971870422, -0.16701054573059082, 0.07081387937068939, 0.23961076140403748, 0.13390770554542542, -0.06487063318490982, -0.07693000882863998, 0.016232630237936974, -0.11982864141464233, -0.1574735939502716, -0.03479506075382233, 0.04958269000053406, 0.16567762196063995, -0.013600820675492287, 0.178802952170372, -0.19227908551692963, 0.06720170378684998, -0.12950047850608826, -0.22758279740810394, -0.24880635738372803, 0.10654507577419281, 0.08027538657188416, -0.02825331501662731, 0.1763254702091217, -0.09108889102935791, 0.03444193676114082, -0.03776087239384651, -0.13985228538513184, 0.026740992441773415, 0.09774025529623032, -0.012360425665974617, 0.12287218868732452, -0.19340236485004425, 0.05230911821126938, -0.08387509733438492, 0.007638407405465841, 0.102443166077137, -0.11093337088823318, -0.0860854983329773, -0.07243668287992477, -0.03911704197525978, -0.08680626004934311, 0.027031736448407173, 0.10583165287971497, 0.11854392290115356, 0.232272207736969], [0.08738133311271667, 0.16660627722740173, -0.06021270528435707, -0.06619440019130707, -0.005220185033977032, -0.10956117510795593, -0.01173072587698698, 0.006912566721439362, 0.07791539281606674, -0.14918309450149536, -0.03182346373796463, 0.10576952993869781, 0.043637026101350784, -0.0748511254787445, 0.020485177636146545, 0.022330939769744873, -0.04292324185371399, 0.13419882953166962, -0.02814074419438839, 0.11200472712516785, 0.052172329276800156, 0.07536262273788452, 0.07340918481349945, -0.006937082856893539, 0.15452662110328674, 0.005664685275405645, -0.2073407918214798, -0.09380213171243668, -0.059607308357954025, -0.012872510589659214, -0.11874958872795105, -0.04462144151329994, 0.022973833605647087, 0.03858642652630806, -0.014777122996747494, 0.08774532377719879, -0.036773309111595154, -0.02941623143851757, -0.0020955062936991453, 0.12127145379781723, 0.06911387294530869, 0.0740860104560852, -0.06107156723737717, -0.10335244983434677, -0.23624859750270844, -0.002887006616219878, -0.06604140251874924, 0.025456534698605537, 0.09922319650650024, 0.048799335956573486, 0.006029577925801277, -0.10128059983253479, -0.10366637259721756, -0.10238868743181229, -0.04510786756873131, 0.08488525450229645, 0.08078169077634811, 0.06712192296981812, 0.05159631371498108, -0.03788178786635399, 0.020144391804933548, 0.02651252970099449, 0.030556490644812584, -0.08160462230443954, -0.19891485571861267, -0.09404440969228745, -0.1732901781797409, -0.2345433086156845, -0.0529799647629261, 0.09975560009479523, 0.1313624233007431, 0.14971821010112762, -0.08574173599481583, 0.04318081960082054, -0.1177821084856987, -0.007718998938798904, 0.036422811448574066, 0.09450550377368927, 0.07469470053911209, 0.1156570315361023, 0.02906522899866104, 0.01713714748620987, -0.049574073404073715, -0.010986031033098698, 0.01719573512673378, 0.10430941730737686, 0.07794033735990524, -0.006528826430439949, 0.018190477043390274, -0.005964930169284344, 0.08617333322763443, -0.23013997077941895, -0.086035817861557, 0.08620531111955643, -0.08059392124414444, 0.050828468054533005, -0.09195562452077866, 0.15485405921936035, -0.039062559604644775, 0.05264320224523544, 0.0008267152006737888, 0.01216590404510498, -0.0558512881398201, -0.07547815144062042, -0.05267486348748207, -0.49232617020606995, -0.0211042333394289], [0.08238152414560318, 0.0224643312394619, -0.016165412962436676, -0.032682307064533234, -0.03994681313633919, -0.020945878699421883, 0.006635620724409819, -0.08785338699817657, -0.08694911003112793, -0.0402090921998024, -0.005356184672564268, -0.158203125, -0.05226217582821846, 0.07500791549682617, 0.07128926366567612, 0.061684079468250275, 0.030857296660542488, -0.020069191232323647, -0.07634018361568451, 0.12362845242023468, 0.013517963699996471, 0.027846328914165497, 0.034849539399147034, 0.033908795565366745, -0.02316105365753174, -0.01395494770258665, -0.08708507567644119, 0.13914398849010468, 0.1456376165151596, 0.126425102353096, -0.1607786864042282, -0.14587143063545227, -0.2346084862947464, -0.03418524190783501, -0.007062572054564953, 0.18328975141048431, -0.08540181815624237, -0.09922284632921219, 0.1053142100572586, -0.028477124869823456, -0.025850310921669006, 0.049580201506614685, 0.044191811233758926, 0.0819253921508789, -0.05950018763542175, -0.09428553283214569, 0.044617876410484314, -0.03833466395735741, 0.008216194808483124, 0.003475586650893092, 0.06158018857240677, 0.11504614353179932, -0.00954673532396555, -0.14944972097873688, 0.09556526690721512, -0.05542733892798424, -0.04041784256696701, 0.15066874027252197, 0.049269065260887146, -0.07428383827209473, -0.1967371106147766, -0.03258184343576431, 0.03944293037056923, 0.024067431688308716, -0.2328472137451172, 0.12347261607646942, 0.21927373111248016, -0.007702951319515705, -0.18194767832756042, -0.07941658049821854, -0.08370695263147354, -0.21708767116069794, -0.07200292497873306, -0.05501539260149002, 0.11699757725000381, -0.0527551993727684, 0.030491655692458153, 0.08492826670408249, 0.0060806674882769585, 0.03716249018907547, -0.16322053968906403, -0.15729649364948273, -0.18368270993232727, -0.13207022845745087, -0.1588868647813797, -0.19929830729961395, -0.09593117237091064, -0.004949125461280346, 0.21967609226703644, -0.024562187492847443, 0.024634292349219322, 0.04626109078526497, 0.28300508856773376, -0.051448650658130646, 0.12157758325338364, -0.019951162859797478, -0.02348782867193222, -0.17256203293800354, -0.008375538513064384, 0.041622623801231384, -0.16211074590682983, 0.08890003710985184, -0.04270298033952713, 0.050263553857803345, -0.0015574574936181307, -0.11131710559129715, 0.3363932967185974], [-0.25272002816200256, 0.08244708180427551, 0.03248228132724762, 0.06699098646640778, -0.009794746525585651, 0.2723749577999115, -0.0900086984038353, -0.022597601637244225, -0.0457894392311573, -0.01609390415251255, -0.03893163055181503, -0.08787943422794342, -0.022978823632001877, -0.03383849933743477, 0.026707449927926064, 0.10543607175350189, -0.15169396996498108, 0.017413020133972168, -0.004078874364495277, 0.04006108269095421, -0.04580476135015488, -0.11336395889520645, -0.1054612398147583, -0.10798200219869614, -0.17706863582134247, 0.0961492732167244, 0.10959435254335403, -0.13246679306030273, -0.28406068682670593, -0.06771382689476013, -0.054717231541872025, -0.133259117603302, -0.050336919724941254, -0.0696074441075325, 0.04476257786154747, -0.18875886499881744, -0.1190391480922699, -0.0929846465587616, -0.062055978924036026, 0.02793176658451557, -0.11076238006353378, -0.05808679759502411, 0.05704305320978165, -0.02208283729851246, 0.06797082722187042, -0.04210478812456131, 0.01133536547422409, -0.13409492373466492, -0.05246952176094055, 0.004992274101823568, -0.016254456713795662, -0.024196680635213852, -0.021779123693704605, -0.12561413645744324, 0.05294324830174446, -0.07076260447502136, 0.08818082511425018, -0.025922320783138275, 0.05009188503026962, 0.0016062150243669748, 0.16476689279079437, -0.18650346994400024, -0.18040670454502106, 0.17547918856143951, -0.18748176097869873, 0.009996558539569378, 0.013126609846949577, -0.09770313650369644, -0.02552369423210621, 0.03575776889920235, 0.11474138498306274, -0.06150083616375923, -0.1095268577337265, -0.1887081116437912, -0.022836390882730484, -0.052980128675699234, -0.0901511013507843, -0.10730019211769104, 0.018731413409113884, 0.15439751744270325, 0.04440882056951523, 0.03679453581571579, -0.07076890766620636, -0.03935366868972778, 0.08459637314081192, 0.11384274810552597, -0.02108093351125717, -0.07890988886356354, 0.08763806521892548, -0.06059865280985832, 0.14967498183250427, 0.050835978239774704, 0.04562810808420181, -0.03804168105125427, 0.09409883618354797, 0.06089969724416733, -0.030484115704894066, -0.16560901701450348, -0.010948367416858673, 0.24818654358386993, 0.02234763465821743, 0.1559600681066513, 0.13799189031124115, -0.0013660890981554985, -0.11538372933864594, -0.05663880333304405, -0.15006107091903687], [0.04210437461733818, 0.15548674762248993, -0.02717498689889908, -0.07110116630792618, -0.045439720153808594, 0.3810252249240875, 0.047803349792957306, 0.005621070973575115, 0.05829242989420891, -0.08849964290857315, 0.036727990955114365, -0.011271681636571884, -0.0334693044424057, -0.06187504157423973, -0.04929685220122337, -0.00466171745210886, -0.033232640475034714, 0.017312634736299515, -0.05056179314851761, -0.07943961769342422, -0.08254314959049225, -0.034060120582580566, 0.013232367113232613, -0.01682743988931179, 0.049991630017757416, -0.16353392601013184, -0.018311141058802605, 0.17064183950424194, 0.049542151391506195, -0.060144584625959396, -0.16715040802955627, -0.10007935017347336, 0.07822814583778381, -0.06087864190340042, 0.004528728313744068, -0.020771995186805725, 0.08817194402217865, 0.05238465219736099, -0.061125822365283966, -0.0536981001496315, -0.04450181871652603, -0.005312313325703144, -0.09616567194461823, -0.05701872333884239, -0.03794258460402489, 0.03932714834809303, -0.012641582638025284, -0.10488122701644897, 0.12174662947654724, -0.012091887183487415, -0.041452545672655106, 0.020428132265806198, 0.05243596062064171, 0.06432946771383286, 0.07072695344686508, 0.10531454533338547, -0.050648678094148636, -0.060716260224580765, -0.04776536673307419, -0.07896563410758972, -0.17975358664989471, 0.0651051476597786, -0.05640304088592529, 0.15898358821868896, -0.08648636937141418, 0.25307348370552063, -0.1686234325170517, -0.031009811908006668, -0.05497382581233978, -0.0021294362377375364, -0.11126196384429932, -0.19305889308452606, -0.04514477029442787, -0.1818358302116394, 0.014681852422654629, 0.14639726281166077, 0.15320105850696564, 0.0729999765753746, -0.26481813192367554, 0.0023253634572029114, 0.029546836391091347, -0.03451278805732727, -0.1389627456665039, -0.021508406847715378, -0.03832415118813515, 0.09578771889209747, -0.08628199994564056, 0.1641746163368225, -0.049388155341148376, -0.08369787782430649, 0.05957925319671631, -0.013328882865607738, -0.15716613829135895, -0.01066818367689848, -0.020877812057733536, -0.057297222316265106, -0.05469049513339996, -0.0005133156664669514, -0.05840681120753288, -0.09593067318201065, -0.06614144146442413, -0.0025509085971862078, -0.018747059628367424, 0.05991572514176369, -0.09470605105161667, 0.36577093601226807, 0.07082773745059967], [0.02744213119149208, 0.10728877782821655, 0.08198900520801544, 0.03123992681503296, -0.033742755651474, -0.12258096039295197, -0.009894181974232197, -0.06393903493881226, -0.09059882164001465, 0.03845299035310745, -0.061299312859773636, 0.03187355771660805, 0.006613778881728649, -0.01562739908695221, -0.0567033551633358, -0.015298781916499138, 0.01875702477991581, 0.17171823978424072, 0.011689643375575542, -0.0927814245223999, 0.03531679883599281, -0.08817934989929199, -0.01581665500998497, -0.02164645865559578, 0.0823056772351265, -0.01189980935305357, -0.11038057506084442, 0.012630803510546684, -0.07331114262342453, -0.031225530430674553, -0.06257845461368561, 0.16090531647205353, 0.08157837390899658, 0.08381006866693497, -0.02375599928200245, -0.19783474504947662, -0.0004028374969493598, 0.12800109386444092, -0.08911288529634476, -0.13615845143795013, 0.047337185591459274, -0.03219376131892204, 0.0046244412660598755, 0.06580474972724915, -0.301946759223938, -0.07192308455705643, -0.031122034415602684, 0.05809173732995987, 0.047520969063043594, -0.032745957374572754, 0.03246871009469032, -0.02747211419045925, 0.06248193979263306, -0.11513279378414154, -0.12887153029441833, 0.012947605922818184, -0.004822473041713238, 0.0822826623916626, -0.09473443776369095, 0.03757244721055031, -0.1410714089870453, -0.09061653912067413, 0.07599683851003647, 0.029273798689246178, -0.16963234543800354, 0.15906335413455963, -0.117620550096035, -0.04296018183231354, -0.10186637938022614, 0.0246083065867424, 0.05486413836479187, -0.06337857991456985, -0.005341729149222374, 0.08058249950408936, -0.023743469268083572, -0.007411386352032423, 0.14042891561985016, 0.2307003289461136, 0.09677210450172424, -0.16271010041236877, 0.21181868016719818, 0.12544317543506622, 0.06560437381267548, 0.08916304260492325, 0.11211763322353363, 0.09508228302001953, 0.07457933574914932, 0.012662219814956188, 0.028691794723272324, -0.07370129972696304, -0.10587545484304428, -0.05747966095805168, -0.07301008701324463, 0.04267432540655136, -0.005106035154312849, -0.23583193123340607, 0.12242946028709412, 0.1340455859899521, 0.02422741800546646, -0.028359459713101387, -0.11773726344108582, 0.0037287441082298756, 0.123167484998703, -0.07335036247968674, 0.04835624247789383, 0.1292496919631958, 0.08715275675058365], [0.27485835552215576, -0.09545716643333435, 0.08051002025604248, -0.014753729104995728, 0.021196803078055382, -0.0009685594704933465, 0.053694985806941986, 0.10434078425168991, -0.0629180446267128, 0.1377227008342743, 0.0772198811173439, -0.06546763330698013, -0.028643295168876648, 0.051629211753606796, 0.03596053272485733, 0.0355851985514164, -0.009310977533459663, 0.016580525785684586, 0.1541639268398285, 0.17690299451351166, 0.013044136576354504, 0.0444636233150959, 0.019329417496919632, -0.08390871435403824, 0.005913303699344397, -0.0004638586542569101, 0.12497742474079132, -0.1433352828025818, 0.0635799840092659, -0.11440443992614746, -0.005521644838154316, -0.05072849616408348, -0.02082504890859127, 0.0675676167011261, 0.008878109976649284, 0.21363025903701782, 0.050401721149683, 0.045991189777851105, 0.07041411846876144, 0.062309205532073975, -0.08187977969646454, -0.029023418202996254, -0.06558778882026672, 0.015306114219129086, -0.05007469654083252, 0.08117810636758804, 0.005502556450664997, 0.07848649471998215, -0.014243503101170063, -0.04541047662496567, 0.06514608860015869, -0.08450902253389359, 0.004671819973737001, -0.23814190924167633, 0.07953939586877823, 0.01219585444778204, -0.03008892573416233, -0.02928018756210804, -0.03537779673933983, 0.04410097375512123, -0.10768605023622513, -0.06563673168420792, -0.07036402076482773, -0.12120504677295685, -0.007748996838927269, -0.062085315585136414, 0.06608718633651733, -0.1887357234954834, 0.009126807563006878, -0.15903408825397491, -0.036562103778123856, -0.07252061367034912, -0.0741652324795723, -0.18959838151931763, -0.03801767900586128, -0.18098093569278717, -0.08773137629032135, 0.2528488337993622, 0.07046268880367279, 0.05123325437307358, 0.05526503548026085, -0.041269272565841675, 0.01879940554499626, -0.06725068390369415, -0.048007071018218994, 0.025759780779480934, 0.08947037905454636, 0.1933087259531021, -0.12962588667869568, 0.17076052725315094, 0.2291615903377533, 0.0298081673681736, 0.008516880683600903, -0.03448251262307167, 0.01739034242928028, 0.10765653848648071, -0.06178482621908188, 0.0813102275133133, -0.06974437832832336, -0.1374470293521881, -0.017062678933143616, 0.01766868494451046, 0.0473996177315712, -0.06734906882047653, 0.015507563017308712, -0.384067177772522, 0.2687005400657654], [-0.05607425048947334, -0.10611932724714279, -0.07590343058109283, -0.08573265373706818, -0.07502808421850204, 0.3464893400669098, -0.042697399854660034, -0.06598855555057526, -0.0825025737285614, 0.11874349415302277, -0.004832168109714985, -0.03859353065490723, 0.04037351906299591, -0.03189988061785698, -0.042200807482004166, 0.005750537384301424, -0.037475258111953735, -0.0627068430185318, 0.07438735663890839, 0.07717502862215042, -0.06594430655241013, 0.09879834204912186, 0.03661911189556122, -0.014113487675786018, -0.14743635058403015, 0.16653406620025635, 0.10410436987876892, 0.08235900104045868, 0.03967570886015892, -0.140923410654068, 0.24014568328857422, 0.032173242419958115, 0.008295358158648014, -0.01410119328647852, -0.01953890360891819, -0.15410342812538147, -0.004069353919476271, 0.016892652958631516, 0.0034051435068249702, -0.06818084418773651, -0.10525158047676086, -0.0903051346540451, -0.05689675733447075, 0.08110126107931137, -0.012149068526923656, -0.01540945004671812, -0.07389882206916809, -0.04742298275232315, 0.10900626331567764, -0.015347541309893131, 0.05207235738635063, -0.11577688902616501, 0.04400905221700668, 0.04643179476261139, 0.05197683349251747, -0.0020472013857215643, 0.0003722521651070565, -0.1339767426252365, 0.05052018538117409, -0.07608973234891891, -0.00496138958260417, -0.016352003440260887, -0.04429316520690918, -0.10891611129045486, -0.1852767914533615, -0.03200756758451462, -0.0511193685233593, 0.049627792090177536, 0.08507147431373596, 0.017615213990211487, -0.11361631006002426, 0.025188349187374115, -0.12300046533346176, 0.10142414271831512, 0.043290503323078156, 0.04082626849412918, 0.06611566990613937, 0.07698497921228409, 0.1794239729642868, 0.08358808606863022, 0.15277943015098572, -0.1744799017906189, 0.005200864281505346, 0.0718565285205841, 0.10810227692127228, -0.03737455606460571, -0.12598954141139984, -0.017700577154755592, -0.1962558776140213, 0.033421676605939865, -0.061876051127910614, -0.1055823490023613, -0.175672709941864, -0.16111907362937927, 0.18046292662620544, 0.023337580263614655, 0.21666626632213593, -0.0723244771361351, -0.16754266619682312, 0.0976620763540268, 0.0268788430839777, -0.13059163093566895, -0.024971576407551765, 0.08883032947778702, -0.022610630840063095, 0.2005741000175476, 0.17174574732780457], [-0.3153652846813202, -0.06330298632383347, -0.052765846252441406, -0.06992097198963165, 0.08490926027297974, 0.1595737636089325, 0.026138266548514366, 0.0920037105679512, 0.12744857370853424, -0.017691386863589287, -0.0009843861917033792, -0.0019545655231922865, -0.02369922399520874, -0.013264833018183708, 0.004276891704648733, 0.13518138229846954, 0.12863340973854065, -0.054951440542936325, 0.08242321759462357, 0.05127653107047081, -0.0001455398742109537, 0.005518324673175812, 0.08271694928407669, 0.08127140998840332, -0.03758404403924942, 0.10120058804750443, 0.10471898317337036, -0.013032793998718262, -0.059321995824575424, -0.11034804582595825, -0.010534233413636684, -0.1267513930797577, -0.3019270598888397, 0.03373909369111061, -0.02483365684747696, 0.009732075035572052, 0.10505293309688568, 0.02588016912341118, -0.08465751260519028, 0.04651161655783653, 0.03394082561135292, 0.03849796950817108, 0.04257596656680107, 0.02645694650709629, 0.11914381384849548, 0.07178369909524918, 0.060101427137851715, -0.005509862210601568, 0.17398901283740997, 0.13413843512535095, 0.10858452320098877, 0.08904337137937546, -0.03307563066482544, -0.0815182477235794, 0.035389285534620285, -0.0025193272158503532, -0.08032040297985077, -0.05202812701463699, 0.10822132974863052, -0.1448805183172226, 0.08518127351999283, -0.017862161621451378, 0.26674869656562805, -0.013976103626191616, -0.09310184419155121, 0.1430312693119049, -0.14890596270561218, -0.21373310685157776, 0.06991853564977646, -0.17380376160144806, -0.03457936272025108, 0.19011126458644867, -0.06914468109607697, -0.09052597731351852, -0.011182518675923347, 0.08844693750143051, 0.089185930788517, -0.07126511633396149, 0.062093157321214676, -0.045460015535354614, 0.08961336314678192, 0.12712101638317108, -0.22750550508499146, 0.008156818337738514, 0.08550723642110825, -0.02022411674261093, -0.14713603258132935, -0.10869841277599335, -0.048704925924539566, 0.17568273842334747, -0.12044686079025269, 0.07771947234869003, 0.07002660632133484, -0.06527671217918396, -0.013179157860577106, 0.02183990553021431, -0.07272430509328842, 0.05575137585401535, 0.06436160951852798, 0.12143667787313461, 0.046090878546237946, 0.002645125612616539, 0.10703514516353607, 0.04478859156370163, 0.0324791744351387, -0.29240882396698, 0.07934608310461044], [0.06294556707143784, 0.1947297304868698, 0.0193202942609787, 0.020992957055568695, -0.03883650153875351, -0.30475661158561707, 0.056290384382009506, 0.011664455756545067, -0.195783793926239, 0.08785886317491531, 0.013242112472653389, -0.07294834405183792, 0.012153511866927147, -0.020479919388890266, -0.060575418174266815, -0.05432014912366867, 0.11031205952167511, -0.07979190349578857, 0.0374150425195694, 0.030825529247522354, -0.008883037604391575, -0.037761274725198746, -0.014666731469333172, -0.010968754068017006, -0.3003903925418854, 0.1049589067697525, 0.03324297070503235, -0.09891010075807571, -0.1665881872177124, -0.018634134903550148, -0.2716892659664154, 0.05089837685227394, 0.11882973462343216, -0.11536311358213425, -0.11868473142385483, -0.2028544396162033, -0.1277625858783722, -0.03430340439081192, 0.01827569305896759, -0.051354750990867615, -0.02083626762032509, -0.042157772928476334, -0.0006120645557530224, 0.14544349908828735, -0.11577272415161133, 0.045274652540683746, 0.09502776712179184, -0.011000166647136211, -0.006714755203574896, 0.008569840341806412, -0.08948130905628204, -0.05105692148208618, -0.14092695713043213, -0.07422234117984772, -0.04129769280552864, 0.0449368953704834, -0.10635670274496078, -0.019650815054774284, 0.025269141420722008, -0.10395301133394241, 0.2400314211845398, -0.08422571420669556, -0.18367353081703186, -0.006365879438817501, 0.005806774366647005, -0.002142184181138873, -0.1756528913974762, -0.07050023227930069, -0.09817720204591751, 0.04417572170495987, 0.033416230231523514, 0.07185077667236328, 0.006138497497886419, 0.09758780151605606, 0.04965490102767944, -0.09868934005498886, -0.004051594063639641, 0.036058396100997925, 0.0739348977804184, -0.1099788174033165, -0.09414533525705338, 0.028667615726590157, -0.06059958040714264, 0.023157469928264618, 0.062411025166511536, -0.09992389380931854, 0.10477974265813828, -0.09997494518756866, 0.025219619274139404, -0.08698853105306625, -0.10720737278461456, 0.09645980596542358, -0.10910901427268982, -0.010861178860068321, -0.0069520724937319756, 0.13481192290782928, 0.14611981809139252, 0.21885645389556885, 0.05845581740140915, 0.1379784792661667, -0.019500184804201126, -0.08240817487239838, 0.0012840566923841834, 0.0453931950032711, -0.002859002212062478, -0.13830602169036865, -0.09797519445419312], [0.1671217679977417, 0.10583912581205368, -0.0021785274147987366, -0.01775234192609787, 0.010737340897321701, -0.13445478677749634, 0.02679099701344967, 0.1413254290819168, 0.03523602336645126, 0.019889507442712784, -0.05468997731804848, -0.08695650100708008, -0.053625691682100296, 0.04287884756922722, 0.027441823855042458, 0.02448693849146366, 0.013418326154351234, -0.14484333992004395, -0.0225195474922657, -0.04380866140127182, 0.003178949002176523, 0.05214753746986389, 0.014231101609766483, 0.04367699846625328, 0.03716101124882698, -0.12232682853937149, -0.12804219126701355, 0.14024317264556885, -0.03875628486275673, 0.0951291173696518, 0.15884427726268768, -0.06115446239709854, -0.23134645819664001, -0.12608279287815094, -0.12888172268867493, -0.008144318126142025, -0.003985224757343531, -0.09992673248052597, -0.0022435025312006474, -0.09671169519424438, 0.09460677951574326, -0.044364649802446365, 0.10704057663679123, -0.04087365046143532, -0.016798174008727074, -0.022481240332126617, 0.0383797362446785, -0.13198941946029663, -0.04441990703344345, -0.020671898499131203, -0.247291699051857, -0.032867856323719025, -0.030624447390437126, 0.015969984233379364, 0.024047961458563805, 0.015069138258695602, -0.04611204192042351, 0.01303966622799635, -0.09508362412452698, 0.06956881284713745, -0.007215644232928753, 0.16455762088298798, 0.2834397852420807, 0.038420356810092926, -0.25177180767059326, -0.05992189794778824, 0.15577806532382965, 0.007594835478812456, 0.05753021687269211, 0.017770104110240936, 0.016091320663690567, 0.012081937864422798, -0.07234720885753632, 0.010590657591819763, 0.08359605073928833, -0.0022738343104720116, -0.07501807063817978, 0.019028082489967346, -0.1305418610572815, 0.008874653838574886, 0.05465872213244438, 0.15010730922222137, 0.010526405647397041, -0.05548107624053955, -0.08479972928762436, -0.18358099460601807, -0.07839126139879227, -0.07530394196510315, 0.11142703890800476, -0.21369878947734833, -0.035350196063518524, 0.14889377355575562, 0.041989363729953766, -0.08881352096796036, -0.14084286987781525, 0.06922676414251328, -0.0208670012652874, -0.07427514344453812, -0.04308301582932472, -0.12114551663398743, -0.010593724437057972, 0.11819036304950714, 0.08121462166309357, -0.05641554668545723, 0.07188624143600464, -0.06172942370176315, -0.2824738621711731], [0.2361179143190384, 0.005163786467164755, -0.001361757516860962, 0.011900164186954498, -0.05310770124197006, -0.17174112796783447, -0.00194365659262985, 0.0627497211098671, -0.11627434194087982, 0.03686387464404106, -0.05354342609643936, 0.04561888054013252, -0.012397531419992447, -0.04728460684418678, 0.010893337428569794, -0.044588152319192886, 0.01706204004585743, 0.08836143463850021, 0.05955829843878746, 0.036033011972904205, -0.035759225487709045, -0.039273735135793686, -0.0996566042304039, 0.009267234243452549, 0.1238117516040802, 0.030524712055921555, 0.05424237251281738, 0.03377612307667732, -0.031282939016819, 0.073122039437294, -0.007063673343509436, 0.003241457976400852, 0.07973542809486389, -0.09474743902683258, -0.058039188385009766, -0.0652715414762497, -0.013744273222982883, -0.014174125157296658, 0.013220340944826603, -0.009077135473489761, 0.03124690242111683, -0.06873496621847153, 0.0372229665517807, 0.013433119282126427, 0.09934575855731964, 0.11826419085264206, -0.04758567363023758, 0.06427182257175446, -0.020407600328326225, -0.0012569550890475512, -0.10611981153488159, 0.08209937810897827, -0.06886851042509079, -0.012719475664198399, 0.005200743675231934, 0.09267642349004745, -0.04574532434344292, 0.10930515825748444, -0.10615009814500809, -0.12182779610157013, 0.13368654251098633, -0.04123399779200554, 0.019946826621890068, -0.1055847629904747, -0.18943025171756744, -0.0509318932890892, -0.04261456057429314, 0.02801508456468582, 0.1143907755613327, 0.08868201822042465, 0.0671241506934166, 0.15558995306491852, 0.10571309179067612, -0.05059051141142845, -0.09980685263872147, 0.07549845427274704, 0.013664664700627327, 0.030791370198130608, -0.02251802198588848, 0.041813235729932785, -0.1516377478837967, 0.1307782679796219, 0.17067238688468933, 0.01472936850041151, 0.03762218728661537, 0.19795016944408417, -0.09670206159353256, 0.03910715505480766, 0.042731791734695435, -0.1583341807126999, -0.06628819555044174, 0.10337327420711517, -0.35274431109428406, 0.07404977828264236, 0.0993858352303505, -0.1267590969800949, 0.14920087158679962, -0.08086960762739182, 0.10313387960195541, 0.0404660739004612, 0.06870363652706146, 0.17956429719924927, -0.08114860206842422, 0.11116255819797516, 0.006460404954850674, 0.12778231501579285, -0.06877217441797256], [-0.07571753859519958, 0.18394185602664948, -0.026856526732444763, -0.025076374411582947, 0.038306109607219696, -0.16164100170135498, -0.008707370609045029, 0.05034434422850609, 0.029461342841386795, -0.10218719393014908, 0.010716200806200504, -0.055976975709199905, -0.06432780623435974, 0.04213344305753708, -0.14621785283088684, -0.006345261819660664, -0.023089352995157242, 0.10265444219112396, 0.017645614221692085, -0.050400227308273315, 0.020479967817664146, -0.01576928049325943, -0.05465662106871605, 0.09084481745958328, 0.026130476966500282, -0.07543259859085083, -0.019893305376172066, 0.06340992450714111, 0.07622499763965607, -0.18835097551345825, -0.1633000671863556, -0.08458356559276581, 0.15469135344028473, 0.10949037224054337, 0.06720925122499466, -0.014468011446297169, -0.10264095664024353, 0.062283799052238464, 0.03406370058655739, 0.07649636268615723, 0.006605011876672506, 0.01244404073804617, 0.017275400459766388, 0.008271611295640469, -0.0467570498585701, 0.0644007995724678, -0.06233461573719978, 0.04100891947746277, 0.08625883609056473, -0.05232861265540123, 0.04081440716981888, -0.11438453197479248, 0.04698258638381958, 0.16779005527496338, 0.02633933164179325, 0.042353611439466476, 0.05645976960659027, 0.10361729562282562, -0.006208193022757769, 0.038934871554374695, 0.06689760833978653, -0.0033759260550141335, -0.07967516779899597, 0.19617092609405518, 0.09909053146839142, -0.1350901871919632, -0.02630302682518959, -0.2225116789340973, 0.14345796406269073, -0.14139145612716675, 0.012581695802509785, 0.10839840769767761, -0.07796889543533325, -0.0802168920636177, 0.08174958825111389, -0.026242077350616455, 0.025216437876224518, 0.07550922781229019, 0.0923890694975853, -0.035228803753852844, -0.04503534734249115, 0.0007227969472296536, 0.11646712571382523, 0.021585438400506973, -0.060162659734487534, -0.020548732951283455, -0.19572797417640686, -0.2181929498910904, -0.10233213752508163, 0.10725367069244385, -0.021112125366926193, 0.20798082649707794, -0.011025720275938511, -0.23436975479125977, 0.11922047287225723, -0.04993908479809761, 0.08738025277853012, -0.05889397859573364, 0.02997215837240219, -0.059072550386190414, 0.18269015848636627, 0.02999405562877655, 0.08585938066244125, -0.06296472996473312, -0.1645847111940384, -0.1453174203634262, 0.11279265582561493], [-0.22799603641033173, 0.26594239473342896, -0.09235860407352448, -0.08820460736751556, -0.07139391452074051, -0.15797370672225952, 0.022910788655281067, 0.14116379618644714, 0.1322081834077835, 0.15574060380458832, 0.1038433238863945, -0.01090882159769535, -0.017318513244390488, 0.02319350093603134, -0.030168525874614716, 0.0507228784263134, 0.08645802736282349, -0.01707596890628338, 0.03808480128645897, 0.045318301767110825, -0.032641492784023285, 0.0004446059465408325, 0.04294656589627266, 0.20428629219532013, 0.08252780139446259, -0.010467622429132462, -0.03208630532026291, 0.007816636934876442, -0.13206486403942108, 0.06471727788448334, 0.06416283547878265, 0.05202741175889969, 0.20084859430789948, 0.024011392146348953, -0.10733088105916977, -0.1383448988199234, 0.03615210950374603, 0.01798064447939396, 0.015149842016398907, -0.12277054786682129, 0.07856176793575287, 0.0075257690623402596, 0.07863658666610718, -0.06810304522514343, 0.1371496468782425, -0.004092931281775236, -0.02914535254240036, -0.18124358355998993, -0.06005334109067917, 0.08274214714765549, 0.04462188854813576, -0.034478459507226944, 0.02116234600543976, 0.3277963101863861, 0.034010063856840134, -0.003606706392019987, -0.008715635165572166, -0.0822056457400322, -0.10184667259454727, -0.040641654282808304, -0.09949836134910583, 0.1534499078989029, -0.04489760473370552, -0.0038611507043242455, -0.050658103078603745, 0.1731795221567154, 0.08343461900949478, 0.10224193334579468, -0.10207480192184448, -0.013275949284434319, 0.011936969123780727, 0.0007965549593791366, -0.15398232638835907, -0.03247782960534096, 0.09364716708660126, -0.008499972522258759, -0.24649637937545776, -0.06432513892650604, -0.14785335958003998, 0.13234010338783264, 0.16466516256332397, 0.048694297671318054, -0.13934335112571716, 0.04118956997990608, 0.06655377149581909, -0.2241881638765335, -0.12423836439847946, -0.012027931399643421, 0.16577275097370148, -0.2922876477241516, 0.06500592827796936, 0.037110585719347, -0.23951353132724762, -0.04116010293364525, 0.19307313859462738, -0.05969945713877678, 0.03301260992884636, -0.0016341579612344503, 0.09675804525613785, 0.21818065643310547, 0.07385601103305817, -0.15310516953468323, -0.053906381130218506, 0.06416005641222, 0.13452863693237305, -0.3450055420398712, -0.15944036841392517], [-0.2825261950492859, 0.24360871315002441, -0.03606735169887543, 0.08782650530338287, 0.07239087671041489, 0.10468004643917084, -0.06336914747953415, -0.0933486595749855, 0.10078249871730804, 0.11701375991106033, 0.09628857672214508, -0.11943964660167694, -0.09365621209144592, -0.022657351568341255, -0.08992966264486313, -0.08257804811000824, -0.13357338309288025, -0.11487951874732971, 0.07034770399332047, -0.0448312945663929, 0.061921216547489166, -0.00040452773100696504, -0.10157329589128494, -0.13095498085021973, -0.12524627149105072, 0.017707038670778275, -0.040943559259176254, -0.06280549615621567, -0.15508614480495453, 0.19660300016403198, -0.1784190684556961, -0.07220696657896042, 0.033359866589307785, -0.1087942123413086, -0.14828068017959595, 0.021103136241436005, 0.03944830596446991, -0.0913531631231308, -0.061020638793706894, 0.042025305330753326, -0.07909902930259705, -0.10945075005292892, -0.09627284854650497, -0.1447732299566269, 0.03639150410890579, 0.04123864322900772, 0.035828717052936554, -0.13696086406707764, -0.1665586680173874, -0.08060214668512344, -0.06516029685735703, -0.0938626080751419, -0.03340517356991768, 0.039097465574741364, 0.04707729443907738, -0.005927582271397114, 0.07012026757001877, 0.006593738682568073, -0.008065342903137207, -0.052853599190711975, -0.21579639613628387, -0.0073860217817127705, 0.09120969474315643, 0.05710732936859131, -0.06963405013084412, -0.06744688004255295, -0.08767929673194885, -0.08071965724229813, -0.031472526490688324, 0.09429989010095596, 0.08151406049728394, 0.08262601494789124, -0.08338674157857895, 0.02376168966293335, 0.022895339876413345, -0.03257299214601517, 0.07471753656864166, -0.08433214575052261, -0.016416460275650024, 0.007375150918960571, 0.015265872702002525, -0.10806437581777573, 0.04223030433058739, 0.12627725303173065, -0.06338665634393692, 0.022835085168480873, 0.16281658411026, 0.032345544546842575, 0.016210384666919708, 0.040574051439762115, -0.15298253297805786, -0.021904604509472847, -0.04312983527779579, 0.1296226978302002, -0.03323505446314812, 0.01938639022409916, -0.06884913146495819, 0.012154310010373592, 0.06309233605861664, -0.041602302342653275, -0.017739446833729744, 0.038525402545928955, 0.022682471200823784, -0.07463586330413818, 0.06427323818206787, 0.07622930407524109, -0.15047147870063782], [0.2571905851364136, 0.042500510811805725, -0.0907992273569107, -0.016312874853610992, -0.004216806497424841, 0.052672166377305984, -0.005070649087429047, 0.0024295386392623186, 0.0016724022570997477, 0.06080294027924538, -0.01495546568185091, -0.04999002441763878, 0.008338038809597492, 0.0033460340928286314, 0.049093060195446014, -0.04393703117966652, -0.06891876459121704, 0.054182592779397964, -0.0007735444814898074, -0.05099056288599968, -0.048869889229536057, -0.009086953476071358, 0.07912328094244003, 0.01709621772170067, -0.12819711863994598, -0.21095222234725952, -0.025597497820854187, -0.039652060717344284, 0.08705513924360275, -0.11395090818405151, 0.10254781693220139, 0.08403854817152023, -0.10736383497714996, -0.01999281905591488, -0.07001600414514542, 0.14978288114070892, 0.0721510574221611, -0.08526753634214401, 0.09441550076007843, 0.028828291222453117, -0.05130741372704506, -0.08693715184926987, -0.05412602797150612, -0.03542281314730644, -0.0612352155148983, -0.012952110730111599, -0.07238014787435532, -0.030089275911450386, -0.11017110198736191, 0.041171036660671234, -0.04519828408956528, -0.09595516324043274, -0.09039555490016937, 0.2870478630065918, -0.048607174307107925, -0.04289185255765915, -0.0021167295053601265, 0.0017803916707634926, 0.12374994158744812, 0.08302729576826096, 0.2166423201560974, 0.10522934794425964, -0.2382168024778366, 0.1719377636909485, 0.1810234636068344, -0.025593606755137444, -0.059834279119968414, -0.07257748395204544, -0.04739644005894661, -0.031144829466938972, -0.022287968546152115, -0.026053903624415398, -0.12907208502292633, 0.01524891797453165, -0.02788689360022545, 0.1407635360956192, 0.02090691775083542, -0.017809247598052025, 0.023541444912552834, -0.0006066621281206608, 0.14452984929084778, -0.05725354701280594, 0.11417839676141739, 0.13007809221744537, 0.11707291752099991, -0.0469897985458374, -0.14713384211063385, 0.08649493753910065, -0.0770304873585701, -0.1794908344745636, -0.22879405319690704, -0.3544672429561615, -0.1488107293844223, 0.008593009784817696, -0.07602924853563309, 0.023401163518428802, 0.0354761928319931, -0.05066614970564842, -0.09519514441490173, 0.0999295637011528, -0.08554903417825699, 0.05479241535067558, -0.12389329075813293, -0.09108685702085495, -0.05166970565915108, 0.3050002157688141, -0.18990866839885712], [-0.09830790758132935, -0.032165657728910446, 0.07312369346618652, 0.07739850878715515, 0.07572884857654572, 0.0032239053398370743, 0.015470028854906559, 0.05434175580739975, -0.037453602999448776, -0.011619496159255505, -0.04471252113580704, 0.05020081251859665, 0.04233790189027786, 0.04272759333252907, 0.15029968321323395, 0.06778440624475479, -0.03594857081770897, 0.06095215305685997, -0.008886878378689289, 0.015531587414443493, -0.07161760330200195, 0.005316462367773056, -0.021461401134729385, 0.018587928265333176, 0.1410825103521347, 0.11310818046331406, -0.046874094754457474, -0.014659814536571503, -0.03203180804848671, -0.22608813643455505, 0.011022036895155907, -0.029602348804473877, 0.20924468338489532, -0.028820937499403954, 0.06381791830062866, 0.021260522305965424, -0.0190424807369709, 0.10531562566757202, 0.0398271381855011, -0.05378732830286026, -0.029006462544202805, 0.0025997625198215246, 0.02803025394678116, 0.09309697896242142, -0.2211236208677292, -0.03984939306974411, -0.04639866575598717, -0.07152066379785538, 0.07244760543107986, 0.08336664736270905, -0.003088535275310278, -0.025488127022981644, -0.07959344238042831, -0.1420278549194336, 0.15898269414901733, 0.05775926262140274, 0.03563038259744644, -0.12073837220668793, -0.07722663134336472, -0.0744817927479744, 0.08236591517925262, 0.2012096792459488, -0.056471243500709534, -0.16028356552124023, -0.1597217321395874, -0.041993606835603714, -0.05058272182941437, 0.17781494557857513, -0.026588978245854378, -0.13127467036247253, -0.10070855915546417, 0.18250276148319244, 0.10996687412261963, 0.18880867958068848, 0.1301724910736084, -0.02549782022833824, 0.03684895113110542, 0.12588286399841309, 0.03002423606812954, -0.024978432804346085, -0.1264304369688034, 0.13696053624153137, -0.01976778917014599, -0.06603920459747314, 0.011630800552666187, -0.05609794333577156, -0.008382651954889297, 0.17059388756752014, -0.04642478749155998, 0.049497347325086594, -0.0021772519685328007, 0.08141501992940903, -0.1000806912779808, -0.27134671807289124, -0.06764736026525497, -0.1754699945449829, -0.07277051359415054, 0.18604691326618195, 0.06110062450170517, -0.060721203684806824, 0.08963989466428757, -0.08458281308412552, -0.02339315600693226, 0.09098885953426361, 0.029282277449965477, 0.19417737424373627, -0.15657103061676025], [-0.15111534297466278, 0.08898846805095673, 0.08327698707580566, 0.010955646634101868, -0.08180657774209976, -0.16759765148162842, -0.0011407403508201241, 0.09024198353290558, 0.09775690734386444, 0.029917774721980095, -0.04533231258392334, 0.07383916527032852, -0.002837613457813859, 0.04915422201156616, 0.022855909541249275, 0.0604291595518589, 0.04443248733878136, 0.07355806976556778, 0.10685060918331146, -0.05002760514616966, -0.01634080335497856, -0.00574524374678731, 0.021050451323390007, 0.0023174271918833256, -0.15146414935588837, 0.13471534848213196, 0.051961883902549744, -0.04564719274640083, 0.2028283327817917, 0.10864368826150894, -0.04410417750477791, -0.10440166294574738, -0.16983096301555634, -0.07710329443216324, -0.006675433367490768, -0.020111262798309326, -0.09962958842515945, 0.06529819220304489, 0.02757333591580391, 0.0026320023462176323, 0.03201835975050926, 0.06556268781423569, 0.07734979689121246, -0.1257784217596054, 0.09281746298074722, -0.08601334691047668, 0.08298736810684204, -0.03643442317843437, -0.022112123668193817, 0.07344371825456619, 0.047534309327602386, -0.006627239752560854, -0.0764458179473877, 0.19489292800426483, -0.0277375727891922, 0.025062667205929756, 0.011756411753594875, -0.03848540782928467, -0.036824047565460205, 0.04574212431907654, -0.11276540905237198, -0.041331857442855835, -0.04009108245372772, 0.1609041839838028, 0.04044519364833832, 0.0035266797058284283, 0.1324644833803177, 0.051746487617492676, -0.18702436983585358, 0.042157746851444244, -0.18527260422706604, 0.06969565153121948, 0.1013646125793457, 0.005977205000817776, -0.06295596808195114, 0.03347049281001091, 0.09652597457170486, 0.08865080028772354, 0.05138930305838585, -0.15202677249908447, -0.06675805896520615, -0.02978808805346489, 0.10134784877300262, 0.09644283354282379, -0.009646426886320114, 0.029868125915527344, -0.11266766488552094, -0.10915526002645493, 0.12260358035564423, 0.11623335629701614, 0.01919472962617874, 0.05803617089986801, 0.057034581899642944, 0.08495867252349854, -0.2099512219429016, -0.23313504457473755, -0.04518895223736763, -0.1312415599822998, -0.03085748665034771, 0.11029694974422455, 0.024667343124747276, 0.07845909148454666, -0.03863031789660454, 0.035566117614507675, 0.12320999801158905, -0.12230783700942993, -0.37545284628868103], [-0.013756869360804558, -0.02298063226044178, -0.04077768698334694, 0.05212134122848511, 0.06386765837669373, -0.1967272013425827, 0.01246258057653904, -0.05363256111741066, -0.057042088359594345, -0.146614670753479, 0.06208925321698189, 0.01002476830035448, 0.009253044612705708, 0.06040427088737488, -0.054548729211091995, 0.10690054297447205, 0.13535697758197784, 0.03402304649353027, 0.029914729297161102, 0.011112278327345848, 0.07543056458234787, -0.007294653449207544, 0.010370906442403793, 0.029002957046031952, -0.014888962730765343, -0.08879413455724716, 0.10149899125099182, -0.04691808670759201, 0.1876097023487091, -0.2666837275028229, -0.017959214746952057, -0.024562397971749306, -0.09383253008127213, -0.211165651679039, 0.06916482746601105, 0.06065300107002258, -0.004826031159609556, 0.08981166034936905, 0.04408526420593262, -0.06601560860872269, -0.019510453566908836, 0.02924392558634281, -0.010447917506098747, 0.013959345407783985, -0.03291972354054451, -0.030272645875811577, 0.05714751407504082, -0.043738946318626404, -0.08003372699022293, -0.030193239450454712, 0.02720031701028347, 0.02569020912051201, 0.03108462691307068, -0.10102666914463043, -0.007976153865456581, 0.023963991552591324, 0.12228866666555405, -0.09409040957689285, -0.07692356407642365, -0.01760145090520382, -0.11142931133508682, 0.10877808928489685, 0.001557893818244338, 0.09792110323905945, -0.06830029934644699, -0.013637874275445938, -0.12041342258453369, 0.1857629120349884, -0.018833352252840996, -0.11281851679086685, 0.09097714722156525, -0.2834593951702118, -0.10722524672746658, -0.00933794490993023, 0.10655584931373596, 0.1802576184272766, 0.1127285435795784, 0.06216520071029663, 0.22153562307357788, 0.0037694002967327833, 0.2483437955379486, 0.1188635379076004, -0.08820834010839462, -0.03804197534918785, -0.10322805494070053, -0.000324423162965104, -0.012031953781843185, 0.053557395935058594, 0.18274587392807007, 0.02377198450267315, -0.007712941151112318, -0.2058960646390915, 0.2681165039539337, 0.003565603867173195, -0.11944178491830826, -0.16003894805908203, -0.023395059630274773, 0.09128690510988235, -0.1509690135717392, -0.11306345462799072, -0.07629191875457764, 0.02074338123202324, -0.05529458448290825, 0.10260067135095596, -0.0037708061281591654, -0.33505481481552124, 0.38452649116516113], [-0.05623573064804077, -0.07418118417263031, 0.03572039306163788, 0.09629958868026733, -0.064259372651577, 0.05613579973578453, -0.0568934865295887, 0.042025789618492126, 0.055974822491407394, -0.016386989504098892, 0.09772254526615143, 0.0760238915681839, 0.04386245459318161, 0.10262270271778107, -0.010471533052623272, 0.04890047758817673, 0.003275022841989994, -0.03361094370484352, -0.026338880881667137, 0.09058519452810287, 0.004768937826156616, 0.07356514781713486, -0.04341398552060127, -0.05132449418306351, 0.09101729094982147, 0.00835915096104145, 0.11393536627292633, -0.18505245447158813, 0.19516611099243164, -0.23573017120361328, -0.033178649842739105, -0.08487468957901001, 0.025625336915254593, 0.017153598368167877, -0.1360180377960205, -0.12761934101581573, 0.011120324023067951, 0.05055251717567444, -0.05083716660737991, -0.026050902903079987, -0.1789286732673645, 0.026004556566476822, 0.0056680007837712765, 0.07192125916481018, 0.24951539933681488, 0.005997271277010441, -0.0016197508666664362, 0.030242929235100746, 0.04429895058274269, -0.10326971858739853, -0.1105278879404068, 0.025455664843320847, 0.0627545490860939, 0.24993175268173218, -0.015584805980324745, -0.09533137828111649, 0.009388385340571404, -0.12195634841918945, 0.025878123939037323, 0.1800200343132019, -0.02979396842420101, -0.18555548787117004, 0.17444628477096558, 0.1843658685684204, 0.03460496664047241, 0.2848038077354431, -0.05165897682309151, 0.06395044922828674, -0.017507852986454964, -0.019332122057676315, 0.00023048547154758126, -0.16048885881900787, -0.08752751350402832, 0.10302941501140594, 0.017376907169818878, 0.15345138311386108, 0.002777431858703494, -0.0877489522099495, -0.06206071004271507, -0.011483313515782356, -0.17192737758159637, 0.03687477484345436, -0.18090304732322693, -0.045679762959480286, 0.1052422896027565, -0.031193949282169342, -0.06421230733394623, -0.032669756561517715, -0.1210779994726181, 0.17446044087409973, -0.0506574809551239, -0.26795694231987, 0.04407172650098801, -0.03388885781168938, -0.05554204434156418, 0.02302630990743637, 0.08327967673540115, -0.02033071406185627, 0.09336011856794357, 0.047918230295181274, 0.17009232938289642, 0.0258110873401165, -0.027988851070404053, 0.16102087497711182, 0.10162682831287384, 0.02314888872206211, -0.2929396629333496], [-0.1523999571800232, 0.04536166042089462, 0.07045209407806396, -0.003386475145816803, -0.008904557675123215, 0.40165331959724426, 0.00821638759225607, -0.030436042696237564, 0.08693933486938477, 0.04618922248482704, -0.004556373693048954, 0.09705408662557602, -0.022059179842472076, 0.09145081788301468, -0.02213290147483349, 0.006784135941416025, -0.10729886591434479, 0.22424164414405823, 0.054552383720874786, 0.12580786645412445, 0.06698901206254959, 0.07667969912290573, 0.037405915558338165, 0.03876212239265442, 0.028171028941869736, -0.12744495272636414, 0.10188460350036621, 0.11979164928197861, 0.11313683539628983, -0.07647960633039474, 0.12015990912914276, -0.07354451715946198, 0.025357428938150406, -0.04420961067080498, -0.05007070675492287, -0.29534098505973816, -0.1094672903418541, 0.005005812272429466, -0.10024821758270264, -0.07216756045818329, -0.08820506930351257, -0.08960840106010437, -0.04269043356180191, -0.037282418459653854, 0.02466110698878765, 0.08068668097257614, -0.03500281646847725, -0.011630326509475708, 0.05494362860918045, 0.02993319183588028, -0.08058571815490723, -0.0596076175570488, 0.05462263897061348, -0.0034477123990654945, -0.014199611730873585, -0.1749282032251358, -0.08411664515733719, 0.00749870203435421, -0.06074393913149834, 0.004454182926565409, -0.03176373615860939, 0.287002295255661, -0.23803427815437317, -0.09730785340070724, -0.04349891096353531, 0.1340802162885666, 0.1745510697364807, 0.1830752044916153, 0.07095296680927277, -0.22622428834438324, 0.038465023040771484, 0.1150253638625145, -0.10811343789100647, 0.11646874248981476, 0.08481171727180481, 0.08982647955417633, 0.15394844114780426, 0.026661084964871407, 0.1563904881477356, 0.00986233726143837, -0.18130995333194733, 0.12590526044368744, -0.06220676749944687, 0.020823465660214424, -0.018002010881900787, 0.054266855120658875, 0.07404498010873795, -0.17225489020347595, 0.012817728333175182, -0.08897856622934341, -0.18122515082359314, -0.030852096155285835, 0.06731683760881424, -0.07772181183099747, 0.06303132325410843, 0.0462934672832489, 0.06350867450237274, 0.07924996316432953, 0.08286050707101822, -0.0789962187409401, -0.09598763287067413, 0.09197499603033066, 0.030416475608944893, -0.03846408426761627, -0.19353221356868744, -0.23362046480178833, 0.0508468858897686], [0.28630924224853516, -0.09056264907121658, 0.04850688576698303, -0.0028357133269309998, -0.09376733005046844, 0.02190062776207924, -0.031820282340049744, 0.027141010388731956, 0.10016509890556335, -0.21534982323646545, 0.058856140822172165, 0.0014757922617718577, -0.056817106902599335, -0.012437889352440834, 0.06443370878696442, 0.05202126130461693, 0.0063841273076832294, -0.21483536064624786, 0.026523547247052193, 0.08375617116689682, 0.05159296840429306, 0.04879162460565567, 0.025248225778341293, -0.005026352591812611, 0.00540801091119647, -0.036393363028764725, -0.034785252064466476, 0.03500869870185852, -0.010385197587311268, -0.06779661774635315, -0.031308941543102264, 0.015353438444435596, 0.019480297341942787, 0.002285048132762313, -0.04793030023574829, 0.027344970032572746, 0.043082378804683685, 0.08698804676532745, 0.1292145550251007, 0.045242637395858765, 0.09259292483329773, 0.04251662641763687, 0.1436355710029602, -0.025878123939037323, -0.02930394746363163, -0.023235341534018517, -0.07715968042612076, 0.08696933090686798, -0.05014946684241295, 0.040025513619184494, 0.07300496101379395, -0.058866165578365326, -0.04021083563566208, -0.11466855555772781, -0.07795469462871552, 0.04984380677342415, 0.04106324166059494, -0.012840048409998417, -0.00707213394343853, -0.016317972913384438, -0.17313838005065918, 0.08674488961696625, -0.024083124473690987, 0.18092164397239685, -0.03825884684920311, -0.12984901666641235, 0.008898108266294003, -0.039227113127708435, -0.017996419221162796, -0.1306217759847641, 0.11833672225475311, -0.28319066762924194, -0.0800139307975769, 0.003155582817271352, -0.02541888877749443, 0.039480846375226974, 0.1193518191576004, 0.16198574006557465, 0.145003080368042, 0.07678528130054474, -0.007181697525084019, 0.04136338829994202, -0.13579346239566803, -0.1245054379105568, 0.09932703524827957, 0.027807964012026787, -0.04483051225543022, 0.04225422814488411, -0.008462377823889256, -0.04268224164843559, 0.19891369342803955, -0.2177339345216751, -0.14096280932426453, -0.04595160856842995, -0.16327039897441864, 0.10027087479829788, -0.05097288265824318, -0.16938625276088715, -0.13409078121185303, 0.1083851307630539, 0.004135070368647575, -0.052871715277433395, -0.07210391014814377, 0.04889937862753868, -0.054072488099336624, 0.18135114014148712, -0.5524343848228455], [-0.3834075331687927, 0.2777950167655945, -0.05887405574321747, -0.025959618389606476, 0.008570769801735878, -0.09455686807632446, 0.03842844441533089, -0.021040335297584534, 0.06183615326881409, 0.06436822563409805, 0.023059511557221413, 0.04045722261071205, -0.12622526288032532, -0.13874706625938416, -0.029793811962008476, -0.11678176373243332, 0.044157907366752625, -0.014022675342857838, -0.06227373331785202, -0.09995463490486145, -0.007244412787258625, -0.056711919605731964, 0.029890164732933044, -0.04424659535288811, -0.1287992298603058, 0.08920630067586899, -0.07131272554397583, 0.19252467155456543, -0.028629440814256668, 0.026811916381120682, 0.008148354478180408, -0.02161356806755066, -0.05749859660863876, 0.013458438217639923, -0.13045120239257812, 0.2059379369020462, 0.0412178710103035, 0.021370243281126022, -0.1345807909965515, 0.100885309278965, -0.01894991472363472, -0.0695195347070694, 0.059092726558446884, -0.04136873781681061, 0.1473120152950287, 0.09482590854167938, 0.01243218407034874, 0.12991270422935486, 0.09809054434299469, 0.1120929941534996, 0.09667909145355225, 0.14045323431491852, -0.09029549360275269, 0.0702822282910347, -0.06681270897388458, 0.05182749778032303, -0.09850284457206726, -0.02687920443713665, -0.054311588406562805, 0.12689009308815002, -0.20757773518562317, 0.32740792632102966, 0.1555003672838211, -0.147873193025589, -0.12067167460918427, -0.26533013582229614, -0.05003393068909645, -0.06386058777570724, -0.10783262550830841, 0.10738646239042282, -0.09295481443405151, 0.2340760976076126, -0.06509687006473541, -0.055571310222148895, -0.11780358850955963, -0.11733020842075348, 0.055138617753982544, 0.036053985357284546, -0.11164143681526184, -0.13200919330120087, 0.01941722072660923, 0.013006985187530518, -0.201076939702034, -0.1510867476463318, 0.05058278888463974, 0.11247658729553223, 0.00011478544911369681, 0.06475378572940826, 0.0031785364262759686, -0.0028599274810403585, 0.065958172082901, -0.1476995050907135, 0.1554247885942459, -0.018846530467271805, -0.19925375282764435, -0.22038674354553223, 0.0046007223427295685, -0.054717160761356354, 0.04234085604548454, 0.1277891844511032, 0.04562278091907501, 0.025316951796412468, 0.07948311418294907, -0.020606573671102524, -0.10551302880048752, -0.2964377999305725, 0.20056135952472687], [0.3980529010295868, 0.010300612077116966, -0.08678795397281647, -0.0822841078042984, -0.00774775305762887, 0.020022893324494362, 0.056910425424575806, -0.05418703332543373, -0.148593008518219, -0.05412751063704491, -0.12716101109981537, -0.026943394914269447, -0.06885503977537155, -0.06704673916101456, 0.018602393567562103, -0.045826904475688934, -0.026428425684571266, 0.028142213821411133, 0.10121332854032516, -0.0025604877155274153, -0.09984205663204193, 0.06253653019666672, 0.02868875488638878, -0.04213660955429077, -0.1765739768743515, 0.04025863856077194, -0.0697052851319313, -0.04903855174779892, -0.18564315140247345, 0.12182117998600006, -0.06879197806119919, -0.12120227515697479, -0.03749341517686844, -0.03861360251903534, 0.023079153150320053, -0.013682021759450436, -0.06423398852348328, 0.05773107334971428, -0.10875971615314484, -0.030758261680603027, -0.0783686637878418, -0.06033160164952278, -0.07666321098804474, 0.010343455709517002, 0.13399648666381836, -0.06070617213845253, 0.12341955304145813, -0.09840228408575058, -0.0186143908649683, 0.033749546855688095, 0.1353285163640976, 0.05378525331616402, 0.03965085372328758, -0.10934217274188995, -0.013891786336898804, 0.0027228870894759893, -0.09992051124572754, -0.042403921484947205, -0.021328259259462357, -0.1907922774553299, -0.1890869438648224, 0.23553819954395294, 0.08781809359788895, -0.10247895121574402, 0.045580584555864334, -0.0712449923157692, 0.12391773611307144, 0.1698845773935318, 0.11391371488571167, -0.018047265708446503, 0.04585075378417969, 0.03814896568655968, 0.0892878994345665, -0.04160506650805473, 0.012812270782887936, -0.11024422198534012, -0.0997886061668396, -0.0014951123157516122, -0.10820631682872772, 0.08098486065864563, -0.19617930054664612, 0.014836613088846207, -0.03272297605872154, -0.03554780036211014, -0.06555239111185074, -0.1609203964471817, 0.12571625411510468, -0.09982936829328537, -0.009535695426166058, -0.02534577250480652, -0.03665517270565033, -0.04441116377711296, 0.06510346382856369, 0.04083000868558884, 0.11204534769058228, 0.03188913315534592, -0.02518620528280735, -0.02710922248661518, 0.10059715807437897, 0.011088922619819641, -0.14977149665355682, -0.02462896518409252, -0.10942694544792175, -0.04889925941824913, -0.07356628775596619, 0.10143593698740005, 0.2935677170753479], [0.16636911034584045, 0.15442442893981934, -0.039424605667591095, -0.06226034834980965, -0.020736118778586388, -0.044846292585134506, -0.06137588620185852, -0.05624449625611305, -0.0020668378565460443, 0.008938053622841835, 0.05459458753466606, -0.010812531225383282, -0.09512662142515182, -0.0007613956113345921, -0.07483229786157608, -0.058787137269973755, -0.06077923998236656, -0.0644783303141594, -0.05250319465994835, -0.06287863850593567, -0.018449362367391586, 0.03419185057282448, 0.03838034346699715, 0.006843562703579664, -0.0167761892080307, -0.03312681242823601, -0.19859851896762848, 0.11403016746044159, -0.17442099750041962, -0.17495648562908173, -0.01353798434138298, -0.006725851446390152, -0.053238485008478165, 0.04691172018647194, 0.04843886196613312, -0.08799458295106888, 0.051795344799757004, -0.07826273888349533, -0.04057597368955612, -0.06487470865249634, -0.06658635288476944, -0.0728006511926651, -0.07074973732233047, -0.03549456596374512, -0.12317653745412827, 0.07641720026731491, -0.07547435909509659, -0.12133121490478516, -0.04829971119761467, -0.031126955524086952, -0.03166303038597107, -0.061319466680288315, -0.00045221447362564504, 0.07547421753406525, 0.044716984033584595, -0.15429528057575226, 0.05952466279268265, 0.12527219951152802, 0.023752668872475624, 0.099617138504982, 0.052208203822374344, -0.0790281668305397, 0.13898807764053345, 0.030560126528143883, -0.001136794569902122, 0.1076785996556282, 0.06709054857492447, 0.035959891974925995, 0.002614319324493408, -0.17587238550186157, -0.17878225445747375, 0.13939476013183594, 0.07407306134700775, -0.020092526450753212, 0.14577855169773102, 0.08981028199195862, -0.0776757299900055, 0.1360226273536682, 0.12345612049102783, -0.03773631155490875, 0.061711810529232025, 0.1738833338022232, 0.01825535111129284, -0.21216940879821777, 0.0045044696889817715, 0.09458346664905548, -0.17020709812641144, -0.09737222641706467, 0.12979233264923096, 0.09976218640804291, -0.02437191642820835, -0.09643113613128662, 0.2243594229221344, -0.018897539004683495, 0.13674412667751312, -0.17596662044525146, -0.06598670035600662, 0.052885062992572784, -0.10005921125411987, 0.17681366205215454, 0.1184346005320549, 0.011603505350649357, -0.056156549602746964, 0.08889733254909515, 0.014797251671552658, 0.17278225719928741, 0.2615584433078766], [-0.1403512805700302, -0.03687009960412979, 0.009989611804485321, 0.08970578014850616, -0.07186576724052429, 0.1967836171388626, 0.055545318871736526, -0.021838461980223656, 0.022889237850904465, 0.044335298240184784, 0.055135488510131836, 0.002125329338014126, -0.04390161111950874, 0.04979681968688965, -0.1172064021229744, 0.08541470021009445, -0.026197584345936775, -0.17922112345695496, -0.05956075340509415, -0.011800374835729599, -0.09124261885881424, 0.015252371318638325, 0.11608552187681198, -0.03143882378935814, 0.04677479341626167, -0.0909123569726944, 0.04018990695476532, 0.11658497899770737, 0.11715829372406006, 0.13493403792381287, -0.03774445131421089, -0.041352834552526474, -0.24447017908096313, 0.07259833067655563, -0.04354880750179291, -0.03950192779302597, 0.04833731800317764, 0.007960823364555836, -0.03607260808348656, -0.027790125459432602, 0.050298579037189484, -0.015948574990034103, 0.09947555512189865, 0.055891260504722595, -0.06916967034339905, -0.03445007652044296, -0.01880786009132862, 0.001444952329620719, -0.07251862436532974, -0.07951949536800385, 0.1355620175600052, 0.04564673826098442, -0.09366830438375473, -0.0604289285838604, -0.00385305262170732, -0.06794638931751251, -0.06405538320541382, -0.09935347735881805, -0.020001163706183434, 0.13212896883487701, -0.1457221955060959, -0.050679538398981094, 0.05286320671439171, -0.1464821696281433, 0.01099794078618288, -0.0747121199965477, -0.12349905073642731, -0.18235918879508972, -0.0027768665459007025, -0.13477380573749542, -0.10737519711256027, -0.3564266264438629, 0.059234555810689926, -0.007154221646487713, -0.11878163367509842, 0.01966460607945919, -0.11754283308982849, -0.014148801565170288, -0.053695689886808395, 0.08091360330581665, -0.015630729496479034, 0.06964969635009766, 0.05635889619588852, -0.21054835617542267, 0.13541971147060394, 0.13526535034179688, -0.02251531183719635, -0.13517041504383087, 0.08565337210893631, -0.1955559253692627, -0.05027749389410019, -0.15858829021453857, -0.03372388333082199, 0.12452327460050583, -0.06368882954120636, 0.21140113472938538, 0.1436433643102646, 0.22481657564640045, -0.0486498586833477, 0.03607780486345291, -0.12181263417005539, 0.035367947071790695, -0.0022960861679166555, 0.0973760336637497, 0.05618569627404213, -0.06311158090829849, -0.17756934463977814], [0.27590495347976685, 0.21513330936431885, -0.034640680998563766, 0.07783696055412292, 